0.000000000000000000e+00,5.765965819999999686e-01,1.000000000000000000e+01,-1.000000000000000000e+02
0.000000000000000000e+00,5.565965819999999509e-01,1.000000000000000000e+01,-1.000000000000000000e+02
0.000000000000000000e+00,7.965965820000000530e-01,1.000000000000000000e+01,-1.000000000000000000e+02
0.000000000000000000e+00,1.256596582000000462e+00,1.000000000000000000e+01,-1.000000000000000000e+02
0.000000000000000000e+00,5.565965819999999509e-01,1.000000000000000000e+01,-1.000000000000000000e+02
0.000000000000000000e+00,6.765965820000000575e-01,1.000000000000000000e+01,-1.000000000000000000e+02
0.000000000000000000e+00,5.565965819999999509e-01,1.000000000000000000e+01,-1.000000000000000000e+02
0.000000000000000000e+00,8.965965820000001418e-01,1.000000000000000000e+01,-1.000000000000000000e+02
0.000000000000000000e+00,8.165965820000000708e-01,1.000000000000000000e+01,-1.000000000000000000e+02
0.000000000000000000e+00,8.565965820000001063e-01,1.000000000000000000e+01,-1.000000000000000000e+02
0.000000000000000000e+00,6.365965820000000219e-01,1.000000000000000000e+01,-1.000000000000000000e+02
0.000000000000000000e+00,8.765965820000001241e-01,1.000000000000000000e+01,-1.000000000000000000e+02
0.000000000000000000e+00,7.565965820000001285e-01,1.000000000000000000e+01,-1.000000000000000000e+02
0.000000000000000000e+00,1.736596582000000888e+00,1.000000000000000000e+01,-1.000000000000000000e+02
0.000000000000000000e+00,6.165965820000000042e-01,1.000000000000000000e+01,-1.000000000000000000e+02
0.000000000000000000e+00,9.165965820000001596e-01,1.000000000000000000e+01,-1.000000000000000000e+02
0.000000000000000000e+00,8.365965820000000885e-01,1.000000000000000000e+01,-1.000000000000000000e+02
0.000000000000000000e+00,9.165965820000001596e-01,1.000000000000000000e+01,-1.000000000000000000e+02
0.000000000000000000e+00,1.196596582000000408e+00,1.000000000000000000e+01,-1.000000000000000000e+02
0.000000000000000000e+00,1.396596582000000586e+00,1.000000000000000000e+01,-1.000000000000000000e+02
0.000000000000000000e+00,1.476596582000000657e+00,1.000000000000000000e+01,-1.000000000000000000e+02
0.000000000000000000e+00,5.365965819999999331e-01,1.000000000000000000e+01,-1.000000000000000000e+02
0.000000000000000000e+00,9.165965820000001596e-01,1.000000000000000000e+01,-1.000000000000000000e+02
0.000000000000000000e+00,9.365965820000001774e-01,1.000000000000000000e+01,-1.000000000000000000e+02
0.000000000000000000e+00,6.165965820000000042e-01,1.000000000000000000e+01,-1.000000000000000000e+02
0.000000000000000000e+00,5.765965819999999686e-01,1.000000000000000000e+01,-1.000000000000000000e+02
0.000000000000000000e+00,9.965965820000002307e-01,1.000000000000000000e+01,-1.000000000000000000e+02
0.000000000000000000e+00,7.365965820000001107e-01,1.000000000000000000e+01,-1.000000000000000000e+02
0.000000000000000000e+00,2.036596582000000932e+00,1.000000000000000000e+01,-1.000000000000000000e+02
0.000000000000000000e+00,8.965965820000001418e-01,1.000000000000000000e+01,-1.000000000000000000e+02
0.000000000000000000e+00,8.165965820000000708e-01,1.000000000000000000e+01,-1.000000000000000000e+02
0.000000000000000000e+00,4.165965819999999931e-01,1.000000000000000000e+01,-1.000000000000000000e+02
0.000000000000000000e+00,1.196596582000000408e+00,1.000000000000000000e+01,-1.000000000000000000e+02
0.000000000000000000e+00,5.365965819999999331e-01,1.000000000000000000e+01,-1.000000000000000000e+02
0.000000000000000000e+00,6.365965820000000219e-01,1.000000000000000000e+01,-1.000000000000000000e+02
0.000000000000000000e+00,8.765965820000001241e-01,1.000000000000000000e+01,-1.000000000000000000e+02
0.000000000000000000e+00,5.765965819999999686e-01,1.000000000000000000e+01,-1.000000000000000000e+02
0.000000000000000000e+00,7.565965820000001285e-01,1.000000000000000000e+01,-1.000000000000000000e+02
0.000000000000000000e+00,1.016596582000000248e+00,1.000000000000000000e+01,-1.000000000000000000e+02
0.000000000000000000e+00,5.565965819999999509e-01,1.000000000000000000e+01,-1.000000000000000000e+02
0.000000000000000000e+00,4.965965820000000086e-01,1.000000000000000000e+01,-1.000000000000000000e+02
0.000000000000000000e+00,6.765965820000000575e-01,1.000000000000000000e+01,-1.000000000000000000e+02
0.000000000000000000e+00,4.965965820000000086e-01,1.000000000000000000e+01,-1.000000000000000000e+02
0.000000000000000000e+00,4.965965820000000086e-01,1.000000000000000000e+01,-1.000000000000000000e+02
0.000000000000000000e+00,8.565965820000001063e-01,1.000000000000000000e+01,-1.000000000000000000e+02
0.000000000000000000e+00,8.165965820000000708e-01,1.000000000000000000e+01,-1.000000000000000000e+02
0.000000000000000000e+00,8.765965820000001241e-01,1.000000000000000000e+01,-1.000000000000000000e+02
0.000000000000000000e+00,1.856596582000000994e+00,1.000000000000000000e+01,-1.000000000000000000e+02
0.000000000000000000e+00,9.365965820000001774e-01,1.000000000000000000e+01,-1.000000000000000000e+02
0.000000000000000000e+00,1.176596582000000391e+00,1.000000000000000000e+01,-1.000000000000000000e+02
0.000000000000000000e+00,5.965965819999999864e-01,1.000000000000000000e+01,-1.000000000000000000e+02
0.000000000000000000e+00,2.336596582000001199e+00,1.000000000000000000e+01,-1.000000000000000000e+02
0.000000000000000000e+00,9.565965820000001951e-01,1.000000000000000000e+01,-1.000000000000000000e+02
0.000000000000000000e+00,2.056596582000000950e+00,1.000000000000000000e+01,-1.000000000000000000e+02
0.000000000000000000e+00,1.616596582000000781e+00,1.000000000000000000e+01,-1.000000000000000000e+02
0.000000000000000000e+00,4.965965820000000086e-01,1.000000000000000000e+01,-1.000000000000000000e+02
0.000000000000000000e+00,5.565965819999999509e-01,1.000000000000000000e+01,-1.000000000000000000e+02
0.000000000000000000e+00,8.365965820000000885e-01,1.000000000000000000e+01,-1.000000000000000000e+02
0.000000000000000000e+00,8.365965820000000885e-01,1.000000000000000000e+01,-1.000000000000000000e+02
0.000000000000000000e+00,8.565965820000001063e-01,1.000000000000000000e+01,-1.000000000000000000e+02
0.000000000000000000e+00,9.765965820000002129e-01,1.000000000000000000e+01,-1.000000000000000000e+02
0.000000000000000000e+00,6.765965820000000575e-01,1.000000000000000000e+01,-1.000000000000000000e+02
0.000000000000000000e+00,8.165965820000000708e-01,1.000000000000000000e+01,-1.000000000000000000e+02
0.000000000000000000e+00,7.965965820000000530e-01,1.000000000000000000e+01,-1.000000000000000000e+02
0.000000000000000000e+00,1.096596582000000319e+00,1.000000000000000000e+01,-1.000000000000000000e+02
0.000000000000000000e+00,9.365965820000001774e-01,1.000000000000000000e+01,-1.000000000000000000e+02
0.000000000000000000e+00,6.565965820000000397e-01,1.000000000000000000e+01,-1.000000000000000000e+02
0.000000000000000000e+00,5.165965820000000264e-01,1.000000000000000000e+01,-1.000000000000000000e+02
0.000000000000000000e+00,8.965965820000001418e-01,1.000000000000000000e+01,-1.000000000000000000e+02
0.000000000000000000e+00,1.196596582000000408e+00,1.000000000000000000e+01,-1.000000000000000000e+02
0.000000000000000000e+00,6.565965820000000397e-01,1.000000000000000000e+01,-1.000000000000000000e+02
0.000000000000000000e+00,6.765965820000000575e-01,1.000000000000000000e+01,-1.000000000000000000e+02
0.000000000000000000e+00,6.965965820000000752e-01,1.000000000000000000e+01,-1.000000000000000000e+02
0.000000000000000000e+00,1.396596582000000586e+00,1.000000000000000000e+01,-1.000000000000000000e+02
0.000000000000000000e+00,1.496596582000000675e+00,1.000000000000000000e+01,-1.000000000000000000e+02
0.000000000000000000e+00,2.056596582000000950e+00,1.000000000000000000e+01,-1.000000000000000000e+02
0.000000000000000000e+00,7.365965820000001107e-01,1.000000000000000000e+01,-1.000000000000000000e+02
0.000000000000000000e+00,9.565965820000001951e-01,1.000000000000000000e+01,-1.000000000000000000e+02
0.000000000000000000e+00,5.565965819999999509e-01,1.000000000000000000e+01,-1.000000000000000000e+02
0.000000000000000000e+00,7.165965820000000930e-01,1.000000000000000000e+01,-1.000000000000000000e+02
0.000000000000000000e+00,2.796596582000001607e+00,1.000000000000000000e+01,-1.000000000000000000e+02
0.000000000000000000e+00,4.965965820000000086e-01,1.000000000000000000e+01,-1.000000000000000000e+02
0.000000000000000000e+00,8.165965820000000708e-01,1.000000000000000000e+01,-1.000000000000000000e+02
0.000000000000000000e+00,5.365965819999999331e-01,1.000000000000000000e+01,-1.000000000000000000e+02
0.000000000000000000e+00,7.165965820000000930e-01,1.000000000000000000e+01,-1.000000000000000000e+02
0.000000000000000000e+00,7.965965820000000530e-01,1.000000000000000000e+01,-1.000000000000000000e+02
0.000000000000000000e+00,1.736596582000000888e+00,1.000000000000000000e+01,-1.000000000000000000e+02
0.000000000000000000e+00,6.765965820000000575e-01,1.000000000000000000e+01,-1.000000000000000000e+02
0.000000000000000000e+00,7.965965820000000530e-01,1.000000000000000000e+01,-1.000000000000000000e+02
0.000000000000000000e+00,6.765965820000000575e-01,1.000000000000000000e+01,-1.000000000000000000e+02
0.000000000000000000e+00,7.165965820000000930e-01,1.000000000000000000e+01,-1.000000000000000000e+02
0.000000000000000000e+00,9.965965820000002307e-01,1.000000000000000000e+01,-1.000000000000000000e+02
0.000000000000000000e+00,7.565965820000001285e-01,1.000000000000000000e+01,-1.000000000000000000e+02
0.000000000000000000e+00,3.965965820000000308e-01,1.000000000000000000e+01,-1.000000000000000000e+02
0.000000000000000000e+00,6.365965820000000219e-01,1.000000000000000000e+01,-1.000000000000000000e+02
0.000000000000000000e+00,8.765965820000001241e-01,1.000000000000000000e+01,-1.000000000000000000e+02
0.000000000000000000e+00,7.565965820000001285e-01,1.000000000000000000e+01,-1.000000000000000000e+02
0.000000000000000000e+00,7.765965820000001463e-01,1.000000000000000000e+01,-1.000000000000000000e+02
0.000000000000000000e+00,5.765965819999999686e-01,1.000000000000000000e+01,-1.000000000000000000e+02
0.000000000000000000e+00,1.136596582000000355e+00,1.000000000000000000e+01,-1.000000000000000000e+02
0.000000000000000000e+00,1.076596582000000302e+00,1.000000000000000000e+01,-1.000000000000000000e+02
0.000000000000000000e+00,1.436596582000000621e+00,1.000000000000000000e+01,-1.000000000000000000e+02
0.000000000000000000e+00,1.856596582000000994e+00,1.000000000000000000e+01,-1.000000000000000000e+02
0.000000000000000000e+00,4.565965819999999731e-01,1.000000000000000000e+01,-1.000000000000000000e+02
0.000000000000000000e+00,1.116596582000000337e+00,1.000000000000000000e+01,-1.000000000000000000e+02
0.000000000000000000e+00,7.765965820000001463e-01,1.000000000000000000e+01,-1.000000000000000000e+02
0.000000000000000000e+00,1.316596582000000515e+00,1.000000000000000000e+01,-1.000000000000000000e+02
0.000000000000000000e+00,4.565965819999999731e-01,1.000000000000000000e+01,-1.000000000000000000e+02
0.000000000000000000e+00,7.765965820000001463e-01,1.000000000000000000e+01,-1.000000000000000000e+02
0.000000000000000000e+00,9.565965820000001951e-01,1.000000000000000000e+01,-1.000000000000000000e+02
0.000000000000000000e+00,4.965965820000000086e-01,1.000000000000000000e+01,-1.000000000000000000e+02
0.000000000000000000e+00,8.965965820000001418e-01,1.000000000000000000e+01,-1.000000000000000000e+02
0.000000000000000000e+00,8.565965820000001063e-01,1.000000000000000000e+01,-1.000000000000000000e+02
0.000000000000000000e+00,1.396596582000000586e+00,1.000000000000000000e+01,-1.000000000000000000e+02
0.000000000000000000e+00,9.365965820000001774e-01,1.000000000000000000e+01,-1.000000000000000000e+02
0.000000000000000000e+00,9.965965820000002307e-01,1.000000000000000000e+01,-1.000000000000000000e+02
0.000000000000000000e+00,1.016596582000000248e+00,1.000000000000000000e+01,-1.000000000000000000e+02
0.000000000000000000e+00,5.765965819999999686e-01,1.000000000000000000e+01,-1.000000000000000000e+02
0.000000000000000000e+00,1.136596582000000355e+00,1.000000000000000000e+01,-1.000000000000000000e+02
0.000000000000000000e+00,7.565965820000001285e-01,1.000000000000000000e+01,-1.000000000000000000e+02
0.000000000000000000e+00,4.565965819999999731e-01,1.000000000000000000e+01,-1.000000000000000000e+02
0.000000000000000000e+00,5.365965819999999331e-01,1.000000000000000000e+01,-1.000000000000000000e+02
0.000000000000000000e+00,9.765965820000002129e-01,1.000000000000000000e+01,-1.000000000000000000e+02
0.000000000000000000e+00,6.765965820000000575e-01,1.000000000000000000e+01,-1.000000000000000000e+02
0.000000000000000000e+00,6.965965820000000752e-01,1.000000000000000000e+01,-1.000000000000000000e+02
0.000000000000000000e+00,9.965965820000002307e-01,1.000000000000000000e+01,-1.000000000000000000e+02
0.000000000000000000e+00,1.516596582000000693e+00,1.000000000000000000e+01,-1.000000000000000000e+02
0.000000000000000000e+00,1.856596582000000994e+00,1.000000000000000000e+01,-1.000000000000000000e+02
0.000000000000000000e+00,7.965965820000000530e-01,1.000000000000000000e+01,-1.000000000000000000e+02
0.000000000000000000e+00,7.765965820000001463e-01,1.000000000000000000e+01,-1.000000000000000000e+02
0.000000000000000000e+00,9.165965820000001596e-01,1.000000000000000000e+01,-1.000000000000000000e+02
0.000000000000000000e+00,5.365965819999999331e-01,1.000000000000000000e+01,-1.000000000000000000e+02
0.000000000000000000e+00,6.165965820000000042e-01,1.000000000000000000e+01,-1.000000000000000000e+02
0.000000000000000000e+00,7.165965820000000930e-01,1.000000000000000000e+01,-1.000000000000000000e+02
0.000000000000000000e+00,6.165965820000000042e-01,1.000000000000000000e+01,-1.000000000000000000e+02
0.000000000000000000e+00,1.136596582000000355e+00,1.000000000000000000e+01,-1.000000000000000000e+02
0.000000000000000000e+00,7.965965820000000530e-01,1.000000000000000000e+01,-1.000000000000000000e+02
0.000000000000000000e+00,8.565965820000001063e-01,1.000000000000000000e+01,-1.000000000000000000e+02
0.000000000000000000e+00,1.276596582000000479e+00,1.000000000000000000e+01,-1.000000000000000000e+02
0.000000000000000000e+00,8.365965820000000885e-01,1.000000000000000000e+01,-1.000000000000000000e+02
0.000000000000000000e+00,4.565965819999999731e-01,1.000000000000000000e+01,-1.000000000000000000e+02
0.000000000000000000e+00,1.016596582000000248e+00,1.000000000000000000e+01,-1.000000000000000000e+02
0.000000000000000000e+00,6.765965820000000575e-01,1.000000000000000000e+01,-1.000000000000000000e+02
0.000000000000000000e+00,2.556596582000001394e+00,1.000000000000000000e+01,-1.000000000000000000e+02
0.000000000000000000e+00,5.565965819999999509e-01,1.000000000000000000e+01,-1.000000000000000000e+02
0.000000000000000000e+00,1.076596582000000302e+00,1.000000000000000000e+01,-1.000000000000000000e+02
0.000000000000000000e+00,1.036596582000000266e+00,1.000000000000000000e+01,-1.000000000000000000e+02
0.000000000000000000e+00,9.965965820000002307e-01,1.000000000000000000e+01,-1.000000000000000000e+02
0.000000000000000000e+00,6.965965820000000752e-01,1.000000000000000000e+01,-1.000000000000000000e+02
0.000000000000000000e+00,1.176596582000000391e+00,1.000000000000000000e+01,-1.000000000000000000e+02
0.000000000000000000e+00,6.365965820000000219e-01,1.000000000000000000e+01,-1.000000000000000000e+02
0.000000000000000000e+00,2.856596582000001661e+00,1.000000000000000000e+01,-1.000000000000000000e+02
0.000000000000000000e+00,5.965965819999999864e-01,1.000000000000000000e+01,-1.000000000000000000e+02
0.000000000000000000e+00,8.965965820000001418e-01,1.000000000000000000e+01,-1.000000000000000000e+02
0.000000000000000000e+00,5.365965819999999331e-01,1.000000000000000000e+01,-1.000000000000000000e+02
0.000000000000000000e+00,6.965965820000000752e-01,1.000000000000000000e+01,-1.000000000000000000e+02
0.000000000000000000e+00,1.116596582000000337e+00,1.000000000000000000e+01,-1.000000000000000000e+02
0.000000000000000000e+00,5.165965820000000264e-01,1.000000000000000000e+01,-1.000000000000000000e+02
0.000000000000000000e+00,1.676596582000000835e+00,1.000000000000000000e+01,-1.000000000000000000e+02
0.000000000000000000e+00,6.765965820000000575e-01,1.000000000000000000e+01,-1.000000000000000000e+02
0.000000000000000000e+00,7.565965820000001285e-01,1.000000000000000000e+01,-1.000000000000000000e+02
0.000000000000000000e+00,6.165965820000000042e-01,1.000000000000000000e+01,-1.000000000000000000e+02
0.000000000000000000e+00,6.365965820000000219e-01,1.000000000000000000e+01,-1.000000000000000000e+02
0.000000000000000000e+00,1.496596582000000675e+00,1.000000000000000000e+01,-1.000000000000000000e+02
0.000000000000000000e+00,6.765965820000000575e-01,1.000000000000000000e+01,-1.000000000000000000e+02
0.000000000000000000e+00,1.396596582000000586e+00,1.000000000000000000e+01,-1.000000000000000000e+02
0.000000000000000000e+00,6.365965820000000219e-01,1.000000000000000000e+01,-1.000000000000000000e+02
0.000000000000000000e+00,1.376596582000000568e+00,1.000000000000000000e+01,-1.000000000000000000e+02
0.000000000000000000e+00,5.765965819999999686e-01,1.000000000000000000e+01,-1.000000000000000000e+02
0.000000000000000000e+00,8.365965820000000885e-01,1.000000000000000000e+01,-1.000000000000000000e+02
0.000000000000000000e+00,9.365965820000001774e-01,1.000000000000000000e+01,-1.000000000000000000e+02
0.000000000000000000e+00,1.036596582000000266e+00,1.000000000000000000e+01,-1.000000000000000000e+02
0.000000000000000000e+00,8.365965820000000885e-01,1.000000000000000000e+01,-1.000000000000000000e+02
0.000000000000000000e+00,1.276596582000000479e+00,1.000000000000000000e+01,-1.000000000000000000e+02
0.000000000000000000e+00,5.165965820000000264e-01,1.000000000000000000e+01,-1.000000000000000000e+02
0.000000000000000000e+00,1.216596582000000426e+00,1.000000000000000000e+01,-1.000000000000000000e+02
0.000000000000000000e+00,1.216596582000000426e+00,1.000000000000000000e+01,-1.000000000000000000e+02
0.000000000000000000e+00,7.965965820000000530e-01,1.000000000000000000e+01,-1.000000000000000000e+02
0.000000000000000000e+00,1.556596582000000728e+00,1.000000000000000000e+01,-1.000000000000000000e+02
0.000000000000000000e+00,1.116596582000000337e+00,1.000000000000000000e+01,-1.000000000000000000e+02
0.000000000000000000e+00,1.216596582000000426e+00,1.000000000000000000e+01,-1.000000000000000000e+02
0.000000000000000000e+00,1.356596582000000550e+00,1.000000000000000000e+01,-1.000000000000000000e+02
0.000000000000000000e+00,7.765965820000001463e-01,1.000000000000000000e+01,-1.000000000000000000e+02
0.000000000000000000e+00,7.565965820000001285e-01,1.000000000000000000e+01,-1.000000000000000000e+02
0.000000000000000000e+00,9.565965820000001951e-01,1.000000000000000000e+01,-1.000000000000000000e+02
0.000000000000000000e+00,1.056596582000000284e+00,1.000000000000000000e+01,-1.000000000000000000e+02
0.000000000000000000e+00,9.365965820000001774e-01,1.000000000000000000e+01,-1.000000000000000000e+02
0.000000000000000000e+00,9.765965820000002129e-01,1.000000000000000000e+01,-1.000000000000000000e+02
0.000000000000000000e+00,6.965965820000000752e-01,1.000000000000000000e+01,-1.000000000000000000e+02
0.000000000000000000e+00,3.965965820000000308e-01,1.000000000000000000e+01,-1.000000000000000000e+02
0.000000000000000000e+00,1.876596582000001012e+00,1.000000000000000000e+01,-1.000000000000000000e+02
0.000000000000000000e+00,1.216596582000000426e+00,1.000000000000000000e+01,-1.000000000000000000e+02
0.000000000000000000e+00,1.056596582000000284e+00,1.000000000000000000e+01,-1.000000000000000000e+02
0.000000000000000000e+00,1.556596582000000728e+00,1.000000000000000000e+01,-1.000000000000000000e+02
0.000000000000000000e+00,5.765965819999999686e-01,1.000000000000000000e+01,-1.000000000000000000e+02
0.000000000000000000e+00,8.365965820000000885e-01,1.000000000000000000e+01,-1.000000000000000000e+02
0.000000000000000000e+00,8.165965820000000708e-01,1.000000000000000000e+01,-1.000000000000000000e+02
0.000000000000000000e+00,8.965965820000001418e-01,1.000000000000000000e+01,-1.000000000000000000e+02
0.000000000000000000e+00,1.656596582000000817e+00,1.000000000000000000e+01,-1.000000000000000000e+02
0.000000000000000000e+00,7.365965820000001107e-01,1.000000000000000000e+01,-1.000000000000000000e+02
0.000000000000000000e+00,6.165965820000000042e-01,1.000000000000000000e+01,-9.000000000000000000e+01
0.000000000000000000e+00,1.556596582000000728e+00,1.000000000000000000e+01,-9.000000000000000000e+01
0.000000000000000000e+00,2.456596582000001305e+00,1.000000000000000000e+01,-9.000000000000000000e+01
0.000000000000000000e+00,5.965965819999999864e-01,1.000000000000000000e+01,-9.000000000000000000e+01
0.000000000000000000e+00,9.565965820000001951e-01,1.000000000000000000e+01,-9.000000000000000000e+01
0.000000000000000000e+00,6.365965820000000219e-01,1.000000000000000000e+01,-9.000000000000000000e+01
0.000000000000000000e+00,5.565965819999999509e-01,1.000000000000000000e+01,-9.000000000000000000e+01
0.000000000000000000e+00,7.365965820000001107e-01,1.000000000000000000e+01,-9.000000000000000000e+01
0.000000000000000000e+00,6.765965820000000575e-01,1.000000000000000000e+01,-9.000000000000000000e+01
0.000000000000000000e+00,7.565965820000001285e-01,1.000000000000000000e+01,-9.000000000000000000e+01
0.000000000000000000e+00,1.616596582000000781e+00,1.000000000000000000e+01,-9.000000000000000000e+01
0.000000000000000000e+00,8.365965820000000885e-01,1.000000000000000000e+01,-9.000000000000000000e+01
0.000000000000000000e+00,1.056596582000000284e+00,1.000000000000000000e+01,-9.000000000000000000e+01
0.000000000000000000e+00,5.965965819999999864e-01,1.000000000000000000e+01,-9.000000000000000000e+01
0.000000000000000000e+00,8.365965820000000885e-01,1.000000000000000000e+01,-9.000000000000000000e+01
0.000000000000000000e+00,5.965965819999999864e-01,1.000000000000000000e+01,-9.000000000000000000e+01
0.000000000000000000e+00,4.765965819999999908e-01,1.000000000000000000e+01,-9.000000000000000000e+01
0.000000000000000000e+00,4.965965820000000086e-01,1.000000000000000000e+01,-9.000000000000000000e+01
0.000000000000000000e+00,1.056596582000000284e+00,1.000000000000000000e+01,-9.000000000000000000e+01
0.000000000000000000e+00,1.036596582000000266e+00,1.000000000000000000e+01,-9.000000000000000000e+01
0.000000000000000000e+00,9.965965820000002307e-01,1.000000000000000000e+01,-9.000000000000000000e+01
0.000000000000000000e+00,1.496596582000000675e+00,1.000000000000000000e+01,-9.000000000000000000e+01
0.000000000000000000e+00,1.996596582000001119e+00,1.000000000000000000e+01,-9.000000000000000000e+01
0.000000000000000000e+00,1.716596582000000870e+00,1.000000000000000000e+01,-9.000000000000000000e+01
0.000000000000000000e+00,5.165965820000000264e-01,1.000000000000000000e+01,-9.000000000000000000e+01
0.000000000000000000e+00,7.765965820000001463e-01,1.000000000000000000e+01,-9.000000000000000000e+01
0.000000000000000000e+00,4.165965819999999931e-01,1.000000000000000000e+01,-9.000000000000000000e+01
0.000000000000000000e+00,4.165965819999999931e-01,1.000000000000000000e+01,-9.000000000000000000e+01
0.000000000000000000e+00,7.965965820000000530e-01,1.000000000000000000e+01,-9.000000000000000000e+01
0.000000000000000000e+00,9.565965820000001951e-01,1.000000000000000000e+01,-9.000000000000000000e+01
0.000000000000000000e+00,1.136596582000000355e+00,1.000000000000000000e+01,-9.000000000000000000e+01
0.000000000000000000e+00,7.565965820000001285e-01,1.000000000000000000e+01,-9.000000000000000000e+01
0.000000000000000000e+00,4.965965820000000086e-01,1.000000000000000000e+01,-9.000000000000000000e+01
0.000000000000000000e+00,9.165965820000001596e-01,1.000000000000000000e+01,-9.000000000000000000e+01
0.000000000000000000e+00,6.365965820000000219e-01,1.000000000000000000e+01,-9.000000000000000000e+01
0.000000000000000000e+00,1.016596582000000248e+00,1.000000000000000000e+01,-9.000000000000000000e+01
0.000000000000000000e+00,1.216596582000000426e+00,1.000000000000000000e+01,-9.000000000000000000e+01
0.000000000000000000e+00,8.165965820000000708e-01,1.000000000000000000e+01,-9.000000000000000000e+01
0.000000000000000000e+00,5.965965819999999864e-01,1.000000000000000000e+01,-9.000000000000000000e+01
0.000000000000000000e+00,6.565965820000000397e-01,1.000000000000000000e+01,-9.000000000000000000e+01
0.000000000000000000e+00,1.096596582000000319e+00,1.000000000000000000e+01,-9.000000000000000000e+01
0.000000000000000000e+00,1.216596582000000426e+00,1.000000000000000000e+01,-9.000000000000000000e+01
0.000000000000000000e+00,7.365965820000001107e-01,1.000000000000000000e+01,-9.000000000000000000e+01
0.000000000000000000e+00,5.565965819999999509e-01,1.000000000000000000e+01,-9.000000000000000000e+01
0.000000000000000000e+00,7.765965820000001463e-01,1.000000000000000000e+01,-9.000000000000000000e+01
0.000000000000000000e+00,1.036596582000000266e+00,1.000000000000000000e+01,-9.000000000000000000e+01
0.000000000000000000e+00,1.496596582000000675e+00,1.000000000000000000e+01,-9.000000000000000000e+01
0.000000000000000000e+00,6.965965820000000752e-01,1.000000000000000000e+01,-9.000000000000000000e+01
0.000000000000000000e+00,6.965965820000000752e-01,1.000000000000000000e+01,-9.000000000000000000e+01
0.000000000000000000e+00,6.965965820000000752e-01,1.000000000000000000e+01,-9.000000000000000000e+01
0.000000000000000000e+00,6.965965820000000752e-01,1.000000000000000000e+01,-9.000000000000000000e+01
0.000000000000000000e+00,3.216596582000001980e+00,1.000000000000000000e+01,-9.000000000000000000e+01
0.000000000000000000e+00,5.165965820000000264e-01,1.000000000000000000e+01,-9.000000000000000000e+01
0.000000000000000000e+00,5.565965819999999509e-01,1.000000000000000000e+01,-9.000000000000000000e+01
0.000000000000000000e+00,7.765965820000001463e-01,1.000000000000000000e+01,-9.000000000000000000e+01
0.000000000000000000e+00,6.565965820000000397e-01,1.000000000000000000e+01,-9.000000000000000000e+01
0.000000000000000000e+00,1.156596582000000373e+00,1.000000000000000000e+01,-9.000000000000000000e+01
0.000000000000000000e+00,9.565965820000001951e-01,1.000000000000000000e+01,-9.000000000000000000e+01
0.000000000000000000e+00,7.565965820000001285e-01,1.000000000000000000e+01,-9.000000000000000000e+01
0.000000000000000000e+00,1.036596582000000266e+00,1.000000000000000000e+01,-9.000000000000000000e+01
0.000000000000000000e+00,1.316596582000000515e+00,1.000000000000000000e+01,-9.000000000000000000e+01
0.000000000000000000e+00,6.365965820000000219e-01,1.000000000000000000e+01,-9.000000000000000000e+01
0.000000000000000000e+00,5.365965819999999331e-01,1.000000000000000000e+01,-9.000000000000000000e+01
0.000000000000000000e+00,8.965965820000001418e-01,1.000000000000000000e+01,-9.000000000000000000e+01
0.000000000000000000e+00,5.965965819999999864e-01,1.000000000000000000e+01,-9.000000000000000000e+01
0.000000000000000000e+00,5.765965819999999686e-01,1.000000000000000000e+01,-9.000000000000000000e+01
0.000000000000000000e+00,1.196596582000000408e+00,1.000000000000000000e+01,-9.000000000000000000e+01
0.000000000000000000e+00,7.165965820000000930e-01,1.000000000000000000e+01,-9.000000000000000000e+01
0.000000000000000000e+00,8.365965820000000885e-01,1.000000000000000000e+01,-9.000000000000000000e+01
0.000000000000000000e+00,2.576596582000001412e+00,1.000000000000000000e+01,-9.000000000000000000e+01
0.000000000000000000e+00,9.165965820000001596e-01,1.000000000000000000e+01,-9.000000000000000000e+01
0.000000000000000000e+00,6.365965820000000219e-01,1.000000000000000000e+01,-9.000000000000000000e+01
0.000000000000000000e+00,9.565965820000001951e-01,1.000000000000000000e+01,-9.000000000000000000e+01
0.000000000000000000e+00,8.365965820000000885e-01,1.000000000000000000e+01,-9.000000000000000000e+01
0.000000000000000000e+00,9.365965820000001774e-01,1.000000000000000000e+01,-9.000000000000000000e+01
0.000000000000000000e+00,1.016596582000000248e+00,1.000000000000000000e+01,-9.000000000000000000e+01
0.000000000000000000e+00,1.496596582000000675e+00,1.000000000000000000e+01,-9.000000000000000000e+01
0.000000000000000000e+00,5.765965819999999686e-01,1.000000000000000000e+01,-9.000000000000000000e+01
0.000000000000000000e+00,6.765965820000000575e-01,1.000000000000000000e+01,-9.000000000000000000e+01
0.000000000000000000e+00,5.165965820000000264e-01,1.000000000000000000e+01,-9.000000000000000000e+01
0.000000000000000000e+00,6.365965820000000219e-01,1.000000000000000000e+01,-9.000000000000000000e+01
0.000000000000000000e+00,9.565965820000001951e-01,1.000000000000000000e+01,-9.000000000000000000e+01
0.000000000000000000e+00,1.176596582000000391e+00,1.000000000000000000e+01,-9.000000000000000000e+01
0.000000000000000000e+00,6.165965820000000042e-01,1.000000000000000000e+01,-9.000000000000000000e+01
0.000000000000000000e+00,5.165965820000000264e-01,1.000000000000000000e+01,-9.000000000000000000e+01
0.000000000000000000e+00,7.565965820000001285e-01,1.000000000000000000e+01,-9.000000000000000000e+01
0.000000000000000000e+00,4.765965819999999908e-01,1.000000000000000000e+01,-9.000000000000000000e+01
0.000000000000000000e+00,1.396596582000000586e+00,1.000000000000000000e+01,-9.000000000000000000e+01
0.000000000000000000e+00,1.356596582000000550e+00,1.000000000000000000e+01,-9.000000000000000000e+01
0.000000000000000000e+00,1.196596582000000408e+00,1.000000000000000000e+01,-9.000000000000000000e+01
0.000000000000000000e+00,5.565965819999999509e-01,1.000000000000000000e+01,-9.000000000000000000e+01
0.000000000000000000e+00,1.156596582000000373e+00,1.000000000000000000e+01,-9.000000000000000000e+01
0.000000000000000000e+00,6.565965820000000397e-01,1.000000000000000000e+01,-9.000000000000000000e+01
0.000000000000000000e+00,1.656596582000000817e+00,1.000000000000000000e+01,-9.000000000000000000e+01
0.000000000000000000e+00,7.765965820000001463e-01,1.000000000000000000e+01,-9.000000000000000000e+01
0.000000000000000000e+00,6.165965820000000042e-01,1.000000000000000000e+01,-9.000000000000000000e+01
0.000000000000000000e+00,1.256596582000000462e+00,1.000000000000000000e+01,-9.000000000000000000e+01
0.000000000000000000e+00,7.165965820000000930e-01,1.000000000000000000e+01,-9.000000000000000000e+01
0.000000000000000000e+00,6.565965820000000397e-01,1.000000000000000000e+01,-9.000000000000000000e+01
0.000000000000000000e+00,9.365965820000001774e-01,1.000000000000000000e+01,-9.000000000000000000e+01
0.000000000000000000e+00,1.296596582000000497e+00,1.000000000000000000e+01,-9.000000000000000000e+01
0.000000000000000000e+00,8.765965820000001241e-01,1.000000000000000000e+01,-9.000000000000000000e+01
0.000000000000000000e+00,1.176596582000000391e+00,1.000000000000000000e+01,-9.000000000000000000e+01
0.000000000000000000e+00,5.565965819999999509e-01,1.000000000000000000e+01,-9.000000000000000000e+01
0.000000000000000000e+00,1.056596582000000284e+00,1.000000000000000000e+01,-9.000000000000000000e+01
0.000000000000000000e+00,5.565965819999999509e-01,1.000000000000000000e+01,-9.000000000000000000e+01
0.000000000000000000e+00,6.165965820000000042e-01,1.000000000000000000e+01,-9.000000000000000000e+01
0.000000000000000000e+00,7.165965820000000930e-01,1.000000000000000000e+01,-9.000000000000000000e+01
0.000000000000000000e+00,6.165965820000000042e-01,1.000000000000000000e+01,-9.000000000000000000e+01
0.000000000000000000e+00,7.965965820000000530e-01,1.000000000000000000e+01,-9.000000000000000000e+01
0.000000000000000000e+00,7.165965820000000930e-01,1.000000000000000000e+01,-9.000000000000000000e+01
0.000000000000000000e+00,6.565965820000000397e-01,1.000000000000000000e+01,-9.000000000000000000e+01
0.000000000000000000e+00,8.565965820000001063e-01,1.000000000000000000e+01,-9.000000000000000000e+01
0.000000000000000000e+00,1.016596582000000248e+00,1.000000000000000000e+01,-9.000000000000000000e+01
0.000000000000000000e+00,7.165965820000000930e-01,1.000000000000000000e+01,-9.000000000000000000e+01
0.000000000000000000e+00,7.965965820000000530e-01,1.000000000000000000e+01,-9.000000000000000000e+01
0.000000000000000000e+00,1.856596582000000994e+00,1.000000000000000000e+01,-9.000000000000000000e+01
0.000000000000000000e+00,5.365965819999999331e-01,1.000000000000000000e+01,-9.000000000000000000e+01
0.000000000000000000e+00,9.765965820000002129e-01,1.000000000000000000e+01,-9.000000000000000000e+01
0.000000000000000000e+00,6.365965820000000219e-01,1.000000000000000000e+01,-9.000000000000000000e+01
0.000000000000000000e+00,8.965965820000001418e-01,1.000000000000000000e+01,-9.000000000000000000e+01
0.000000000000000000e+00,1.076596582000000302e+00,1.000000000000000000e+01,-9.000000000000000000e+01
0.000000000000000000e+00,9.765965820000002129e-01,1.000000000000000000e+01,-9.000000000000000000e+01
0.000000000000000000e+00,1.496596582000000675e+00,1.000000000000000000e+01,-9.000000000000000000e+01
0.000000000000000000e+00,8.765965820000001241e-01,1.000000000000000000e+01,-9.000000000000000000e+01
0.000000000000000000e+00,9.965965820000002307e-01,1.000000000000000000e+01,-9.000000000000000000e+01
0.000000000000000000e+00,4.965965820000000086e-01,1.000000000000000000e+01,-9.000000000000000000e+01
0.000000000000000000e+00,1.176596582000000391e+00,1.000000000000000000e+01,-9.000000000000000000e+01
0.000000000000000000e+00,5.165965820000000264e-01,1.000000000000000000e+01,-9.000000000000000000e+01
0.000000000000000000e+00,1.116596582000000337e+00,1.000000000000000000e+01,-9.000000000000000000e+01
0.000000000000000000e+00,7.965965820000000530e-01,1.000000000000000000e+01,-9.000000000000000000e+01
0.000000000000000000e+00,6.365965820000000219e-01,1.000000000000000000e+01,-9.000000000000000000e+01
0.000000000000000000e+00,7.965965820000000530e-01,1.000000000000000000e+01,-9.000000000000000000e+01
0.000000000000000000e+00,1.136596582000000355e+00,1.000000000000000000e+01,-9.000000000000000000e+01
0.000000000000000000e+00,1.096596582000000319e+00,1.000000000000000000e+01,-9.000000000000000000e+01
0.000000000000000000e+00,1.036596582000000266e+00,1.000000000000000000e+01,-9.000000000000000000e+01
0.000000000000000000e+00,4.565965819999999731e-01,1.000000000000000000e+01,-9.000000000000000000e+01
0.000000000000000000e+00,1.056596582000000284e+00,1.000000000000000000e+01,-9.000000000000000000e+01
0.000000000000000000e+00,7.765965820000001463e-01,1.000000000000000000e+01,-9.000000000000000000e+01
0.000000000000000000e+00,4.565965819999999731e-01,1.000000000000000000e+01,-9.000000000000000000e+01
0.000000000000000000e+00,3.156596582000001927e+00,1.000000000000000000e+01,-9.000000000000000000e+01
0.000000000000000000e+00,5.965965819999999864e-01,1.000000000000000000e+01,-9.000000000000000000e+01
0.000000000000000000e+00,4.365965820000000108e-01,1.000000000000000000e+01,-9.000000000000000000e+01
0.000000000000000000e+00,1.016596582000000248e+00,1.000000000000000000e+01,-9.000000000000000000e+01
0.000000000000000000e+00,6.565965820000000397e-01,1.000000000000000000e+01,-9.000000000000000000e+01
0.000000000000000000e+00,9.565965820000001951e-01,1.000000000000000000e+01,-9.000000000000000000e+01
0.000000000000000000e+00,1.236596582000000444e+00,1.000000000000000000e+01,-9.000000000000000000e+01
0.000000000000000000e+00,1.056596582000000284e+00,1.000000000000000000e+01,-9.000000000000000000e+01
0.000000000000000000e+00,1.276596582000000479e+00,1.000000000000000000e+01,-9.000000000000000000e+01
0.000000000000000000e+00,8.965965820000001418e-01,1.000000000000000000e+01,-9.000000000000000000e+01
0.000000000000000000e+00,1.036596582000000266e+00,1.000000000000000000e+01,-9.000000000000000000e+01
0.000000000000000000e+00,1.396596582000000586e+00,1.000000000000000000e+01,-9.000000000000000000e+01
0.000000000000000000e+00,1.676596582000000835e+00,1.000000000000000000e+01,-9.000000000000000000e+01
0.000000000000000000e+00,9.365965820000001774e-01,1.000000000000000000e+01,-9.000000000000000000e+01
0.000000000000000000e+00,4.365965820000000108e-01,1.000000000000000000e+01,-9.000000000000000000e+01
0.000000000000000000e+00,5.056596581999986739e+00,1.000000000000000000e+01,-9.000000000000000000e+01
0.000000000000000000e+00,2.976596582000001767e+00,1.000000000000000000e+01,-9.000000000000000000e+01
0.000000000000000000e+00,1.796596582000000941e+00,1.000000000000000000e+01,-9.000000000000000000e+01
0.000000000000000000e+00,7.965965820000000530e-01,1.000000000000000000e+01,-9.000000000000000000e+01
0.000000000000000000e+00,2.296596582000001163e+00,1.000000000000000000e+01,-9.000000000000000000e+01
0.000000000000000000e+00,1.776596582000000923e+00,1.000000000000000000e+01,-9.000000000000000000e+01
0.000000000000000000e+00,6.765965820000000575e-01,1.000000000000000000e+01,-9.000000000000000000e+01
0.000000000000000000e+00,5.965965819999999864e-01,1.000000000000000000e+01,-9.000000000000000000e+01
0.000000000000000000e+00,7.165965820000000930e-01,1.000000000000000000e+01,-9.000000000000000000e+01
0.000000000000000000e+00,6.965965820000000752e-01,1.000000000000000000e+01,-9.000000000000000000e+01
0.000000000000000000e+00,1.196596582000000408e+00,1.000000000000000000e+01,-9.000000000000000000e+01
0.000000000000000000e+00,6.965965820000000752e-01,1.000000000000000000e+01,-9.000000000000000000e+01
0.000000000000000000e+00,5.365965819999999331e-01,1.000000000000000000e+01,-9.000000000000000000e+01
0.000000000000000000e+00,1.116596582000000337e+00,1.000000000000000000e+01,-9.000000000000000000e+01
0.000000000000000000e+00,7.365965820000001107e-01,1.000000000000000000e+01,-9.000000000000000000e+01
0.000000000000000000e+00,1.256596582000000462e+00,1.000000000000000000e+01,-9.000000000000000000e+01
0.000000000000000000e+00,8.765965820000001241e-01,1.000000000000000000e+01,-9.000000000000000000e+01
0.000000000000000000e+00,8.165965820000000708e-01,1.000000000000000000e+01,-9.000000000000000000e+01
0.000000000000000000e+00,6.365965820000000219e-01,1.000000000000000000e+01,-9.000000000000000000e+01
0.000000000000000000e+00,1.176596582000000391e+00,1.000000000000000000e+01,-9.000000000000000000e+01
0.000000000000000000e+00,6.765965820000000575e-01,1.000000000000000000e+01,-9.000000000000000000e+01
0.000000000000000000e+00,1.396596582000000586e+00,1.000000000000000000e+01,-9.000000000000000000e+01
0.000000000000000000e+00,6.565965820000000397e-01,1.000000000000000000e+01,-9.000000000000000000e+01
0.000000000000000000e+00,8.365965820000000885e-01,1.000000000000000000e+01,-9.000000000000000000e+01
0.000000000000000000e+00,7.765965820000001463e-01,1.000000000000000000e+01,-9.000000000000000000e+01
0.000000000000000000e+00,1.356596582000000550e+00,1.000000000000000000e+01,-9.000000000000000000e+01
0.000000000000000000e+00,4.965965820000000086e-01,1.000000000000000000e+01,-9.000000000000000000e+01
0.000000000000000000e+00,7.565965820000001285e-01,1.000000000000000000e+01,-9.000000000000000000e+01
0.000000000000000000e+00,6.365965820000000219e-01,1.000000000000000000e+01,-9.000000000000000000e+01
0.000000000000000000e+00,5.565965819999999509e-01,1.000000000000000000e+01,-9.000000000000000000e+01
0.000000000000000000e+00,9.565965820000001951e-01,1.000000000000000000e+01,-9.000000000000000000e+01
0.000000000000000000e+00,1.236596582000000444e+00,1.000000000000000000e+01,-9.000000000000000000e+01
0.000000000000000000e+00,6.365965820000000219e-01,1.000000000000000000e+01,-9.000000000000000000e+01
0.000000000000000000e+00,7.765965820000001463e-01,1.000000000000000000e+01,-9.000000000000000000e+01
0.000000000000000000e+00,4.965965820000000086e-01,1.000000000000000000e+01,-9.000000000000000000e+01
0.000000000000000000e+00,6.765965820000000575e-01,1.000000000000000000e+01,-9.000000000000000000e+01
0.000000000000000000e+00,1.536596582000000710e+00,1.000000000000000000e+01,-9.000000000000000000e+01
0.000000000000000000e+00,3.176596582000001945e+00,1.000000000000000000e+01,-9.000000000000000000e+01
0.000000000000000000e+00,1.256596582000000462e+00,1.000000000000000000e+01,-9.000000000000000000e+01
0.000000000000000000e+00,1.136596582000000355e+00,1.000000000000000000e+01,-9.000000000000000000e+01
0.000000000000000000e+00,8.565965820000001063e-01,1.000000000000000000e+01,-9.000000000000000000e+01
0.000000000000000000e+00,1.156596582000000373e+00,1.000000000000000000e+01,-9.000000000000000000e+01
0.000000000000000000e+00,4.765965819999999908e-01,1.000000000000000000e+01,-9.000000000000000000e+01
0.000000000000000000e+00,7.165965820000000930e-01,1.000000000000000000e+01,-9.000000000000000000e+01
0.000000000000000000e+00,5.965965819999999864e-01,1.000000000000000000e+01,-9.000000000000000000e+01
0.000000000000000000e+00,1.176596582000000391e+00,1.000000000000000000e+01,-8.000000000000000000e+01
0.000000000000000000e+00,7.965965820000000530e-01,1.000000000000000000e+01,-8.000000000000000000e+01
0.000000000000000000e+00,1.176596582000000391e+00,1.000000000000000000e+01,-8.000000000000000000e+01
0.000000000000000000e+00,6.565965820000000397e-01,1.000000000000000000e+01,-8.000000000000000000e+01
0.000000000000000000e+00,1.296596582000000497e+00,1.000000000000000000e+01,-8.000000000000000000e+01
0.000000000000000000e+00,9.565965820000001951e-01,1.000000000000000000e+01,-8.000000000000000000e+01
0.000000000000000000e+00,1.456596582000000639e+00,1.000000000000000000e+01,-8.000000000000000000e+01
0.000000000000000000e+00,8.365965820000000885e-01,1.000000000000000000e+01,-8.000000000000000000e+01
0.000000000000000000e+00,2.036596582000000932e+00,1.000000000000000000e+01,-8.000000000000000000e+01
0.000000000000000000e+00,1.136596582000000355e+00,1.000000000000000000e+01,-8.000000000000000000e+01
0.000000000000000000e+00,9.965965820000002307e-01,1.000000000000000000e+01,-8.000000000000000000e+01
0.000000000000000000e+00,3.436596582000002176e+00,1.000000000000000000e+01,-8.000000000000000000e+01
0.000000000000000000e+00,6.165965820000000042e-01,1.000000000000000000e+01,-8.000000000000000000e+01
0.000000000000000000e+00,8.965965820000001418e-01,1.000000000000000000e+01,-8.000000000000000000e+01
0.000000000000000000e+00,1.296596582000000497e+00,1.000000000000000000e+01,-8.000000000000000000e+01
0.000000000000000000e+00,1.756596582000000906e+00,1.000000000000000000e+01,-8.000000000000000000e+01
0.000000000000000000e+00,7.965965820000000530e-01,1.000000000000000000e+01,-8.000000000000000000e+01
0.000000000000000000e+00,1.156596582000000373e+00,1.000000000000000000e+01,-8.000000000000000000e+01
0.000000000000000000e+00,1.076596582000000302e+00,1.000000000000000000e+01,-8.000000000000000000e+01
0.000000000000000000e+00,5.165965820000000264e-01,1.000000000000000000e+01,-8.000000000000000000e+01
0.000000000000000000e+00,5.765965819999999686e-01,1.000000000000000000e+01,-8.000000000000000000e+01
0.000000000000000000e+00,9.565965820000001951e-01,1.000000000000000000e+01,-8.000000000000000000e+01
0.000000000000000000e+00,1.456596582000000639e+00,1.000000000000000000e+01,-8.000000000000000000e+01
0.000000000000000000e+00,1.056596582000000284e+00,1.000000000000000000e+01,-8.000000000000000000e+01
0.000000000000000000e+00,1.216596582000000426e+00,1.000000000000000000e+01,-8.000000000000000000e+01
0.000000000000000000e+00,1.256596582000000462e+00,1.000000000000000000e+01,-8.000000000000000000e+01
0.000000000000000000e+00,7.565965820000001285e-01,1.000000000000000000e+01,-8.000000000000000000e+01
0.000000000000000000e+00,1.636596582000000799e+00,1.000000000000000000e+01,-8.000000000000000000e+01
0.000000000000000000e+00,1.536596582000000710e+00,1.000000000000000000e+01,-8.000000000000000000e+01
0.000000000000000000e+00,8.565965820000001063e-01,1.000000000000000000e+01,-8.000000000000000000e+01
0.000000000000000000e+00,7.365965820000001107e-01,1.000000000000000000e+01,-8.000000000000000000e+01
0.000000000000000000e+00,4.365965820000000108e-01,1.000000000000000000e+01,-8.000000000000000000e+01
0.000000000000000000e+00,2.776596582000001590e+00,1.000000000000000000e+01,-8.000000000000000000e+01
0.000000000000000000e+00,6.565965820000000397e-01,1.000000000000000000e+01,-8.000000000000000000e+01
0.000000000000000000e+00,8.565965820000001063e-01,1.000000000000000000e+01,-8.000000000000000000e+01
0.000000000000000000e+00,5.965965819999999864e-01,1.000000000000000000e+01,-8.000000000000000000e+01
0.000000000000000000e+00,8.565965820000001063e-01,1.000000000000000000e+01,-8.000000000000000000e+01
0.000000000000000000e+00,1.256596582000000462e+00,1.000000000000000000e+01,-8.000000000000000000e+01
0.000000000000000000e+00,1.096596582000000319e+00,1.000000000000000000e+01,-8.000000000000000000e+01
0.000000000000000000e+00,5.165965820000000264e-01,1.000000000000000000e+01,-8.000000000000000000e+01
0.000000000000000000e+00,4.765965819999999908e-01,1.000000000000000000e+01,-8.000000000000000000e+01
0.000000000000000000e+00,1.016596582000000248e+00,1.000000000000000000e+01,-8.000000000000000000e+01
0.000000000000000000e+00,2.136596582000001021e+00,1.000000000000000000e+01,-8.000000000000000000e+01
0.000000000000000000e+00,1.136596582000000355e+00,1.000000000000000000e+01,-8.000000000000000000e+01
0.000000000000000000e+00,2.976596582000001767e+00,1.000000000000000000e+01,-8.000000000000000000e+01
0.000000000000000000e+00,5.165965820000000264e-01,1.000000000000000000e+01,-8.000000000000000000e+01
0.000000000000000000e+00,8.965965820000001418e-01,1.000000000000000000e+01,-8.000000000000000000e+01
0.000000000000000000e+00,4.365965820000000108e-01,1.000000000000000000e+01,-8.000000000000000000e+01
0.000000000000000000e+00,9.165965820000001596e-01,1.000000000000000000e+01,-8.000000000000000000e+01
0.000000000000000000e+00,6.765965820000000575e-01,1.000000000000000000e+01,-8.000000000000000000e+01
0.000000000000000000e+00,6.765965820000000575e-01,1.000000000000000000e+01,-8.000000000000000000e+01
0.000000000000000000e+00,1.196596582000000408e+00,1.000000000000000000e+01,-8.000000000000000000e+01
0.000000000000000000e+00,2.716596582000001536e+00,1.000000000000000000e+01,-8.000000000000000000e+01
0.000000000000000000e+00,1.376596582000000568e+00,1.000000000000000000e+01,-8.000000000000000000e+01
0.000000000000000000e+00,1.676596582000000835e+00,1.000000000000000000e+01,-8.000000000000000000e+01
0.000000000000000000e+00,6.765965820000000575e-01,1.000000000000000000e+01,-8.000000000000000000e+01
0.000000000000000000e+00,7.565965820000001285e-01,1.000000000000000000e+01,-8.000000000000000000e+01
0.000000000000000000e+00,8.765965820000001241e-01,1.000000000000000000e+01,-8.000000000000000000e+01
0.000000000000000000e+00,5.765965819999999686e-01,1.000000000000000000e+01,-8.000000000000000000e+01
0.000000000000000000e+00,2.156596582000001039e+00,1.000000000000000000e+01,-8.000000000000000000e+01
0.000000000000000000e+00,9.565965820000001951e-01,1.000000000000000000e+01,-8.000000000000000000e+01
0.000000000000000000e+00,2.816596582000001625e+00,1.000000000000000000e+01,-8.000000000000000000e+01
0.000000000000000000e+00,7.365965820000001107e-01,1.000000000000000000e+01,-8.000000000000000000e+01
0.000000000000000000e+00,6.365965820000000219e-01,1.000000000000000000e+01,-8.000000000000000000e+01
0.000000000000000000e+00,1.396596582000000586e+00,1.000000000000000000e+01,-8.000000000000000000e+01
0.000000000000000000e+00,8.365965820000000885e-01,1.000000000000000000e+01,-8.000000000000000000e+01
0.000000000000000000e+00,1.456596582000000639e+00,1.000000000000000000e+01,-8.000000000000000000e+01
0.000000000000000000e+00,4.565965819999999731e-01,1.000000000000000000e+01,-8.000000000000000000e+01
0.000000000000000000e+00,7.765965820000001463e-01,1.000000000000000000e+01,-8.000000000000000000e+01
0.000000000000000000e+00,3.236596582000001998e+00,1.000000000000000000e+01,-8.000000000000000000e+01
0.000000000000000000e+00,7.565965820000001285e-01,1.000000000000000000e+01,-8.000000000000000000e+01
0.000000000000000000e+00,4.965965820000000086e-01,1.000000000000000000e+01,-8.000000000000000000e+01
0.000000000000000000e+00,6.965965820000000752e-01,1.000000000000000000e+01,-8.000000000000000000e+01
0.000000000000000000e+00,7.365965820000001107e-01,1.000000000000000000e+01,-8.000000000000000000e+01
0.000000000000000000e+00,1.616596582000000781e+00,1.000000000000000000e+01,-8.000000000000000000e+01
0.000000000000000000e+00,1.556596582000000728e+00,1.000000000000000000e+01,-8.000000000000000000e+01
0.000000000000000000e+00,4.565965819999999731e-01,1.000000000000000000e+01,-8.000000000000000000e+01
0.000000000000000000e+00,5.965965819999999864e-01,1.000000000000000000e+01,-8.000000000000000000e+01
0.000000000000000000e+00,9.165965820000001596e-01,1.000000000000000000e+01,-8.000000000000000000e+01
0.000000000000000000e+00,6.965965820000000752e-01,1.000000000000000000e+01,-8.000000000000000000e+01
0.000000000000000000e+00,5.365965819999999331e-01,1.000000000000000000e+01,-8.000000000000000000e+01
0.000000000000000000e+00,1.016596582000000248e+00,1.000000000000000000e+01,-8.000000000000000000e+01
0.000000000000000000e+00,1.476596582000000657e+00,1.000000000000000000e+01,-8.000000000000000000e+01
0.000000000000000000e+00,6.165965820000000042e-01,1.000000000000000000e+01,-8.000000000000000000e+01
0.000000000000000000e+00,8.365965820000000885e-01,1.000000000000000000e+01,-8.000000000000000000e+01
0.000000000000000000e+00,9.965965820000002307e-01,1.000000000000000000e+01,-8.000000000000000000e+01
0.000000000000000000e+00,1.016596582000000248e+00,1.000000000000000000e+01,-8.000000000000000000e+01
0.000000000000000000e+00,6.765965820000000575e-01,1.000000000000000000e+01,-8.000000000000000000e+01
0.000000000000000000e+00,1.396596582000000586e+00,1.000000000000000000e+01,-8.000000000000000000e+01
0.000000000000000000e+00,4.565965819999999731e-01,1.000000000000000000e+01,-8.000000000000000000e+01
0.000000000000000000e+00,3.276596582000002034e+00,1.000000000000000000e+01,-8.000000000000000000e+01
0.000000000000000000e+00,5.165965820000000264e-01,1.000000000000000000e+01,-8.000000000000000000e+01
0.000000000000000000e+00,6.965965820000000752e-01,1.000000000000000000e+01,-8.000000000000000000e+01
0.000000000000000000e+00,6.565965820000000397e-01,1.000000000000000000e+01,-8.000000000000000000e+01
0.000000000000000000e+00,5.965965819999999864e-01,1.000000000000000000e+01,-8.000000000000000000e+01
0.000000000000000000e+00,5.765965819999999686e-01,1.000000000000000000e+01,-8.000000000000000000e+01
0.000000000000000000e+00,2.036596582000000932e+00,1.000000000000000000e+01,-8.000000000000000000e+01
0.000000000000000000e+00,1.676596582000000835e+00,1.000000000000000000e+01,-8.000000000000000000e+01
0.000000000000000000e+00,8.565965820000001063e-01,1.000000000000000000e+01,-8.000000000000000000e+01
0.000000000000000000e+00,2.016596582000000915e+00,1.000000000000000000e+01,-8.000000000000000000e+01
0.000000000000000000e+00,1.396596582000000586e+00,1.000000000000000000e+01,-8.000000000000000000e+01
0.000000000000000000e+00,1.256596582000000462e+00,1.000000000000000000e+01,-8.000000000000000000e+01
0.000000000000000000e+00,4.565965819999999731e-01,1.000000000000000000e+01,-8.000000000000000000e+01
0.000000000000000000e+00,8.165965820000000708e-01,1.000000000000000000e+01,-8.000000000000000000e+01
0.000000000000000000e+00,7.165965820000000930e-01,1.000000000000000000e+01,-8.000000000000000000e+01
0.000000000000000000e+00,1.616596582000000781e+00,1.000000000000000000e+01,-8.000000000000000000e+01
0.000000000000000000e+00,9.765965820000002129e-01,1.000000000000000000e+01,-8.000000000000000000e+01
0.000000000000000000e+00,1.196596582000000408e+00,1.000000000000000000e+01,-8.000000000000000000e+01
0.000000000000000000e+00,7.965965820000000530e-01,1.000000000000000000e+01,-8.000000000000000000e+01
0.000000000000000000e+00,1.476596582000000657e+00,1.000000000000000000e+01,-8.000000000000000000e+01
0.000000000000000000e+00,9.765965820000002129e-01,1.000000000000000000e+01,-8.000000000000000000e+01
0.000000000000000000e+00,7.165965820000000930e-01,1.000000000000000000e+01,-8.000000000000000000e+01
0.000000000000000000e+00,1.116596582000000337e+00,1.000000000000000000e+01,-8.000000000000000000e+01
0.000000000000000000e+00,8.565965820000001063e-01,1.000000000000000000e+01,-8.000000000000000000e+01
0.000000000000000000e+00,5.965965819999999864e-01,1.000000000000000000e+01,-8.000000000000000000e+01
0.000000000000000000e+00,5.565965819999999509e-01,1.000000000000000000e+01,-8.000000000000000000e+01
0.000000000000000000e+00,7.165965820000000930e-01,1.000000000000000000e+01,-8.000000000000000000e+01
0.000000000000000000e+00,5.965965819999999864e-01,1.000000000000000000e+01,-8.000000000000000000e+01
0.000000000000000000e+00,5.165965820000000264e-01,1.000000000000000000e+01,-8.000000000000000000e+01
0.000000000000000000e+00,1.316596582000000515e+00,1.000000000000000000e+01,-8.000000000000000000e+01
0.000000000000000000e+00,2.436596582000001288e+00,1.000000000000000000e+01,-8.000000000000000000e+01
0.000000000000000000e+00,1.096596582000000319e+00,1.000000000000000000e+01,-8.000000000000000000e+01
0.000000000000000000e+00,9.365965820000001774e-01,1.000000000000000000e+01,-8.000000000000000000e+01
0.000000000000000000e+00,8.565965820000001063e-01,1.000000000000000000e+01,-8.000000000000000000e+01
0.000000000000000000e+00,1.036596582000000266e+00,1.000000000000000000e+01,-8.000000000000000000e+01
0.000000000000000000e+00,1.216596582000000426e+00,1.000000000000000000e+01,-8.000000000000000000e+01
0.000000000000000000e+00,1.536596582000000710e+00,1.000000000000000000e+01,-8.000000000000000000e+01
0.000000000000000000e+00,7.765965820000001463e-01,1.000000000000000000e+01,-8.000000000000000000e+01
0.000000000000000000e+00,4.765965819999999908e-01,1.000000000000000000e+01,-8.000000000000000000e+01
0.000000000000000000e+00,6.365965820000000219e-01,1.000000000000000000e+01,-8.000000000000000000e+01
0.000000000000000000e+00,1.516596582000000693e+00,1.000000000000000000e+01,-8.000000000000000000e+01
0.000000000000000000e+00,1.016596582000000248e+00,1.000000000000000000e+01,-8.000000000000000000e+01
0.000000000000000000e+00,4.965965820000000086e-01,1.000000000000000000e+01,-8.000000000000000000e+01
0.000000000000000000e+00,8.965965820000001418e-01,1.000000000000000000e+01,-8.000000000000000000e+01
0.000000000000000000e+00,4.765965819999999908e-01,1.000000000000000000e+01,-8.000000000000000000e+01
0.000000000000000000e+00,1.356596582000000550e+00,1.000000000000000000e+01,-8.000000000000000000e+01
0.000000000000000000e+00,6.165965820000000042e-01,1.000000000000000000e+01,-8.000000000000000000e+01
0.000000000000000000e+00,8.965965820000001418e-01,1.000000000000000000e+01,-8.000000000000000000e+01
0.000000000000000000e+00,7.165965820000000930e-01,1.000000000000000000e+01,-8.000000000000000000e+01
0.000000000000000000e+00,1.636596582000000799e+00,1.000000000000000000e+01,-8.000000000000000000e+01
0.000000000000000000e+00,6.765965820000000575e-01,1.000000000000000000e+01,-8.000000000000000000e+01
0.000000000000000000e+00,6.165965820000000042e-01,1.000000000000000000e+01,-8.000000000000000000e+01
0.000000000000000000e+00,1.016596582000000248e+00,1.000000000000000000e+01,-8.000000000000000000e+01
0.000000000000000000e+00,5.365965819999999331e-01,1.000000000000000000e+01,-8.000000000000000000e+01
0.000000000000000000e+00,6.565965820000000397e-01,1.000000000000000000e+01,-8.000000000000000000e+01
0.000000000000000000e+00,1.096596582000000319e+00,1.000000000000000000e+01,-8.000000000000000000e+01
0.000000000000000000e+00,1.036596582000000266e+00,1.000000000000000000e+01,-8.000000000000000000e+01
0.000000000000000000e+00,4.965965820000000086e-01,1.000000000000000000e+01,-8.000000000000000000e+01
0.000000000000000000e+00,8.365965820000000885e-01,1.000000000000000000e+01,-8.000000000000000000e+01
0.000000000000000000e+00,1.056596582000000284e+00,1.000000000000000000e+01,-8.000000000000000000e+01
0.000000000000000000e+00,8.565965820000001063e-01,1.000000000000000000e+01,-8.000000000000000000e+01
0.000000000000000000e+00,7.765965820000001463e-01,1.000000000000000000e+01,-8.000000000000000000e+01
0.000000000000000000e+00,8.765965820000001241e-01,1.000000000000000000e+01,-8.000000000000000000e+01
0.000000000000000000e+00,8.365965820000000885e-01,1.000000000000000000e+01,-8.000000000000000000e+01
0.000000000000000000e+00,9.965965820000002307e-01,1.000000000000000000e+01,-8.000000000000000000e+01
0.000000000000000000e+00,5.965965819999999864e-01,1.000000000000000000e+01,-8.000000000000000000e+01
0.000000000000000000e+00,2.436596582000001288e+00,1.000000000000000000e+01,-8.000000000000000000e+01
0.000000000000000000e+00,6.765965820000000575e-01,1.000000000000000000e+01,-8.000000000000000000e+01
0.000000000000000000e+00,1.956596582000001083e+00,1.000000000000000000e+01,-8.000000000000000000e+01
0.000000000000000000e+00,1.116596582000000337e+00,1.000000000000000000e+01,-8.000000000000000000e+01
0.000000000000000000e+00,7.965965820000000530e-01,1.000000000000000000e+01,-8.000000000000000000e+01
0.000000000000000000e+00,2.576596582000001412e+00,1.000000000000000000e+01,-8.000000000000000000e+01
0.000000000000000000e+00,6.365965820000000219e-01,1.000000000000000000e+01,-8.000000000000000000e+01
0.000000000000000000e+00,6.965965820000000752e-01,1.000000000000000000e+01,-8.000000000000000000e+01
0.000000000000000000e+00,4.965965820000000086e-01,1.000000000000000000e+01,-8.000000000000000000e+01
0.000000000000000000e+00,2.756596582000001572e+00,1.000000000000000000e+01,-8.000000000000000000e+01
0.000000000000000000e+00,9.965965820000002307e-01,1.000000000000000000e+01,-8.000000000000000000e+01
0.000000000000000000e+00,1.316596582000000515e+00,1.000000000000000000e+01,-8.000000000000000000e+01
0.000000000000000000e+00,1.276596582000000479e+00,1.000000000000000000e+01,-8.000000000000000000e+01
0.000000000000000000e+00,1.396596582000000586e+00,1.000000000000000000e+01,-8.000000000000000000e+01
0.000000000000000000e+00,7.165965820000000930e-01,1.000000000000000000e+01,-8.000000000000000000e+01
0.000000000000000000e+00,9.165965820000001596e-01,1.000000000000000000e+01,-8.000000000000000000e+01
0.000000000000000000e+00,2.296596582000001163e+00,1.000000000000000000e+01,-8.000000000000000000e+01
0.000000000000000000e+00,6.165965820000000042e-01,1.000000000000000000e+01,-8.000000000000000000e+01
0.000000000000000000e+00,1.616596582000000781e+00,1.000000000000000000e+01,-8.000000000000000000e+01
0.000000000000000000e+00,5.365965819999999331e-01,1.000000000000000000e+01,-8.000000000000000000e+01
0.000000000000000000e+00,1.156596582000000373e+00,1.000000000000000000e+01,-8.000000000000000000e+01
1.000000000000000000e+00,2.176596582000001057e+00,1.000000000000000000e+01,-8.000000000000000000e+01
0.000000000000000000e+00,1.216596582000000426e+00,1.000000000000000000e+01,-8.000000000000000000e+01
0.000000000000000000e+00,7.365965820000001107e-01,1.000000000000000000e+01,-8.000000000000000000e+01
0.000000000000000000e+00,1.276596582000000479e+00,1.000000000000000000e+01,-8.000000000000000000e+01
0.000000000000000000e+00,7.565965820000001285e-01,1.000000000000000000e+01,-8.000000000000000000e+01
0.000000000000000000e+00,1.196596582000000408e+00,1.000000000000000000e+01,-8.000000000000000000e+01
0.000000000000000000e+00,1.196596582000000408e+00,1.000000000000000000e+01,-8.000000000000000000e+01
0.000000000000000000e+00,2.236596582000001110e+00,1.000000000000000000e+01,-8.000000000000000000e+01
0.000000000000000000e+00,9.965965820000002307e-01,1.000000000000000000e+01,-8.000000000000000000e+01
0.000000000000000000e+00,7.165965820000000930e-01,1.000000000000000000e+01,-8.000000000000000000e+01
0.000000000000000000e+00,5.165965820000000264e-01,1.000000000000000000e+01,-8.000000000000000000e+01
0.000000000000000000e+00,1.036596582000000266e+00,1.000000000000000000e+01,-8.000000000000000000e+01
0.000000000000000000e+00,4.965965820000000086e-01,1.000000000000000000e+01,-8.000000000000000000e+01
0.000000000000000000e+00,5.565965819999999509e-01,1.000000000000000000e+01,-8.000000000000000000e+01
0.000000000000000000e+00,9.165965820000001596e-01,1.000000000000000000e+01,-8.000000000000000000e+01
0.000000000000000000e+00,1.936596582000001066e+00,1.000000000000000000e+01,-8.000000000000000000e+01
0.000000000000000000e+00,5.965965819999999864e-01,1.000000000000000000e+01,-8.000000000000000000e+01
0.000000000000000000e+00,1.276596582000000479e+00,1.000000000000000000e+01,-8.000000000000000000e+01
0.000000000000000000e+00,6.365965820000000219e-01,1.000000000000000000e+01,-8.000000000000000000e+01
0.000000000000000000e+00,1.636596582000000799e+00,1.000000000000000000e+01,-8.000000000000000000e+01
0.000000000000000000e+00,5.965965819999999864e-01,1.000000000000000000e+01,-8.000000000000000000e+01
0.000000000000000000e+00,9.765965820000002129e-01,1.000000000000000000e+01,-8.000000000000000000e+01
0.000000000000000000e+00,1.356596582000000550e+00,1.000000000000000000e+01,-8.000000000000000000e+01
0.000000000000000000e+00,4.365965820000000108e-01,1.000000000000000000e+01,-7.000000000000000000e+01
0.000000000000000000e+00,8.965965820000001418e-01,1.000000000000000000e+01,-7.000000000000000000e+01
0.000000000000000000e+00,7.165965820000000930e-01,1.000000000000000000e+01,-7.000000000000000000e+01
0.000000000000000000e+00,1.216596582000000426e+00,1.000000000000000000e+01,-7.000000000000000000e+01
0.000000000000000000e+00,7.165965820000000930e-01,1.000000000000000000e+01,-7.000000000000000000e+01
0.000000000000000000e+00,1.016596582000000248e+00,1.000000000000000000e+01,-7.000000000000000000e+01
0.000000000000000000e+00,2.156596582000001039e+00,1.000000000000000000e+01,-7.000000000000000000e+01
0.000000000000000000e+00,9.365965820000001774e-01,1.000000000000000000e+01,-7.000000000000000000e+01
0.000000000000000000e+00,1.136596582000000355e+00,1.000000000000000000e+01,-7.000000000000000000e+01
0.000000000000000000e+00,6.565965820000000397e-01,1.000000000000000000e+01,-7.000000000000000000e+01
0.000000000000000000e+00,1.016596582000000248e+00,1.000000000000000000e+01,-7.000000000000000000e+01
0.000000000000000000e+00,1.196596582000000408e+00,1.000000000000000000e+01,-7.000000000000000000e+01
0.000000000000000000e+00,1.196596582000000408e+00,1.000000000000000000e+01,-7.000000000000000000e+01
0.000000000000000000e+00,6.965965820000000752e-01,1.000000000000000000e+01,-7.000000000000000000e+01
0.000000000000000000e+00,1.016596582000000248e+00,1.000000000000000000e+01,-7.000000000000000000e+01
0.000000000000000000e+00,6.765965820000000575e-01,1.000000000000000000e+01,-7.000000000000000000e+01
0.000000000000000000e+00,7.165965820000000930e-01,1.000000000000000000e+01,-7.000000000000000000e+01
0.000000000000000000e+00,1.236596582000000444e+00,1.000000000000000000e+01,-7.000000000000000000e+01
0.000000000000000000e+00,5.965965819999999864e-01,1.000000000000000000e+01,-7.000000000000000000e+01
0.000000000000000000e+00,8.365965820000000885e-01,1.000000000000000000e+01,-7.000000000000000000e+01
0.000000000000000000e+00,5.765965819999999686e-01,1.000000000000000000e+01,-7.000000000000000000e+01
0.000000000000000000e+00,7.565965820000001285e-01,1.000000000000000000e+01,-7.000000000000000000e+01
0.000000000000000000e+00,1.576596582000000746e+00,1.000000000000000000e+01,-7.000000000000000000e+01
0.000000000000000000e+00,6.365965820000000219e-01,1.000000000000000000e+01,-7.000000000000000000e+01
0.000000000000000000e+00,1.856596582000000994e+00,1.000000000000000000e+01,-7.000000000000000000e+01
0.000000000000000000e+00,4.965965820000000086e-01,1.000000000000000000e+01,-7.000000000000000000e+01
0.000000000000000000e+00,7.965965820000000530e-01,1.000000000000000000e+01,-7.000000000000000000e+01
0.000000000000000000e+00,1.736596582000000888e+00,1.000000000000000000e+01,-7.000000000000000000e+01
0.000000000000000000e+00,8.365965820000000885e-01,1.000000000000000000e+01,-7.000000000000000000e+01
0.000000000000000000e+00,1.296596582000000497e+00,1.000000000000000000e+01,-7.000000000000000000e+01
0.000000000000000000e+00,8.365965820000000885e-01,1.000000000000000000e+01,-7.000000000000000000e+01
0.000000000000000000e+00,1.376596582000000568e+00,1.000000000000000000e+01,-7.000000000000000000e+01
0.000000000000000000e+00,5.565965819999999509e-01,1.000000000000000000e+01,-7.000000000000000000e+01
0.000000000000000000e+00,1.056596582000000284e+00,1.000000000000000000e+01,-7.000000000000000000e+01
0.000000000000000000e+00,5.965965819999999864e-01,1.000000000000000000e+01,-7.000000000000000000e+01
0.000000000000000000e+00,2.076596582000000968e+00,1.000000000000000000e+01,-7.000000000000000000e+01
0.000000000000000000e+00,9.565965820000001951e-01,1.000000000000000000e+01,-7.000000000000000000e+01
0.000000000000000000e+00,5.765965819999999686e-01,1.000000000000000000e+01,-7.000000000000000000e+01
0.000000000000000000e+00,1.076596582000000302e+00,1.000000000000000000e+01,-7.000000000000000000e+01
0.000000000000000000e+00,7.765965820000001463e-01,1.000000000000000000e+01,-7.000000000000000000e+01
0.000000000000000000e+00,1.516596582000000693e+00,1.000000000000000000e+01,-7.000000000000000000e+01
0.000000000000000000e+00,5.965965819999999864e-01,1.000000000000000000e+01,-7.000000000000000000e+01
0.000000000000000000e+00,2.276596582000001145e+00,1.000000000000000000e+01,-7.000000000000000000e+01
0.000000000000000000e+00,2.596596582000001430e+00,1.000000000000000000e+01,-7.000000000000000000e+01
0.000000000000000000e+00,6.765965820000000575e-01,1.000000000000000000e+01,-7.000000000000000000e+01
0.000000000000000000e+00,5.165965820000000264e-01,1.000000000000000000e+01,-7.000000000000000000e+01
0.000000000000000000e+00,5.765965819999999686e-01,1.000000000000000000e+01,-7.000000000000000000e+01
0.000000000000000000e+00,8.565965820000001063e-01,1.000000000000000000e+01,-7.000000000000000000e+01
0.000000000000000000e+00,6.765965820000000575e-01,1.000000000000000000e+01,-7.000000000000000000e+01
0.000000000000000000e+00,8.565965820000001063e-01,1.000000000000000000e+01,-7.000000000000000000e+01
0.000000000000000000e+00,5.765965819999999686e-01,1.000000000000000000e+01,-7.000000000000000000e+01
0.000000000000000000e+00,6.165965820000000042e-01,1.000000000000000000e+01,-7.000000000000000000e+01
0.000000000000000000e+00,4.965965820000000086e-01,1.000000000000000000e+01,-7.000000000000000000e+01
0.000000000000000000e+00,1.556596582000000728e+00,1.000000000000000000e+01,-7.000000000000000000e+01
0.000000000000000000e+00,1.616596582000000781e+00,1.000000000000000000e+01,-7.000000000000000000e+01
0.000000000000000000e+00,1.556596582000000728e+00,1.000000000000000000e+01,-7.000000000000000000e+01
0.000000000000000000e+00,6.565965820000000397e-01,1.000000000000000000e+01,-7.000000000000000000e+01
0.000000000000000000e+00,1.816596582000000959e+00,1.000000000000000000e+01,-7.000000000000000000e+01
0.000000000000000000e+00,9.765965820000002129e-01,1.000000000000000000e+01,-7.000000000000000000e+01
0.000000000000000000e+00,1.136596582000000355e+00,1.000000000000000000e+01,-7.000000000000000000e+01
0.000000000000000000e+00,9.965965820000002307e-01,1.000000000000000000e+01,-7.000000000000000000e+01
0.000000000000000000e+00,1.416596582000000604e+00,1.000000000000000000e+01,-7.000000000000000000e+01
0.000000000000000000e+00,1.696596582000000852e+00,1.000000000000000000e+01,-7.000000000000000000e+01
0.000000000000000000e+00,5.765965819999999686e-01,1.000000000000000000e+01,-7.000000000000000000e+01
0.000000000000000000e+00,1.196596582000000408e+00,1.000000000000000000e+01,-7.000000000000000000e+01
0.000000000000000000e+00,8.965965820000001418e-01,1.000000000000000000e+01,-7.000000000000000000e+01
0.000000000000000000e+00,4.965965820000000086e-01,1.000000000000000000e+01,-7.000000000000000000e+01
0.000000000000000000e+00,8.365965820000000885e-01,1.000000000000000000e+01,-7.000000000000000000e+01
0.000000000000000000e+00,6.165965820000000042e-01,1.000000000000000000e+01,-7.000000000000000000e+01
0.000000000000000000e+00,5.365965819999999331e-01,1.000000000000000000e+01,-7.000000000000000000e+01
0.000000000000000000e+00,1.196596582000000408e+00,1.000000000000000000e+01,-7.000000000000000000e+01
0.000000000000000000e+00,5.965965819999999864e-01,1.000000000000000000e+01,-7.000000000000000000e+01
0.000000000000000000e+00,1.156596582000000373e+00,1.000000000000000000e+01,-7.000000000000000000e+01
0.000000000000000000e+00,5.165965820000000264e-01,1.000000000000000000e+01,-7.000000000000000000e+01
0.000000000000000000e+00,1.736596582000000888e+00,1.000000000000000000e+01,-7.000000000000000000e+01
0.000000000000000000e+00,7.165965820000000930e-01,1.000000000000000000e+01,-7.000000000000000000e+01
0.000000000000000000e+00,7.365965820000001107e-01,1.000000000000000000e+01,-7.000000000000000000e+01
0.000000000000000000e+00,5.965965819999999864e-01,1.000000000000000000e+01,-7.000000000000000000e+01
0.000000000000000000e+00,8.565965820000001063e-01,1.000000000000000000e+01,-7.000000000000000000e+01
0.000000000000000000e+00,6.965965820000000752e-01,1.000000000000000000e+01,-7.000000000000000000e+01
0.000000000000000000e+00,1.136596582000000355e+00,1.000000000000000000e+01,-7.000000000000000000e+01
0.000000000000000000e+00,1.076596582000000302e+00,1.000000000000000000e+01,-7.000000000000000000e+01
0.000000000000000000e+00,1.556596582000000728e+00,1.000000000000000000e+01,-7.000000000000000000e+01
0.000000000000000000e+00,8.565965820000001063e-01,1.000000000000000000e+01,-7.000000000000000000e+01
0.000000000000000000e+00,5.365965819999999331e-01,1.000000000000000000e+01,-7.000000000000000000e+01
0.000000000000000000e+00,2.676596582000001501e+00,1.000000000000000000e+01,-7.000000000000000000e+01
0.000000000000000000e+00,4.765965819999999908e-01,1.000000000000000000e+01,-7.000000000000000000e+01
0.000000000000000000e+00,1.416596582000000604e+00,1.000000000000000000e+01,-7.000000000000000000e+01
0.000000000000000000e+00,5.365965819999999331e-01,1.000000000000000000e+01,-7.000000000000000000e+01
0.000000000000000000e+00,7.165965820000000930e-01,1.000000000000000000e+01,-7.000000000000000000e+01
0.000000000000000000e+00,9.965965820000002307e-01,1.000000000000000000e+01,-7.000000000000000000e+01
0.000000000000000000e+00,1.316596582000000515e+00,1.000000000000000000e+01,-7.000000000000000000e+01
0.000000000000000000e+00,1.276596582000000479e+00,1.000000000000000000e+01,-7.000000000000000000e+01
0.000000000000000000e+00,5.565965819999999509e-01,1.000000000000000000e+01,-7.000000000000000000e+01
0.000000000000000000e+00,5.965965819999999864e-01,1.000000000000000000e+01,-7.000000000000000000e+01
0.000000000000000000e+00,8.965965820000001418e-01,1.000000000000000000e+01,-7.000000000000000000e+01
0.000000000000000000e+00,1.356596582000000550e+00,1.000000000000000000e+01,-7.000000000000000000e+01
0.000000000000000000e+00,5.765965819999999686e-01,1.000000000000000000e+01,-7.000000000000000000e+01
0.000000000000000000e+00,1.156596582000000373e+00,1.000000000000000000e+01,-7.000000000000000000e+01
0.000000000000000000e+00,7.765965820000001463e-01,1.000000000000000000e+01,-7.000000000000000000e+01
0.000000000000000000e+00,1.036596582000000266e+00,1.000000000000000000e+01,-7.000000000000000000e+01
0.000000000000000000e+00,6.965965820000000752e-01,1.000000000000000000e+01,-7.000000000000000000e+01
0.000000000000000000e+00,4.965965820000000086e-01,1.000000000000000000e+01,-7.000000000000000000e+01
0.000000000000000000e+00,6.365965820000000219e-01,1.000000000000000000e+01,-7.000000000000000000e+01
0.000000000000000000e+00,1.136596582000000355e+00,1.000000000000000000e+01,-7.000000000000000000e+01
0.000000000000000000e+00,9.965965820000002307e-01,1.000000000000000000e+01,-7.000000000000000000e+01
0.000000000000000000e+00,1.056596582000000284e+00,1.000000000000000000e+01,-7.000000000000000000e+01
0.000000000000000000e+00,1.316596582000000515e+00,1.000000000000000000e+01,-7.000000000000000000e+01
0.000000000000000000e+00,9.165965820000001596e-01,1.000000000000000000e+01,-7.000000000000000000e+01
0.000000000000000000e+00,7.765965820000001463e-01,1.000000000000000000e+01,-7.000000000000000000e+01
0.000000000000000000e+00,8.165965820000000708e-01,1.000000000000000000e+01,-7.000000000000000000e+01
0.000000000000000000e+00,2.716596582000001536e+00,1.000000000000000000e+01,-7.000000000000000000e+01
0.000000000000000000e+00,1.096596582000000319e+00,1.000000000000000000e+01,-7.000000000000000000e+01
0.000000000000000000e+00,9.765965820000002129e-01,1.000000000000000000e+01,-7.000000000000000000e+01
0.000000000000000000e+00,1.536596582000000710e+00,1.000000000000000000e+01,-7.000000000000000000e+01
0.000000000000000000e+00,8.365965820000000885e-01,1.000000000000000000e+01,-7.000000000000000000e+01
0.000000000000000000e+00,7.565965820000001285e-01,1.000000000000000000e+01,-7.000000000000000000e+01
0.000000000000000000e+00,4.365965820000000108e-01,1.000000000000000000e+01,-7.000000000000000000e+01
0.000000000000000000e+00,7.765965820000001463e-01,1.000000000000000000e+01,-7.000000000000000000e+01
0.000000000000000000e+00,1.076596582000000302e+00,1.000000000000000000e+01,-7.000000000000000000e+01
0.000000000000000000e+00,4.365965820000000108e-01,1.000000000000000000e+01,-7.000000000000000000e+01
1.000000000000000000e+00,2.396596582000001252e+00,1.000000000000000000e+01,-7.000000000000000000e+01
0.000000000000000000e+00,8.765965820000001241e-01,1.000000000000000000e+01,-7.000000000000000000e+01
0.000000000000000000e+00,1.196596582000000408e+00,1.000000000000000000e+01,-7.000000000000000000e+01
0.000000000000000000e+00,1.356596582000000550e+00,1.000000000000000000e+01,-7.000000000000000000e+01
0.000000000000000000e+00,7.165965820000000930e-01,1.000000000000000000e+01,-7.000000000000000000e+01
0.000000000000000000e+00,1.336596582000000533e+00,1.000000000000000000e+01,-7.000000000000000000e+01
0.000000000000000000e+00,5.765965819999999686e-01,1.000000000000000000e+01,-7.000000000000000000e+01
0.000000000000000000e+00,5.365965819999999331e-01,1.000000000000000000e+01,-7.000000000000000000e+01
0.000000000000000000e+00,1.156596582000000373e+00,1.000000000000000000e+01,-7.000000000000000000e+01
0.000000000000000000e+00,5.965965819999999864e-01,1.000000000000000000e+01,-7.000000000000000000e+01
0.000000000000000000e+00,1.496596582000000675e+00,1.000000000000000000e+01,-7.000000000000000000e+01
0.000000000000000000e+00,5.965965819999999864e-01,1.000000000000000000e+01,-7.000000000000000000e+01
0.000000000000000000e+00,1.196596582000000408e+00,1.000000000000000000e+01,-7.000000000000000000e+01
0.000000000000000000e+00,8.565965820000001063e-01,1.000000000000000000e+01,-7.000000000000000000e+01
0.000000000000000000e+00,4.965965820000000086e-01,1.000000000000000000e+01,-7.000000000000000000e+01
0.000000000000000000e+00,1.356596582000000550e+00,1.000000000000000000e+01,-7.000000000000000000e+01
0.000000000000000000e+00,8.165965820000000708e-01,1.000000000000000000e+01,-7.000000000000000000e+01
0.000000000000000000e+00,1.296596582000000497e+00,1.000000000000000000e+01,-7.000000000000000000e+01
0.000000000000000000e+00,5.565965819999999509e-01,1.000000000000000000e+01,-7.000000000000000000e+01
0.000000000000000000e+00,5.965965819999999864e-01,1.000000000000000000e+01,-7.000000000000000000e+01
0.000000000000000000e+00,1.116596582000000337e+00,1.000000000000000000e+01,-7.000000000000000000e+01
0.000000000000000000e+00,6.765965820000000575e-01,1.000000000000000000e+01,-7.000000000000000000e+01
0.000000000000000000e+00,1.576596582000000746e+00,1.000000000000000000e+01,-7.000000000000000000e+01
0.000000000000000000e+00,1.036596582000000266e+00,1.000000000000000000e+01,-7.000000000000000000e+01
0.000000000000000000e+00,9.565965820000001951e-01,1.000000000000000000e+01,-7.000000000000000000e+01
0.000000000000000000e+00,2.936596582000001732e+00,1.000000000000000000e+01,-7.000000000000000000e+01
0.000000000000000000e+00,1.236596582000000444e+00,1.000000000000000000e+01,-7.000000000000000000e+01
0.000000000000000000e+00,7.765965820000001463e-01,1.000000000000000000e+01,-7.000000000000000000e+01
0.000000000000000000e+00,8.365965820000000885e-01,1.000000000000000000e+01,-7.000000000000000000e+01
0.000000000000000000e+00,1.416596582000000604e+00,1.000000000000000000e+01,-7.000000000000000000e+01
0.000000000000000000e+00,1.096596582000000319e+00,1.000000000000000000e+01,-7.000000000000000000e+01
0.000000000000000000e+00,7.165965820000000930e-01,1.000000000000000000e+01,-7.000000000000000000e+01
0.000000000000000000e+00,6.165965820000000042e-01,1.000000000000000000e+01,-7.000000000000000000e+01
0.000000000000000000e+00,9.365965820000001774e-01,1.000000000000000000e+01,-7.000000000000000000e+01
0.000000000000000000e+00,9.165965820000001596e-01,1.000000000000000000e+01,-7.000000000000000000e+01
0.000000000000000000e+00,5.565965819999999509e-01,1.000000000000000000e+01,-7.000000000000000000e+01
0.000000000000000000e+00,1.576596582000000746e+00,1.000000000000000000e+01,-7.000000000000000000e+01
0.000000000000000000e+00,9.365965820000001774e-01,1.000000000000000000e+01,-7.000000000000000000e+01
0.000000000000000000e+00,1.596596582000000764e+00,1.000000000000000000e+01,-7.000000000000000000e+01
0.000000000000000000e+00,5.565965819999999509e-01,1.000000000000000000e+01,-7.000000000000000000e+01
0.000000000000000000e+00,1.436596582000000621e+00,1.000000000000000000e+01,-7.000000000000000000e+01
0.000000000000000000e+00,9.165965820000001596e-01,1.000000000000000000e+01,-7.000000000000000000e+01
0.000000000000000000e+00,4.765965819999999908e-01,1.000000000000000000e+01,-7.000000000000000000e+01
0.000000000000000000e+00,6.565965820000000397e-01,1.000000000000000000e+01,-7.000000000000000000e+01
0.000000000000000000e+00,9.365965820000001774e-01,1.000000000000000000e+01,-7.000000000000000000e+01
0.000000000000000000e+00,4.965965820000000086e-01,1.000000000000000000e+01,-7.000000000000000000e+01
0.000000000000000000e+00,1.156596582000000373e+00,1.000000000000000000e+01,-7.000000000000000000e+01
0.000000000000000000e+00,5.965965819999999864e-01,1.000000000000000000e+01,-7.000000000000000000e+01
0.000000000000000000e+00,6.365965820000000219e-01,1.000000000000000000e+01,-7.000000000000000000e+01
0.000000000000000000e+00,8.965965820000001418e-01,1.000000000000000000e+01,-7.000000000000000000e+01
0.000000000000000000e+00,7.965965820000000530e-01,1.000000000000000000e+01,-7.000000000000000000e+01
0.000000000000000000e+00,7.365965820000001107e-01,1.000000000000000000e+01,-7.000000000000000000e+01
0.000000000000000000e+00,7.365965820000001107e-01,1.000000000000000000e+01,-7.000000000000000000e+01
0.000000000000000000e+00,1.016596582000000248e+00,1.000000000000000000e+01,-7.000000000000000000e+01
0.000000000000000000e+00,1.476596582000000657e+00,1.000000000000000000e+01,-7.000000000000000000e+01
0.000000000000000000e+00,1.216596582000000426e+00,1.000000000000000000e+01,-7.000000000000000000e+01
0.000000000000000000e+00,4.965965820000000086e-01,1.000000000000000000e+01,-7.000000000000000000e+01
0.000000000000000000e+00,4.236596582000003330e+00,1.000000000000000000e+01,-7.000000000000000000e+01
0.000000000000000000e+00,9.365965820000001774e-01,1.000000000000000000e+01,-7.000000000000000000e+01
0.000000000000000000e+00,1.396596582000000586e+00,1.000000000000000000e+01,-7.000000000000000000e+01
0.000000000000000000e+00,9.765965820000002129e-01,1.000000000000000000e+01,-7.000000000000000000e+01
0.000000000000000000e+00,6.365965820000000219e-01,1.000000000000000000e+01,-7.000000000000000000e+01
0.000000000000000000e+00,1.016596582000000248e+00,1.000000000000000000e+01,-7.000000000000000000e+01
0.000000000000000000e+00,1.076596582000000302e+00,1.000000000000000000e+01,-7.000000000000000000e+01
0.000000000000000000e+00,1.256596582000000462e+00,1.000000000000000000e+01,-7.000000000000000000e+01
0.000000000000000000e+00,6.565965820000000397e-01,1.000000000000000000e+01,-7.000000000000000000e+01
0.000000000000000000e+00,2.356596582000001217e+00,1.000000000000000000e+01,-7.000000000000000000e+01
0.000000000000000000e+00,1.696596582000000852e+00,1.000000000000000000e+01,-7.000000000000000000e+01
0.000000000000000000e+00,1.256596582000000462e+00,1.000000000000000000e+01,-7.000000000000000000e+01
0.000000000000000000e+00,2.976596582000001767e+00,1.000000000000000000e+01,-7.000000000000000000e+01
0.000000000000000000e+00,7.165965820000000930e-01,1.000000000000000000e+01,-7.000000000000000000e+01
0.000000000000000000e+00,1.616596582000000781e+00,1.000000000000000000e+01,-7.000000000000000000e+01
0.000000000000000000e+00,7.565965820000001285e-01,1.000000000000000000e+01,-7.000000000000000000e+01
0.000000000000000000e+00,7.965965820000000530e-01,1.000000000000000000e+01,-7.000000000000000000e+01
0.000000000000000000e+00,9.965965820000002307e-01,1.000000000000000000e+01,-7.000000000000000000e+01
0.000000000000000000e+00,5.765965819999999686e-01,1.000000000000000000e+01,-7.000000000000000000e+01
0.000000000000000000e+00,2.216596582000001092e+00,1.000000000000000000e+01,-7.000000000000000000e+01
0.000000000000000000e+00,1.056596582000000284e+00,1.000000000000000000e+01,-7.000000000000000000e+01
1.000000000000000000e+00,1.516596582000000693e+00,1.000000000000000000e+01,-7.000000000000000000e+01
0.000000000000000000e+00,9.365965820000001774e-01,1.000000000000000000e+01,-6.000000000000000000e+01
0.000000000000000000e+00,1.156596582000000373e+00,1.000000000000000000e+01,-6.000000000000000000e+01
0.000000000000000000e+00,6.965965820000000752e-01,1.000000000000000000e+01,-6.000000000000000000e+01
0.000000000000000000e+00,4.165965819999999931e-01,1.000000000000000000e+01,-6.000000000000000000e+01
0.000000000000000000e+00,1.096596582000000319e+00,1.000000000000000000e+01,-6.000000000000000000e+01
0.000000000000000000e+00,9.365965820000001774e-01,1.000000000000000000e+01,-6.000000000000000000e+01
0.000000000000000000e+00,1.016596582000000248e+00,1.000000000000000000e+01,-6.000000000000000000e+01
0.000000000000000000e+00,5.965965819999999864e-01,1.000000000000000000e+01,-6.000000000000000000e+01
0.000000000000000000e+00,1.576596582000000746e+00,1.000000000000000000e+01,-6.000000000000000000e+01
0.000000000000000000e+00,8.765965820000001241e-01,1.000000000000000000e+01,-6.000000000000000000e+01
0.000000000000000000e+00,6.365965820000000219e-01,1.000000000000000000e+01,-6.000000000000000000e+01
0.000000000000000000e+00,1.136596582000000355e+00,1.000000000000000000e+01,-6.000000000000000000e+01
0.000000000000000000e+00,7.165965820000000930e-01,1.000000000000000000e+01,-6.000000000000000000e+01
0.000000000000000000e+00,7.765965820000001463e-01,1.000000000000000000e+01,-6.000000000000000000e+01
0.000000000000000000e+00,8.565965820000001063e-01,1.000000000000000000e+01,-6.000000000000000000e+01
0.000000000000000000e+00,2.036596582000000932e+00,1.000000000000000000e+01,-6.000000000000000000e+01
0.000000000000000000e+00,1.076596582000000302e+00,1.000000000000000000e+01,-6.000000000000000000e+01
0.000000000000000000e+00,1.256596582000000462e+00,1.000000000000000000e+01,-6.000000000000000000e+01
0.000000000000000000e+00,7.165965820000000930e-01,1.000000000000000000e+01,-6.000000000000000000e+01
0.000000000000000000e+00,1.896596582000001030e+00,1.000000000000000000e+01,-6.000000000000000000e+01
0.000000000000000000e+00,7.165965820000000930e-01,1.000000000000000000e+01,-6.000000000000000000e+01
0.000000000000000000e+00,9.765965820000002129e-01,1.000000000000000000e+01,-6.000000000000000000e+01
0.000000000000000000e+00,9.165965820000001596e-01,1.000000000000000000e+01,-6.000000000000000000e+01
0.000000000000000000e+00,1.396596582000000586e+00,1.000000000000000000e+01,-6.000000000000000000e+01
0.000000000000000000e+00,6.765965820000000575e-01,1.000000000000000000e+01,-6.000000000000000000e+01
0.000000000000000000e+00,5.765965819999999686e-01,1.000000000000000000e+01,-6.000000000000000000e+01
0.000000000000000000e+00,8.365965820000000885e-01,1.000000000000000000e+01,-6.000000000000000000e+01
0.000000000000000000e+00,6.765965820000000575e-01,1.000000000000000000e+01,-6.000000000000000000e+01
0.000000000000000000e+00,1.036596582000000266e+00,1.000000000000000000e+01,-6.000000000000000000e+01
0.000000000000000000e+00,6.165965820000000042e-01,1.000000000000000000e+01,-6.000000000000000000e+01
0.000000000000000000e+00,1.696596582000000852e+00,1.000000000000000000e+01,-6.000000000000000000e+01
0.000000000000000000e+00,8.765965820000001241e-01,1.000000000000000000e+01,-6.000000000000000000e+01
0.000000000000000000e+00,1.196596582000000408e+00,1.000000000000000000e+01,-6.000000000000000000e+01
0.000000000000000000e+00,2.016596582000000915e+00,1.000000000000000000e+01,-6.000000000000000000e+01
0.000000000000000000e+00,5.565965819999999509e-01,1.000000000000000000e+01,-6.000000000000000000e+01
0.000000000000000000e+00,1.496596582000000675e+00,1.000000000000000000e+01,-6.000000000000000000e+01
0.000000000000000000e+00,8.365965820000000885e-01,1.000000000000000000e+01,-6.000000000000000000e+01
0.000000000000000000e+00,6.765965820000000575e-01,1.000000000000000000e+01,-6.000000000000000000e+01
0.000000000000000000e+00,4.565965819999999731e-01,1.000000000000000000e+01,-6.000000000000000000e+01
0.000000000000000000e+00,8.165965820000000708e-01,1.000000000000000000e+01,-6.000000000000000000e+01
0.000000000000000000e+00,1.256596582000000462e+00,1.000000000000000000e+01,-6.000000000000000000e+01
0.000000000000000000e+00,8.565965820000001063e-01,1.000000000000000000e+01,-6.000000000000000000e+01
0.000000000000000000e+00,1.136596582000000355e+00,1.000000000000000000e+01,-6.000000000000000000e+01
0.000000000000000000e+00,1.056596582000000284e+00,1.000000000000000000e+01,-6.000000000000000000e+01
0.000000000000000000e+00,6.765965820000000575e-01,1.000000000000000000e+01,-6.000000000000000000e+01
0.000000000000000000e+00,9.365965820000001774e-01,1.000000000000000000e+01,-6.000000000000000000e+01
0.000000000000000000e+00,1.736596582000000888e+00,1.000000000000000000e+01,-6.000000000000000000e+01
0.000000000000000000e+00,5.165965820000000264e-01,1.000000000000000000e+01,-6.000000000000000000e+01
0.000000000000000000e+00,2.076596582000000968e+00,1.000000000000000000e+01,-6.000000000000000000e+01
0.000000000000000000e+00,7.965965820000000530e-01,1.000000000000000000e+01,-6.000000000000000000e+01
0.000000000000000000e+00,1.516596582000000693e+00,1.000000000000000000e+01,-6.000000000000000000e+01
0.000000000000000000e+00,1.956596582000001083e+00,1.000000000000000000e+01,-6.000000000000000000e+01
0.000000000000000000e+00,6.765965820000000575e-01,1.000000000000000000e+01,-6.000000000000000000e+01
0.000000000000000000e+00,1.296596582000000497e+00,1.000000000000000000e+01,-6.000000000000000000e+01
0.000000000000000000e+00,5.765965819999999686e-01,1.000000000000000000e+01,-6.000000000000000000e+01
0.000000000000000000e+00,9.765965820000002129e-01,1.000000000000000000e+01,-6.000000000000000000e+01
0.000000000000000000e+00,2.036596582000000932e+00,1.000000000000000000e+01,-6.000000000000000000e+01
0.000000000000000000e+00,6.165965820000000042e-01,1.000000000000000000e+01,-6.000000000000000000e+01
0.000000000000000000e+00,6.965965820000000752e-01,1.000000000000000000e+01,-6.000000000000000000e+01
0.000000000000000000e+00,1.076596582000000302e+00,1.000000000000000000e+01,-6.000000000000000000e+01
0.000000000000000000e+00,1.196596582000000408e+00,1.000000000000000000e+01,-6.000000000000000000e+01
0.000000000000000000e+00,3.356596582000002105e+00,1.000000000000000000e+01,-6.000000000000000000e+01
0.000000000000000000e+00,7.365965820000001107e-01,1.000000000000000000e+01,-6.000000000000000000e+01
0.000000000000000000e+00,8.365965820000000885e-01,1.000000000000000000e+01,-6.000000000000000000e+01
0.000000000000000000e+00,9.165965820000001596e-01,1.000000000000000000e+01,-6.000000000000000000e+01
0.000000000000000000e+00,6.365965820000000219e-01,1.000000000000000000e+01,-6.000000000000000000e+01
0.000000000000000000e+00,7.565965820000001285e-01,1.000000000000000000e+01,-6.000000000000000000e+01
0.000000000000000000e+00,1.036596582000000266e+00,1.000000000000000000e+01,-6.000000000000000000e+01
0.000000000000000000e+00,6.965965820000000752e-01,1.000000000000000000e+01,-6.000000000000000000e+01
0.000000000000000000e+00,1.416596582000000604e+00,1.000000000000000000e+01,-6.000000000000000000e+01
0.000000000000000000e+00,6.165965820000000042e-01,1.000000000000000000e+01,-6.000000000000000000e+01
0.000000000000000000e+00,9.165965820000001596e-01,1.000000000000000000e+01,-6.000000000000000000e+01
0.000000000000000000e+00,6.165965820000000042e-01,1.000000000000000000e+01,-6.000000000000000000e+01
0.000000000000000000e+00,7.565965820000001285e-01,1.000000000000000000e+01,-6.000000000000000000e+01
0.000000000000000000e+00,6.565965820000000397e-01,1.000000000000000000e+01,-6.000000000000000000e+01
0.000000000000000000e+00,1.316596582000000515e+00,1.000000000000000000e+01,-6.000000000000000000e+01
0.000000000000000000e+00,7.365965820000001107e-01,1.000000000000000000e+01,-6.000000000000000000e+01
0.000000000000000000e+00,1.376596582000000568e+00,1.000000000000000000e+01,-6.000000000000000000e+01
0.000000000000000000e+00,1.276596582000000479e+00,1.000000000000000000e+01,-6.000000000000000000e+01
0.000000000000000000e+00,6.165965820000000042e-01,1.000000000000000000e+01,-6.000000000000000000e+01
0.000000000000000000e+00,4.365965820000000108e-01,1.000000000000000000e+01,-6.000000000000000000e+01
0.000000000000000000e+00,8.565965820000001063e-01,1.000000000000000000e+01,-6.000000000000000000e+01
0.000000000000000000e+00,1.176596582000000391e+00,1.000000000000000000e+01,-6.000000000000000000e+01
0.000000000000000000e+00,4.965965820000000086e-01,1.000000000000000000e+01,-6.000000000000000000e+01
0.000000000000000000e+00,4.365965820000000108e-01,1.000000000000000000e+01,-6.000000000000000000e+01
0.000000000000000000e+00,7.365965820000001107e-01,1.000000000000000000e+01,-6.000000000000000000e+01
0.000000000000000000e+00,9.965965820000002307e-01,1.000000000000000000e+01,-6.000000000000000000e+01
0.000000000000000000e+00,6.165965820000000042e-01,1.000000000000000000e+01,-6.000000000000000000e+01
0.000000000000000000e+00,6.765965820000000575e-01,1.000000000000000000e+01,-6.000000000000000000e+01
0.000000000000000000e+00,7.165965820000000930e-01,1.000000000000000000e+01,-6.000000000000000000e+01
0.000000000000000000e+00,9.365965820000001774e-01,1.000000000000000000e+01,-6.000000000000000000e+01
0.000000000000000000e+00,1.456596582000000639e+00,1.000000000000000000e+01,-6.000000000000000000e+01
0.000000000000000000e+00,6.965965820000000752e-01,1.000000000000000000e+01,-6.000000000000000000e+01
0.000000000000000000e+00,1.816596582000000959e+00,1.000000000000000000e+01,-6.000000000000000000e+01
0.000000000000000000e+00,7.365965820000001107e-01,1.000000000000000000e+01,-6.000000000000000000e+01
0.000000000000000000e+00,5.565965819999999509e-01,1.000000000000000000e+01,-6.000000000000000000e+01
0.000000000000000000e+00,1.376596582000000568e+00,1.000000000000000000e+01,-6.000000000000000000e+01
0.000000000000000000e+00,1.096596582000000319e+00,1.000000000000000000e+01,-6.000000000000000000e+01
0.000000000000000000e+00,5.765965819999999686e-01,1.000000000000000000e+01,-6.000000000000000000e+01
0.000000000000000000e+00,5.965965819999999864e-01,1.000000000000000000e+01,-6.000000000000000000e+01
0.000000000000000000e+00,9.965965820000002307e-01,1.000000000000000000e+01,-6.000000000000000000e+01
0.000000000000000000e+00,1.736596582000000888e+00,1.000000000000000000e+01,-6.000000000000000000e+01
0.000000000000000000e+00,5.565965819999999509e-01,1.000000000000000000e+01,-6.000000000000000000e+01
0.000000000000000000e+00,7.565965820000001285e-01,1.000000000000000000e+01,-6.000000000000000000e+01
0.000000000000000000e+00,8.365965820000000885e-01,1.000000000000000000e+01,-6.000000000000000000e+01
0.000000000000000000e+00,1.956596582000001083e+00,1.000000000000000000e+01,-6.000000000000000000e+01
0.000000000000000000e+00,1.196596582000000408e+00,1.000000000000000000e+01,-6.000000000000000000e+01
0.000000000000000000e+00,9.365965820000001774e-01,1.000000000000000000e+01,-6.000000000000000000e+01
0.000000000000000000e+00,6.965965820000000752e-01,1.000000000000000000e+01,-6.000000000000000000e+01
0.000000000000000000e+00,7.565965820000001285e-01,1.000000000000000000e+01,-6.000000000000000000e+01
0.000000000000000000e+00,6.765965820000000575e-01,1.000000000000000000e+01,-6.000000000000000000e+01
0.000000000000000000e+00,6.965965820000000752e-01,1.000000000000000000e+01,-6.000000000000000000e+01
0.000000000000000000e+00,1.496596582000000675e+00,1.000000000000000000e+01,-6.000000000000000000e+01
0.000000000000000000e+00,4.365965820000000108e-01,1.000000000000000000e+01,-6.000000000000000000e+01
0.000000000000000000e+00,4.965965820000000086e-01,1.000000000000000000e+01,-6.000000000000000000e+01
0.000000000000000000e+00,7.165965820000000930e-01,1.000000000000000000e+01,-6.000000000000000000e+01
0.000000000000000000e+00,1.236596582000000444e+00,1.000000000000000000e+01,-6.000000000000000000e+01
0.000000000000000000e+00,8.165965820000000708e-01,1.000000000000000000e+01,-6.000000000000000000e+01
0.000000000000000000e+00,7.965965820000000530e-01,1.000000000000000000e+01,-6.000000000000000000e+01
0.000000000000000000e+00,6.765965820000000575e-01,1.000000000000000000e+01,-6.000000000000000000e+01
0.000000000000000000e+00,1.076596582000000302e+00,1.000000000000000000e+01,-6.000000000000000000e+01
0.000000000000000000e+00,8.565965820000001063e-01,1.000000000000000000e+01,-6.000000000000000000e+01
0.000000000000000000e+00,1.096596582000000319e+00,1.000000000000000000e+01,-6.000000000000000000e+01
0.000000000000000000e+00,7.165965820000000930e-01,1.000000000000000000e+01,-6.000000000000000000e+01
0.000000000000000000e+00,7.565965820000001285e-01,1.000000000000000000e+01,-6.000000000000000000e+01
0.000000000000000000e+00,6.765965820000000575e-01,1.000000000000000000e+01,-6.000000000000000000e+01
0.000000000000000000e+00,4.765965819999999908e-01,1.000000000000000000e+01,-6.000000000000000000e+01
0.000000000000000000e+00,9.565965820000001951e-01,1.000000000000000000e+01,-6.000000000000000000e+01
0.000000000000000000e+00,8.765965820000001241e-01,1.000000000000000000e+01,-6.000000000000000000e+01
0.000000000000000000e+00,8.965965820000001418e-01,1.000000000000000000e+01,-6.000000000000000000e+01
0.000000000000000000e+00,1.756596582000000906e+00,1.000000000000000000e+01,-6.000000000000000000e+01
0.000000000000000000e+00,9.765965820000002129e-01,1.000000000000000000e+01,-6.000000000000000000e+01
0.000000000000000000e+00,1.076596582000000302e+00,1.000000000000000000e+01,-6.000000000000000000e+01
0.000000000000000000e+00,2.876596582000001678e+00,1.000000000000000000e+01,-6.000000000000000000e+01
0.000000000000000000e+00,4.965965820000000086e-01,1.000000000000000000e+01,-6.000000000000000000e+01
0.000000000000000000e+00,5.965965819999999864e-01,1.000000000000000000e+01,-6.000000000000000000e+01
0.000000000000000000e+00,4.565965819999999731e-01,1.000000000000000000e+01,-6.000000000000000000e+01
0.000000000000000000e+00,5.765965819999999686e-01,1.000000000000000000e+01,-6.000000000000000000e+01
0.000000000000000000e+00,5.765965819999999686e-01,1.000000000000000000e+01,-6.000000000000000000e+01
0.000000000000000000e+00,6.765965820000000575e-01,1.000000000000000000e+01,-6.000000000000000000e+01
0.000000000000000000e+00,1.876596582000001012e+00,1.000000000000000000e+01,-6.000000000000000000e+01
0.000000000000000000e+00,7.765965820000001463e-01,1.000000000000000000e+01,-6.000000000000000000e+01
0.000000000000000000e+00,1.156596582000000373e+00,1.000000000000000000e+01,-6.000000000000000000e+01
0.000000000000000000e+00,1.496596582000000675e+00,1.000000000000000000e+01,-6.000000000000000000e+01
0.000000000000000000e+00,8.565965820000001063e-01,1.000000000000000000e+01,-6.000000000000000000e+01
0.000000000000000000e+00,4.365965820000000108e-01,1.000000000000000000e+01,-6.000000000000000000e+01
0.000000000000000000e+00,1.076596582000000302e+00,1.000000000000000000e+01,-6.000000000000000000e+01
0.000000000000000000e+00,2.836596582000001643e+00,1.000000000000000000e+01,-6.000000000000000000e+01
0.000000000000000000e+00,7.965965820000000530e-01,1.000000000000000000e+01,-6.000000000000000000e+01
0.000000000000000000e+00,1.556596582000000728e+00,1.000000000000000000e+01,-6.000000000000000000e+01
0.000000000000000000e+00,1.816596582000000959e+00,1.000000000000000000e+01,-6.000000000000000000e+01
0.000000000000000000e+00,1.156596582000000373e+00,1.000000000000000000e+01,-6.000000000000000000e+01
0.000000000000000000e+00,7.365965820000001107e-01,1.000000000000000000e+01,-6.000000000000000000e+01
0.000000000000000000e+00,7.765965820000001463e-01,1.000000000000000000e+01,-6.000000000000000000e+01
0.000000000000000000e+00,1.736596582000000888e+00,1.000000000000000000e+01,-6.000000000000000000e+01
0.000000000000000000e+00,1.096596582000000319e+00,1.000000000000000000e+01,-6.000000000000000000e+01
0.000000000000000000e+00,6.765965820000000575e-01,1.000000000000000000e+01,-6.000000000000000000e+01
0.000000000000000000e+00,7.165965820000000930e-01,1.000000000000000000e+01,-6.000000000000000000e+01
0.000000000000000000e+00,1.296596582000000497e+00,1.000000000000000000e+01,-6.000000000000000000e+01
0.000000000000000000e+00,1.076596582000000302e+00,1.000000000000000000e+01,-6.000000000000000000e+01
0.000000000000000000e+00,8.165965820000000708e-01,1.000000000000000000e+01,-6.000000000000000000e+01
0.000000000000000000e+00,7.965965820000000530e-01,1.000000000000000000e+01,-6.000000000000000000e+01
0.000000000000000000e+00,1.076596582000000302e+00,1.000000000000000000e+01,-6.000000000000000000e+01
0.000000000000000000e+00,6.365965820000000219e-01,1.000000000000000000e+01,-6.000000000000000000e+01
0.000000000000000000e+00,1.996596582000001119e+00,1.000000000000000000e+01,-6.000000000000000000e+01
0.000000000000000000e+00,1.256596582000000462e+00,1.000000000000000000e+01,-6.000000000000000000e+01
0.000000000000000000e+00,1.416596582000000604e+00,1.000000000000000000e+01,-6.000000000000000000e+01
0.000000000000000000e+00,1.076596582000000302e+00,1.000000000000000000e+01,-6.000000000000000000e+01
0.000000000000000000e+00,1.816596582000000959e+00,1.000000000000000000e+01,-6.000000000000000000e+01
0.000000000000000000e+00,5.165965820000000264e-01,1.000000000000000000e+01,-6.000000000000000000e+01
0.000000000000000000e+00,9.765965820000002129e-01,1.000000000000000000e+01,-6.000000000000000000e+01
0.000000000000000000e+00,1.716596582000000870e+00,1.000000000000000000e+01,-6.000000000000000000e+01
0.000000000000000000e+00,2.036596582000000932e+00,1.000000000000000000e+01,-6.000000000000000000e+01
0.000000000000000000e+00,5.765965819999999686e-01,1.000000000000000000e+01,-6.000000000000000000e+01
0.000000000000000000e+00,1.556596582000000728e+00,1.000000000000000000e+01,-6.000000000000000000e+01
0.000000000000000000e+00,8.765965820000001241e-01,1.000000000000000000e+01,-6.000000000000000000e+01
0.000000000000000000e+00,5.765965819999999686e-01,1.000000000000000000e+01,-6.000000000000000000e+01
0.000000000000000000e+00,7.365965820000001107e-01,1.000000000000000000e+01,-6.000000000000000000e+01
0.000000000000000000e+00,4.965965820000000086e-01,1.000000000000000000e+01,-6.000000000000000000e+01
0.000000000000000000e+00,8.565965820000001063e-01,1.000000000000000000e+01,-6.000000000000000000e+01
0.000000000000000000e+00,7.765965820000001463e-01,1.000000000000000000e+01,-6.000000000000000000e+01
0.000000000000000000e+00,7.165965820000000930e-01,1.000000000000000000e+01,-6.000000000000000000e+01
0.000000000000000000e+00,7.965965820000000530e-01,1.000000000000000000e+01,-6.000000000000000000e+01
0.000000000000000000e+00,1.036596582000000266e+00,1.000000000000000000e+01,-6.000000000000000000e+01
0.000000000000000000e+00,9.965965820000002307e-01,1.000000000000000000e+01,-6.000000000000000000e+01
0.000000000000000000e+00,9.765965820000002129e-01,1.000000000000000000e+01,-6.000000000000000000e+01
0.000000000000000000e+00,1.616596582000000781e+00,1.000000000000000000e+01,-6.000000000000000000e+01
0.000000000000000000e+00,9.365965820000001774e-01,1.000000000000000000e+01,-6.000000000000000000e+01
0.000000000000000000e+00,5.365965819999999331e-01,1.000000000000000000e+01,-6.000000000000000000e+01
0.000000000000000000e+00,8.365965820000000885e-01,1.000000000000000000e+01,-6.000000000000000000e+01
