1.000000000000000000e+00,2.589330390000001980e+00,2.000000000000000000e+00,-4.000000000000000000e+00
0.000000000000000000e+00,1.089330390000000426e+00,2.000000000000000000e+00,-4.000000000000000000e+00
0.000000000000000000e+00,1.249330390000000568e+00,2.000000000000000000e+00,-4.000000000000000000e+00
0.000000000000000000e+00,1.149330390000000479e+00,2.000000000000000000e+00,-4.000000000000000000e+00
0.000000000000000000e+00,5.893303900000000928e-01,2.000000000000000000e+00,-4.000000000000000000e+00
0.000000000000000000e+00,1.749330390000001012e+00,2.000000000000000000e+00,-4.000000000000000000e+00
0.000000000000000000e+00,1.189330390000000515e+00,2.000000000000000000e+00,-4.000000000000000000e+00
0.000000000000000000e+00,5.693303900000000750e-01,2.000000000000000000e+00,-4.000000000000000000e+00
0.000000000000000000e+00,6.893303900000001816e-01,2.000000000000000000e+00,-4.000000000000000000e+00
0.000000000000000000e+00,1.249330390000000568e+00,2.000000000000000000e+00,-4.000000000000000000e+00
0.000000000000000000e+00,1.829330390000001083e+00,2.000000000000000000e+00,-4.000000000000000000e+00
0.000000000000000000e+00,1.009330390000000577e+00,2.000000000000000000e+00,-4.000000000000000000e+00
0.000000000000000000e+00,9.493303900000004125e-01,2.000000000000000000e+00,-4.000000000000000000e+00
0.000000000000000000e+00,1.529330390000000817e+00,2.000000000000000000e+00,-4.000000000000000000e+00
0.000000000000000000e+00,6.493303900000001461e-01,2.000000000000000000e+00,-4.000000000000000000e+00
1.000000000000000000e+00,1.829330390000001083e+00,2.000000000000000000e+00,-4.000000000000000000e+00
1.000000000000000000e+00,1.709330390000000977e+00,2.000000000000000000e+00,-4.000000000000000000e+00
0.000000000000000000e+00,1.369330390000000675e+00,2.000000000000000000e+00,-4.000000000000000000e+00
0.000000000000000000e+00,2.429330390000001838e+00,2.000000000000000000e+00,-4.000000000000000000e+00
1.000000000000000000e+00,2.389330390000001803e+00,2.000000000000000000e+00,-4.000000000000000000e+00
0.000000000000000000e+00,3.289330390000002602e+00,2.000000000000000000e+00,-4.000000000000000000e+00
1.000000000000000000e+00,2.469330390000001874e+00,2.000000000000000000e+00,-4.000000000000000000e+00
0.000000000000000000e+00,6.493303900000001461e-01,2.000000000000000000e+00,-4.000000000000000000e+00
0.000000000000000000e+00,3.429330390000002726e+00,2.000000000000000000e+00,-4.000000000000000000e+00
0.000000000000000000e+00,1.009330390000000577e+00,2.000000000000000000e+00,-4.000000000000000000e+00
0.000000000000000000e+00,6.293303900000001283e-01,2.000000000000000000e+00,-4.000000000000000000e+00
0.000000000000000000e+00,1.629330390000000905e+00,2.000000000000000000e+00,-4.000000000000000000e+00
0.000000000000000000e+00,5.693303900000000750e-01,2.000000000000000000e+00,-4.000000000000000000e+00
0.000000000000000000e+00,1.609330390000000888e+00,2.000000000000000000e+00,-4.000000000000000000e+00
0.000000000000000000e+00,1.389330390000000692e+00,2.000000000000000000e+00,-4.000000000000000000e+00
0.000000000000000000e+00,1.209330390000000532e+00,2.000000000000000000e+00,-4.000000000000000000e+00
1.000000000000000000e+00,5.189330389999978976e+00,2.000000000000000000e+00,-4.000000000000000000e+00
0.000000000000000000e+00,1.629330390000000905e+00,2.000000000000000000e+00,-4.000000000000000000e+00
0.000000000000000000e+00,2.449330390000001856e+00,2.000000000000000000e+00,-4.000000000000000000e+00
0.000000000000000000e+00,9.293303900000003948e-01,2.000000000000000000e+00,-4.000000000000000000e+00
1.000000000000000000e+00,1.189330390000000515e+00,2.000000000000000000e+00,-4.000000000000000000e+00
0.000000000000000000e+00,1.969330390000001207e+00,2.000000000000000000e+00,-4.000000000000000000e+00
0.000000000000000000e+00,1.789330390000001048e+00,2.000000000000000000e+00,-4.000000000000000000e+00
0.000000000000000000e+00,1.209330390000000532e+00,2.000000000000000000e+00,-4.000000000000000000e+00
0.000000000000000000e+00,8.493303900000003237e-01,2.000000000000000000e+00,-4.000000000000000000e+00
0.000000000000000000e+00,7.293303900000002171e-01,2.000000000000000000e+00,-4.000000000000000000e+00
1.000000000000000000e+00,2.449330390000001856e+00,2.000000000000000000e+00,-4.000000000000000000e+00
0.000000000000000000e+00,3.289330390000002602e+00,2.000000000000000000e+00,-4.000000000000000000e+00
1.000000000000000000e+00,1.669330390000000941e+00,2.000000000000000000e+00,-4.000000000000000000e+00
0.000000000000000000e+00,2.009330390000001465e+00,2.000000000000000000e+00,-4.000000000000000000e+00
1.000000000000000000e+00,2.229330390000001660e+00,2.000000000000000000e+00,-4.000000000000000000e+00
1.000000000000000000e+00,3.869330390000003117e+00,2.000000000000000000e+00,-4.000000000000000000e+00
0.000000000000000000e+00,3.493303899999999906e-01,2.000000000000000000e+00,-4.000000000000000000e+00
0.000000000000000000e+00,2.309330390000001731e+00,2.000000000000000000e+00,-4.000000000000000000e+00
1.000000000000000000e+00,8.893303900000003592e-01,2.000000000000000000e+00,-4.000000000000000000e+00
0.000000000000000000e+00,1.669330390000000941e+00,2.000000000000000000e+00,-4.000000000000000000e+00
0.000000000000000000e+00,9.293303900000003948e-01,2.000000000000000000e+00,-4.000000000000000000e+00
0.000000000000000000e+00,1.869330390000001119e+00,2.000000000000000000e+00,-4.000000000000000000e+00
0.000000000000000000e+00,2.289330390000001714e+00,2.000000000000000000e+00,-4.000000000000000000e+00
0.000000000000000000e+00,1.009330390000000577e+00,2.000000000000000000e+00,-4.000000000000000000e+00
1.000000000000000000e+00,1.669330390000000941e+00,2.000000000000000000e+00,-4.000000000000000000e+00
1.000000000000000000e+00,2.589330390000001980e+00,2.000000000000000000e+00,-4.000000000000000000e+00
0.000000000000000000e+00,9.493303900000004125e-01,2.000000000000000000e+00,-4.000000000000000000e+00
0.000000000000000000e+00,1.029330390000000595e+00,2.000000000000000000e+00,-4.000000000000000000e+00
0.000000000000000000e+00,9.493303900000004125e-01,2.000000000000000000e+00,-4.000000000000000000e+00
0.000000000000000000e+00,1.269330390000000586e+00,2.000000000000000000e+00,-4.000000000000000000e+00
0.000000000000000000e+00,5.493303900000001683e-01,2.000000000000000000e+00,-4.000000000000000000e+00
0.000000000000000000e+00,1.909330390000001154e+00,2.000000000000000000e+00,-4.000000000000000000e+00
1.000000000000000000e+00,4.389330389999996029e+00,2.000000000000000000e+00,-4.000000000000000000e+00
0.000000000000000000e+00,8.093303900000002882e-01,2.000000000000000000e+00,-4.000000000000000000e+00
0.000000000000000000e+00,1.569330390000000852e+00,2.000000000000000000e+00,-4.000000000000000000e+00
0.000000000000000000e+00,8.493303900000003237e-01,2.000000000000000000e+00,-4.000000000000000000e+00
1.000000000000000000e+00,1.189330390000000515e+00,2.000000000000000000e+00,-4.000000000000000000e+00
0.000000000000000000e+00,1.509330390000000799e+00,2.000000000000000000e+00,-4.000000000000000000e+00
1.000000000000000000e+00,1.709330390000000977e+00,2.000000000000000000e+00,-4.000000000000000000e+00
0.000000000000000000e+00,1.009330390000000577e+00,2.000000000000000000e+00,-4.000000000000000000e+00
1.000000000000000000e+00,1.149330390000000479e+00,2.000000000000000000e+00,-4.000000000000000000e+00
0.000000000000000000e+00,1.249330390000000568e+00,2.000000000000000000e+00,-4.000000000000000000e+00
1.000000000000000000e+00,3.149330390000002478e+00,2.000000000000000000e+00,-4.000000000000000000e+00
0.000000000000000000e+00,9.693303900000004303e-01,2.000000000000000000e+00,-4.000000000000000000e+00
0.000000000000000000e+00,1.829330390000001083e+00,2.000000000000000000e+00,-4.000000000000000000e+00
0.000000000000000000e+00,1.789330390000001048e+00,2.000000000000000000e+00,-4.000000000000000000e+00
0.000000000000000000e+00,2.209330390000001643e+00,2.000000000000000000e+00,-4.000000000000000000e+00
0.000000000000000000e+00,1.509330390000000799e+00,2.000000000000000000e+00,-4.000000000000000000e+00
0.000000000000000000e+00,2.649330390000002033e+00,2.000000000000000000e+00,-4.000000000000000000e+00
0.000000000000000000e+00,5.693303900000000750e-01,2.000000000000000000e+00,-4.000000000000000000e+00
0.000000000000000000e+00,3.893303900000000262e-01,2.000000000000000000e+00,-4.000000000000000000e+00
1.000000000000000000e+00,8.693303900000003415e-01,2.000000000000000000e+00,-4.000000000000000000e+00
1.000000000000000000e+00,3.409330390000002708e+00,2.000000000000000000e+00,-4.000000000000000000e+00
0.000000000000000000e+00,1.429330390000000728e+00,2.000000000000000000e+00,-4.000000000000000000e+00
0.000000000000000000e+00,9.093303900000003770e-01,2.000000000000000000e+00,-4.000000000000000000e+00
0.000000000000000000e+00,1.269330390000000586e+00,2.000000000000000000e+00,-4.000000000000000000e+00
0.000000000000000000e+00,2.489330390000001891e+00,2.000000000000000000e+00,-4.000000000000000000e+00
0.000000000000000000e+00,5.893303900000000928e-01,2.000000000000000000e+00,-4.000000000000000000e+00
0.000000000000000000e+00,5.693303900000000750e-01,2.000000000000000000e+00,-4.000000000000000000e+00
0.000000000000000000e+00,1.729330390000000994e+00,2.000000000000000000e+00,-4.000000000000000000e+00
0.000000000000000000e+00,5.249330389999977697e+00,2.000000000000000000e+00,-4.000000000000000000e+00
1.000000000000000000e+00,3.669330390000002939e+00,2.000000000000000000e+00,-4.000000000000000000e+00
0.000000000000000000e+00,9.093303900000003770e-01,2.000000000000000000e+00,-4.000000000000000000e+00
0.000000000000000000e+00,2.749330390000002122e+00,2.000000000000000000e+00,-4.000000000000000000e+00
0.000000000000000000e+00,3.493303899999999906e-01,2.000000000000000000e+00,-4.000000000000000000e+00
1.000000000000000000e+00,2.669330390000002051e+00,2.000000000000000000e+00,-4.000000000000000000e+00
0.000000000000000000e+00,1.869330390000001119e+00,2.000000000000000000e+00,-4.000000000000000000e+00
0.000000000000000000e+00,1.269330390000000586e+00,2.000000000000000000e+00,-4.000000000000000000e+00
1.000000000000000000e+00,3.009330390000002353e+00,2.000000000000000000e+00,-4.000000000000000000e+00
0.000000000000000000e+00,9.093303900000003770e-01,2.000000000000000000e+00,-4.000000000000000000e+00
0.000000000000000000e+00,1.049330390000000612e+00,2.000000000000000000e+00,-4.000000000000000000e+00
0.000000000000000000e+00,1.849330390000001101e+00,2.000000000000000000e+00,-4.000000000000000000e+00
0.000000000000000000e+00,8.493303900000003237e-01,2.000000000000000000e+00,-4.000000000000000000e+00
0.000000000000000000e+00,7.693303900000002526e-01,2.000000000000000000e+00,-4.000000000000000000e+00
1.000000000000000000e+00,1.709330390000000977e+00,2.000000000000000000e+00,-4.000000000000000000e+00
0.000000000000000000e+00,5.093303900000001327e-01,2.000000000000000000e+00,-4.000000000000000000e+00
0.000000000000000000e+00,1.629330390000000905e+00,2.000000000000000000e+00,-4.000000000000000000e+00
0.000000000000000000e+00,1.489330390000000781e+00,2.000000000000000000e+00,-4.000000000000000000e+00
0.000000000000000000e+00,1.629330390000000905e+00,2.000000000000000000e+00,-4.000000000000000000e+00
1.000000000000000000e+00,2.069330390000001518e+00,2.000000000000000000e+00,-4.000000000000000000e+00
0.000000000000000000e+00,1.009330390000000577e+00,2.000000000000000000e+00,-4.000000000000000000e+00
0.000000000000000000e+00,1.889330390000001136e+00,2.000000000000000000e+00,-4.000000000000000000e+00
1.000000000000000000e+00,6.293303900000001283e-01,2.000000000000000000e+00,-4.000000000000000000e+00
0.000000000000000000e+00,7.893303900000002704e-01,2.000000000000000000e+00,-4.000000000000000000e+00
0.000000000000000000e+00,2.909330390000002264e+00,2.000000000000000000e+00,-4.000000000000000000e+00
1.000000000000000000e+00,3.629330390000002904e+00,2.000000000000000000e+00,-4.000000000000000000e+00
1.000000000000000000e+00,1.909330390000001154e+00,2.000000000000000000e+00,-4.000000000000000000e+00
0.000000000000000000e+00,1.549330390000000834e+00,2.000000000000000000e+00,-4.000000000000000000e+00
0.000000000000000000e+00,1.669330390000000941e+00,2.000000000000000000e+00,-4.000000000000000000e+00
0.000000000000000000e+00,1.429330390000000728e+00,2.000000000000000000e+00,-4.000000000000000000e+00
0.000000000000000000e+00,4.749330389999988355e+00,2.000000000000000000e+00,-4.000000000000000000e+00
0.000000000000000000e+00,4.649330389999990487e+00,2.000000000000000000e+00,-4.000000000000000000e+00
0.000000000000000000e+00,1.729330390000000994e+00,2.000000000000000000e+00,-4.000000000000000000e+00
0.000000000000000000e+00,7.693303900000002526e-01,2.000000000000000000e+00,-4.000000000000000000e+00
0.000000000000000000e+00,1.089330390000000426e+00,2.000000000000000000e+00,-4.000000000000000000e+00
0.000000000000000000e+00,7.093303900000001994e-01,2.000000000000000000e+00,-4.000000000000000000e+00
0.000000000000000000e+00,9.093303900000003770e-01,2.000000000000000000e+00,-4.000000000000000000e+00
0.000000000000000000e+00,1.049330390000000612e+00,2.000000000000000000e+00,-4.000000000000000000e+00
0.000000000000000000e+00,3.329330390000002637e+00,2.000000000000000000e+00,-4.000000000000000000e+00
0.000000000000000000e+00,1.729330390000000994e+00,2.000000000000000000e+00,-4.000000000000000000e+00
0.000000000000000000e+00,2.029330390000001483e+00,2.000000000000000000e+00,-4.000000000000000000e+00
0.000000000000000000e+00,1.249330390000000568e+00,2.000000000000000000e+00,-4.000000000000000000e+00
0.000000000000000000e+00,9.693303900000004303e-01,2.000000000000000000e+00,-4.000000000000000000e+00
0.000000000000000000e+00,8.893303900000003592e-01,2.000000000000000000e+00,-4.000000000000000000e+00
0.000000000000000000e+00,2.969330390000002318e+00,2.000000000000000000e+00,-4.000000000000000000e+00
0.000000000000000000e+00,5.093303900000001327e-01,2.000000000000000000e+00,-4.000000000000000000e+00
0.000000000000000000e+00,5.729330389999967466e+00,2.000000000000000000e+00,-4.000000000000000000e+00
1.000000000000000000e+00,8.893303900000003592e-01,2.000000000000000000e+00,-4.000000000000000000e+00
0.000000000000000000e+00,2.769330390000002140e+00,2.000000000000000000e+00,-4.000000000000000000e+00
0.000000000000000000e+00,1.489330390000000781e+00,2.000000000000000000e+00,-4.000000000000000000e+00
0.000000000000000000e+00,9.293303900000003948e-01,2.000000000000000000e+00,-4.000000000000000000e+00
0.000000000000000000e+00,8.093303900000002882e-01,2.000000000000000000e+00,-4.000000000000000000e+00
0.000000000000000000e+00,1.449330390000000746e+00,2.000000000000000000e+00,-4.000000000000000000e+00
0.000000000000000000e+00,8.693303900000003415e-01,2.000000000000000000e+00,-4.000000000000000000e+00
0.000000000000000000e+00,9.293303900000003948e-01,2.000000000000000000e+00,-4.000000000000000000e+00
0.000000000000000000e+00,6.493303900000001461e-01,2.000000000000000000e+00,-4.000000000000000000e+00
0.000000000000000000e+00,9.693303900000004303e-01,2.000000000000000000e+00,-4.000000000000000000e+00
1.000000000000000000e+00,3.549330390000002833e+00,2.000000000000000000e+00,-4.000000000000000000e+00
0.000000000000000000e+00,4.693303900000000972e-01,2.000000000000000000e+00,-4.000000000000000000e+00
0.000000000000000000e+00,2.329330390000001749e+00,2.000000000000000000e+00,-4.000000000000000000e+00
0.000000000000000000e+00,1.589330390000000870e+00,2.000000000000000000e+00,-4.000000000000000000e+00
0.000000000000000000e+00,5.893303900000000928e-01,2.000000000000000000e+00,-4.000000000000000000e+00
0.000000000000000000e+00,7.693303900000002526e-01,2.000000000000000000e+00,-4.000000000000000000e+00
0.000000000000000000e+00,1.569330390000000852e+00,2.000000000000000000e+00,-4.000000000000000000e+00
1.000000000000000000e+00,1.749330390000001012e+00,2.000000000000000000e+00,-4.000000000000000000e+00
0.000000000000000000e+00,8.893303900000003592e-01,2.000000000000000000e+00,-4.000000000000000000e+00
0.000000000000000000e+00,8.293303900000003059e-01,2.000000000000000000e+00,-4.000000000000000000e+00
1.000000000000000000e+00,1.809330390000001065e+00,2.000000000000000000e+00,-4.000000000000000000e+00
1.000000000000000000e+00,2.669330390000002051e+00,2.000000000000000000e+00,-4.000000000000000000e+00
0.000000000000000000e+00,2.209330390000001643e+00,2.000000000000000000e+00,-4.000000000000000000e+00
0.000000000000000000e+00,7.893303900000002704e-01,2.000000000000000000e+00,-4.000000000000000000e+00
0.000000000000000000e+00,6.893303900000001816e-01,2.000000000000000000e+00,-4.000000000000000000e+00
0.000000000000000000e+00,1.049330390000000612e+00,2.000000000000000000e+00,-4.000000000000000000e+00
0.000000000000000000e+00,1.009330390000000577e+00,2.000000000000000000e+00,-4.000000000000000000e+00
0.000000000000000000e+00,1.329330390000000639e+00,2.000000000000000000e+00,-4.000000000000000000e+00
0.000000000000000000e+00,4.093303900000000439e-01,2.000000000000000000e+00,-4.000000000000000000e+00
0.000000000000000000e+00,8.293303900000003059e-01,2.000000000000000000e+00,-4.000000000000000000e+00
0.000000000000000000e+00,8.093303900000002882e-01,2.000000000000000000e+00,-4.000000000000000000e+00
0.000000000000000000e+00,1.289330390000000603e+00,2.000000000000000000e+00,-4.000000000000000000e+00
0.000000000000000000e+00,1.569330390000000852e+00,2.000000000000000000e+00,-4.000000000000000000e+00
0.000000000000000000e+00,6.093303900000001105e-01,2.000000000000000000e+00,-4.000000000000000000e+00
0.000000000000000000e+00,7.493303900000002349e-01,2.000000000000000000e+00,-4.000000000000000000e+00
0.000000000000000000e+00,4.389330389999996029e+00,2.000000000000000000e+00,-4.000000000000000000e+00
0.000000000000000000e+00,2.669330390000002051e+00,2.000000000000000000e+00,-4.000000000000000000e+00
0.000000000000000000e+00,5.293303900000001505e-01,2.000000000000000000e+00,-4.000000000000000000e+00
0.000000000000000000e+00,1.449330390000000746e+00,2.000000000000000000e+00,-4.000000000000000000e+00
1.000000000000000000e+00,1.629330390000000905e+00,2.000000000000000000e+00,-4.000000000000000000e+00
0.000000000000000000e+00,4.869330389999985798e+00,2.000000000000000000e+00,-4.000000000000000000e+00
0.000000000000000000e+00,9.093303900000003770e-01,2.000000000000000000e+00,-4.000000000000000000e+00
0.000000000000000000e+00,2.969330390000002318e+00,2.000000000000000000e+00,-4.000000000000000000e+00
0.000000000000000000e+00,2.949330390000002300e+00,2.000000000000000000e+00,-4.000000000000000000e+00
0.000000000000000000e+00,3.089330390000002424e+00,2.000000000000000000e+00,-4.000000000000000000e+00
0.000000000000000000e+00,1.409330390000000710e+00,2.000000000000000000e+00,-4.000000000000000000e+00
0.000000000000000000e+00,2.309330390000001731e+00,2.000000000000000000e+00,-4.000000000000000000e+00
0.000000000000000000e+00,2.189330390000001625e+00,2.000000000000000000e+00,-4.000000000000000000e+00
0.000000000000000000e+00,4.589330389999991766e+00,2.000000000000000000e+00,-4.000000000000000000e+00
0.000000000000000000e+00,9.293303900000003948e-01,2.000000000000000000e+00,-4.000000000000000000e+00
0.000000000000000000e+00,2.489330390000001891e+00,2.000000000000000000e+00,-4.000000000000000000e+00
0.000000000000000000e+00,3.849330390000003099e+00,2.000000000000000000e+00,-4.000000000000000000e+00
1.000000000000000000e+00,2.109330390000001554e+00,2.000000000000000000e+00,-4.000000000000000000e+00
0.000000000000000000e+00,6.493303900000001461e-01,2.000000000000000000e+00,-4.000000000000000000e+00
0.000000000000000000e+00,1.749330390000001012e+00,2.000000000000000000e+00,-4.000000000000000000e+00
0.000000000000000000e+00,1.549330390000000834e+00,2.000000000000000000e+00,-4.000000000000000000e+00
0.000000000000000000e+00,1.089330390000000426e+00,2.000000000000000000e+00,-4.000000000000000000e+00
0.000000000000000000e+00,5.493303900000001683e-01,2.000000000000000000e+00,-4.000000000000000000e+00
0.000000000000000000e+00,1.269330390000000586e+00,2.000000000000000000e+00,-4.000000000000000000e+00
0.000000000000000000e+00,6.293303900000001283e-01,2.000000000000000000e+00,-4.000000000000000000e+00
1.000000000000000000e+00,8.693303900000003415e-01,2.000000000000000000e+00,-4.000000000000000000e+00
0.000000000000000000e+00,9.093303900000003770e-01,2.000000000000000000e+00,-4.000000000000000000e+00
0.000000000000000000e+00,6.093303900000001105e-01,2.000000000000000000e+00,-3.500000000000000000e+00
0.000000000000000000e+00,8.493303900000003237e-01,2.000000000000000000e+00,-3.500000000000000000e+00
1.000000000000000000e+00,2.689330390000002069e+00,2.000000000000000000e+00,-3.500000000000000000e+00
0.000000000000000000e+00,4.893303900000001150e-01,2.000000000000000000e+00,-3.500000000000000000e+00
0.000000000000000000e+00,1.209330390000000532e+00,2.000000000000000000e+00,-3.500000000000000000e+00
1.000000000000000000e+00,2.329330390000001749e+00,2.000000000000000000e+00,-3.500000000000000000e+00
1.000000000000000000e+00,2.069330390000001518e+00,2.000000000000000000e+00,-3.500000000000000000e+00
1.000000000000000000e+00,3.229330390000002549e+00,2.000000000000000000e+00,-3.500000000000000000e+00
0.000000000000000000e+00,1.729330390000000994e+00,2.000000000000000000e+00,-3.500000000000000000e+00
0.000000000000000000e+00,3.889330390000003135e+00,2.000000000000000000e+00,-3.500000000000000000e+00
1.000000000000000000e+00,2.249330390000001678e+00,2.000000000000000000e+00,-3.500000000000000000e+00
0.000000000000000000e+00,1.249330390000000568e+00,2.000000000000000000e+00,-3.500000000000000000e+00
0.000000000000000000e+00,5.893303900000000928e-01,2.000000000000000000e+00,-3.500000000000000000e+00
0.000000000000000000e+00,9.093303900000003770e-01,2.000000000000000000e+00,-3.500000000000000000e+00
1.000000000000000000e+00,1.989330390000001225e+00,2.000000000000000000e+00,-3.500000000000000000e+00
1.000000000000000000e+00,5.089330389999981108e+00,2.000000000000000000e+00,-3.500000000000000000e+00
1.000000000000000000e+00,6.629330389999948281e+00,2.000000000000000000e+00,-3.500000000000000000e+00
0.000000000000000000e+00,1.369330390000000675e+00,2.000000000000000000e+00,-3.500000000000000000e+00
0.000000000000000000e+00,9.893303900000004480e-01,2.000000000000000000e+00,-3.500000000000000000e+00
1.000000000000000000e+00,1.109330390000000444e+00,2.000000000000000000e+00,-3.500000000000000000e+00
0.000000000000000000e+00,8.093303900000002882e-01,2.000000000000000000e+00,-3.500000000000000000e+00
0.000000000000000000e+00,1.129330390000000461e+00,2.000000000000000000e+00,-3.500000000000000000e+00
1.000000000000000000e+00,1.409330390000000710e+00,2.000000000000000000e+00,-3.500000000000000000e+00
1.000000000000000000e+00,1.709330390000000977e+00,2.000000000000000000e+00,-3.500000000000000000e+00
0.000000000000000000e+00,8.693303900000003415e-01,2.000000000000000000e+00,-3.500000000000000000e+00
0.000000000000000000e+00,1.249330390000000568e+00,2.000000000000000000e+00,-3.500000000000000000e+00
0.000000000000000000e+00,8.893303900000003592e-01,2.000000000000000000e+00,-3.500000000000000000e+00
0.000000000000000000e+00,4.449330389999994750e+00,2.000000000000000000e+00,-3.500000000000000000e+00
0.000000000000000000e+00,9.893303900000004480e-01,2.000000000000000000e+00,-3.500000000000000000e+00
0.000000000000000000e+00,1.389330390000000692e+00,2.000000000000000000e+00,-3.500000000000000000e+00
0.000000000000000000e+00,3.769330390000003028e+00,2.000000000000000000e+00,-3.500000000000000000e+00
0.000000000000000000e+00,9.493303900000004125e-01,2.000000000000000000e+00,-3.500000000000000000e+00
0.000000000000000000e+00,1.429330390000000728e+00,2.000000000000000000e+00,-3.500000000000000000e+00
1.000000000000000000e+00,1.029330390000000595e+00,2.000000000000000000e+00,-3.500000000000000000e+00
0.000000000000000000e+00,8.293303900000003059e-01,2.000000000000000000e+00,-3.500000000000000000e+00
0.000000000000000000e+00,2.669330390000002051e+00,2.000000000000000000e+00,-3.500000000000000000e+00
1.000000000000000000e+00,8.493303900000003237e-01,2.000000000000000000e+00,-3.500000000000000000e+00
0.000000000000000000e+00,9.493303900000004125e-01,2.000000000000000000e+00,-3.500000000000000000e+00
0.000000000000000000e+00,1.109330390000000444e+00,2.000000000000000000e+00,-3.500000000000000000e+00
0.000000000000000000e+00,7.693303900000002526e-01,2.000000000000000000e+00,-3.500000000000000000e+00
1.000000000000000000e+00,4.109330390000001998e+00,2.000000000000000000e+00,-3.500000000000000000e+00
1.000000000000000000e+00,2.169330390000001607e+00,2.000000000000000000e+00,-3.500000000000000000e+00
0.000000000000000000e+00,7.093303900000001994e-01,2.000000000000000000e+00,-3.500000000000000000e+00
0.000000000000000000e+00,1.429330390000000728e+00,2.000000000000000000e+00,-3.500000000000000000e+00
0.000000000000000000e+00,3.409330390000002708e+00,2.000000000000000000e+00,-3.500000000000000000e+00
1.000000000000000000e+00,1.109330390000000444e+00,2.000000000000000000e+00,-3.500000000000000000e+00
0.000000000000000000e+00,1.289330390000000603e+00,2.000000000000000000e+00,-3.500000000000000000e+00
0.000000000000000000e+00,6.893303900000001816e-01,2.000000000000000000e+00,-3.500000000000000000e+00
0.000000000000000000e+00,7.293303900000002171e-01,2.000000000000000000e+00,-3.500000000000000000e+00
0.000000000000000000e+00,7.893303900000002704e-01,2.000000000000000000e+00,-3.500000000000000000e+00
0.000000000000000000e+00,3.149330390000002478e+00,2.000000000000000000e+00,-3.500000000000000000e+00
0.000000000000000000e+00,9.493303900000004125e-01,2.000000000000000000e+00,-3.500000000000000000e+00
0.000000000000000000e+00,7.493303900000002349e-01,2.000000000000000000e+00,-3.500000000000000000e+00
0.000000000000000000e+00,9.093303900000003770e-01,2.000000000000000000e+00,-3.500000000000000000e+00
0.000000000000000000e+00,1.269330390000000586e+00,2.000000000000000000e+00,-3.500000000000000000e+00
1.000000000000000000e+00,1.889330390000001136e+00,2.000000000000000000e+00,-3.500000000000000000e+00
0.000000000000000000e+00,1.129330390000000461e+00,2.000000000000000000e+00,-3.500000000000000000e+00
1.000000000000000000e+00,2.749330390000002122e+00,2.000000000000000000e+00,-3.500000000000000000e+00
0.000000000000000000e+00,2.669330390000002051e+00,2.000000000000000000e+00,-3.500000000000000000e+00
0.000000000000000000e+00,1.649330390000000923e+00,2.000000000000000000e+00,-3.500000000000000000e+00
1.000000000000000000e+00,1.109330390000000444e+00,2.000000000000000000e+00,-3.500000000000000000e+00
0.000000000000000000e+00,8.893303900000003592e-01,2.000000000000000000e+00,-3.500000000000000000e+00
0.000000000000000000e+00,2.649330390000002033e+00,2.000000000000000000e+00,-3.500000000000000000e+00
0.000000000000000000e+00,8.089330389999917159e+00,2.000000000000000000e+00,-3.500000000000000000e+00
0.000000000000000000e+00,1.509330390000000799e+00,2.000000000000000000e+00,-3.500000000000000000e+00
0.000000000000000000e+00,1.829330390000001083e+00,2.000000000000000000e+00,-3.500000000000000000e+00
0.000000000000000000e+00,5.493303900000001683e-01,2.000000000000000000e+00,-3.500000000000000000e+00
0.000000000000000000e+00,7.293303900000002171e-01,2.000000000000000000e+00,-3.500000000000000000e+00
0.000000000000000000e+00,1.649330390000000923e+00,2.000000000000000000e+00,-3.500000000000000000e+00
0.000000000000000000e+00,5.893303900000000928e-01,2.000000000000000000e+00,-3.500000000000000000e+00
0.000000000000000000e+00,7.693303900000002526e-01,2.000000000000000000e+00,-3.500000000000000000e+00
0.000000000000000000e+00,7.693303900000002526e-01,2.000000000000000000e+00,-3.500000000000000000e+00
0.000000000000000000e+00,9.293303900000003948e-01,2.000000000000000000e+00,-3.500000000000000000e+00
0.000000000000000000e+00,1.209330390000000532e+00,2.000000000000000000e+00,-3.500000000000000000e+00
0.000000000000000000e+00,1.969330390000001207e+00,2.000000000000000000e+00,-3.500000000000000000e+00
0.000000000000000000e+00,8.293303900000003059e-01,2.000000000000000000e+00,-3.500000000000000000e+00
0.000000000000000000e+00,1.609330390000000888e+00,2.000000000000000000e+00,-3.500000000000000000e+00
0.000000000000000000e+00,8.093303900000002882e-01,2.000000000000000000e+00,-3.500000000000000000e+00
0.000000000000000000e+00,2.869330390000002229e+00,2.000000000000000000e+00,-3.500000000000000000e+00
0.000000000000000000e+00,1.349330390000000657e+00,2.000000000000000000e+00,-3.500000000000000000e+00
1.000000000000000000e+00,3.389330390000002691e+00,2.000000000000000000e+00,-3.500000000000000000e+00
0.000000000000000000e+00,1.169330390000000497e+00,2.000000000000000000e+00,-3.500000000000000000e+00
0.000000000000000000e+00,7.093303900000001994e-01,2.000000000000000000e+00,-3.500000000000000000e+00
0.000000000000000000e+00,2.029330390000001483e+00,2.000000000000000000e+00,-3.500000000000000000e+00
0.000000000000000000e+00,6.493303900000001461e-01,2.000000000000000000e+00,-3.500000000000000000e+00
1.000000000000000000e+00,1.489330390000000781e+00,2.000000000000000000e+00,-3.500000000000000000e+00
0.000000000000000000e+00,9.293303900000003948e-01,2.000000000000000000e+00,-3.500000000000000000e+00
0.000000000000000000e+00,1.029330390000000595e+00,2.000000000000000000e+00,-3.500000000000000000e+00
1.000000000000000000e+00,5.909330389999963629e+00,2.000000000000000000e+00,-3.500000000000000000e+00
0.000000000000000000e+00,1.389330390000000692e+00,2.000000000000000000e+00,-3.500000000000000000e+00
1.000000000000000000e+00,2.609330390000001998e+00,2.000000000000000000e+00,-3.500000000000000000e+00
0.000000000000000000e+00,2.149330390000001589e+00,2.000000000000000000e+00,-3.500000000000000000e+00
0.000000000000000000e+00,1.009330390000000577e+00,2.000000000000000000e+00,-3.500000000000000000e+00
0.000000000000000000e+00,2.429330390000001838e+00,2.000000000000000000e+00,-3.500000000000000000e+00
1.000000000000000000e+00,1.189330390000000515e+00,2.000000000000000000e+00,-3.500000000000000000e+00
0.000000000000000000e+00,1.889330390000001136e+00,2.000000000000000000e+00,-3.500000000000000000e+00
0.000000000000000000e+00,1.149330390000000479e+00,2.000000000000000000e+00,-3.500000000000000000e+00
0.000000000000000000e+00,1.449330390000000746e+00,2.000000000000000000e+00,-3.500000000000000000e+00
0.000000000000000000e+00,5.493303900000001683e-01,2.000000000000000000e+00,-3.500000000000000000e+00
0.000000000000000000e+00,1.989330390000001225e+00,2.000000000000000000e+00,-3.500000000000000000e+00
0.000000000000000000e+00,3.869330390000003117e+00,2.000000000000000000e+00,-3.500000000000000000e+00
0.000000000000000000e+00,2.489330390000001891e+00,2.000000000000000000e+00,-3.500000000000000000e+00
0.000000000000000000e+00,3.849330390000003099e+00,2.000000000000000000e+00,-3.500000000000000000e+00
1.000000000000000000e+00,1.549330390000000834e+00,2.000000000000000000e+00,-3.500000000000000000e+00
0.000000000000000000e+00,9.293303900000003948e-01,2.000000000000000000e+00,-3.500000000000000000e+00
1.000000000000000000e+00,2.469330390000001874e+00,2.000000000000000000e+00,-3.500000000000000000e+00
0.000000000000000000e+00,9.893303900000004480e-01,2.000000000000000000e+00,-3.500000000000000000e+00
1.000000000000000000e+00,7.093303900000001994e-01,2.000000000000000000e+00,-3.500000000000000000e+00
0.000000000000000000e+00,2.409330390000001820e+00,2.000000000000000000e+00,-3.500000000000000000e+00
1.000000000000000000e+00,2.869330390000002229e+00,2.000000000000000000e+00,-3.500000000000000000e+00
0.000000000000000000e+00,1.969330390000001207e+00,2.000000000000000000e+00,-3.500000000000000000e+00
0.000000000000000000e+00,1.909330390000001154e+00,2.000000000000000000e+00,-3.500000000000000000e+00
1.000000000000000000e+00,1.869330390000001119e+00,2.000000000000000000e+00,-3.500000000000000000e+00
0.000000000000000000e+00,2.389330390000001803e+00,2.000000000000000000e+00,-3.500000000000000000e+00
0.000000000000000000e+00,1.609330390000000888e+00,2.000000000000000000e+00,-3.500000000000000000e+00
0.000000000000000000e+00,6.693303900000001638e-01,2.000000000000000000e+00,-3.500000000000000000e+00
0.000000000000000000e+00,9.693303900000004303e-01,2.000000000000000000e+00,-3.500000000000000000e+00
1.000000000000000000e+00,1.709330390000000977e+00,2.000000000000000000e+00,-3.500000000000000000e+00
0.000000000000000000e+00,5.493303900000001683e-01,2.000000000000000000e+00,-3.500000000000000000e+00
0.000000000000000000e+00,7.493303900000002349e-01,2.000000000000000000e+00,-3.500000000000000000e+00
0.000000000000000000e+00,4.009330390000003241e+00,2.000000000000000000e+00,-3.500000000000000000e+00
0.000000000000000000e+00,1.169330390000000497e+00,2.000000000000000000e+00,-3.500000000000000000e+00
0.000000000000000000e+00,1.669330390000000941e+00,2.000000000000000000e+00,-3.500000000000000000e+00
0.000000000000000000e+00,6.493303900000001461e-01,2.000000000000000000e+00,-3.500000000000000000e+00
1.000000000000000000e+00,1.089330390000000426e+00,2.000000000000000000e+00,-3.500000000000000000e+00
0.000000000000000000e+00,1.489330390000000781e+00,2.000000000000000000e+00,-3.500000000000000000e+00
0.000000000000000000e+00,1.929330390000001172e+00,2.000000000000000000e+00,-3.500000000000000000e+00
0.000000000000000000e+00,2.289330390000001714e+00,2.000000000000000000e+00,-3.500000000000000000e+00
0.000000000000000000e+00,1.049330390000000612e+00,2.000000000000000000e+00,-3.500000000000000000e+00
0.000000000000000000e+00,1.129330390000000461e+00,2.000000000000000000e+00,-3.500000000000000000e+00
0.000000000000000000e+00,3.269330390000002584e+00,2.000000000000000000e+00,-3.500000000000000000e+00
1.000000000000000000e+00,1.049330390000000612e+00,2.000000000000000000e+00,-3.500000000000000000e+00
1.000000000000000000e+00,3.169330390000002495e+00,2.000000000000000000e+00,-3.500000000000000000e+00
0.000000000000000000e+00,1.729330390000000994e+00,2.000000000000000000e+00,-3.500000000000000000e+00
0.000000000000000000e+00,2.149330390000001589e+00,2.000000000000000000e+00,-3.500000000000000000e+00
0.000000000000000000e+00,2.569330390000001962e+00,2.000000000000000000e+00,-3.500000000000000000e+00
0.000000000000000000e+00,2.629330390000002016e+00,2.000000000000000000e+00,-3.500000000000000000e+00
0.000000000000000000e+00,4.693303900000000972e-01,2.000000000000000000e+00,-3.500000000000000000e+00
0.000000000000000000e+00,4.229330389999999440e+00,2.000000000000000000e+00,-3.500000000000000000e+00
0.000000000000000000e+00,2.909330390000002264e+00,2.000000000000000000e+00,-3.500000000000000000e+00
0.000000000000000000e+00,2.869330390000002229e+00,2.000000000000000000e+00,-3.500000000000000000e+00
1.000000000000000000e+00,1.689330390000000959e+00,2.000000000000000000e+00,-3.500000000000000000e+00
0.000000000000000000e+00,1.889330390000001136e+00,2.000000000000000000e+00,-3.500000000000000000e+00
1.000000000000000000e+00,1.289330390000000603e+00,2.000000000000000000e+00,-3.500000000000000000e+00
0.000000000000000000e+00,8.493303900000003237e-01,2.000000000000000000e+00,-3.500000000000000000e+00
1.000000000000000000e+00,1.829330390000001083e+00,2.000000000000000000e+00,-3.500000000000000000e+00
0.000000000000000000e+00,1.669330390000000941e+00,2.000000000000000000e+00,-3.500000000000000000e+00
1.000000000000000000e+00,1.189330390000000515e+00,2.000000000000000000e+00,-3.500000000000000000e+00
0.000000000000000000e+00,1.349330390000000657e+00,2.000000000000000000e+00,-3.500000000000000000e+00
1.000000000000000000e+00,2.089330390000001536e+00,2.000000000000000000e+00,-3.500000000000000000e+00
0.000000000000000000e+00,8.693303900000003415e-01,2.000000000000000000e+00,-3.500000000000000000e+00
1.000000000000000000e+00,1.069330390000000408e+00,2.000000000000000000e+00,-3.500000000000000000e+00
0.000000000000000000e+00,1.369330390000000675e+00,2.000000000000000000e+00,-3.500000000000000000e+00
1.000000000000000000e+00,9.293303900000003948e-01,2.000000000000000000e+00,-3.500000000000000000e+00
0.000000000000000000e+00,7.149330389999937196e+00,2.000000000000000000e+00,-3.500000000000000000e+00
0.000000000000000000e+00,4.093303900000000439e-01,2.000000000000000000e+00,-3.500000000000000000e+00
0.000000000000000000e+00,2.369330390000001785e+00,2.000000000000000000e+00,-3.500000000000000000e+00
1.000000000000000000e+00,2.029330390000001483e+00,2.000000000000000000e+00,-3.500000000000000000e+00
1.000000000000000000e+00,1.869330390000001119e+00,2.000000000000000000e+00,-3.500000000000000000e+00
1.000000000000000000e+00,3.009330390000002353e+00,2.000000000000000000e+00,-3.500000000000000000e+00
0.000000000000000000e+00,4.293303900000000617e-01,2.000000000000000000e+00,-3.500000000000000000e+00
1.000000000000000000e+00,1.989330390000001225e+00,2.000000000000000000e+00,-3.500000000000000000e+00
0.000000000000000000e+00,1.569330390000000852e+00,2.000000000000000000e+00,-3.500000000000000000e+00
0.000000000000000000e+00,1.409330390000000710e+00,2.000000000000000000e+00,-3.500000000000000000e+00
0.000000000000000000e+00,3.189330390000002513e+00,2.000000000000000000e+00,-3.500000000000000000e+00
0.000000000000000000e+00,1.969330390000001207e+00,2.000000000000000000e+00,-3.500000000000000000e+00
1.000000000000000000e+00,6.649330389999947855e+00,2.000000000000000000e+00,-3.500000000000000000e+00
0.000000000000000000e+00,1.089330390000000426e+00,2.000000000000000000e+00,-3.500000000000000000e+00
1.000000000000000000e+00,1.189330390000000515e+00,2.000000000000000000e+00,-3.500000000000000000e+00
0.000000000000000000e+00,1.409330390000000710e+00,2.000000000000000000e+00,-3.500000000000000000e+00
0.000000000000000000e+00,2.489330390000001891e+00,2.000000000000000000e+00,-3.500000000000000000e+00
0.000000000000000000e+00,8.493303900000003237e-01,2.000000000000000000e+00,-3.500000000000000000e+00
0.000000000000000000e+00,2.669330390000002051e+00,2.000000000000000000e+00,-3.500000000000000000e+00
1.000000000000000000e+00,1.629330390000000905e+00,2.000000000000000000e+00,-3.500000000000000000e+00
0.000000000000000000e+00,1.489330390000000781e+00,2.000000000000000000e+00,-3.500000000000000000e+00
1.000000000000000000e+00,1.749330390000001012e+00,2.000000000000000000e+00,-3.500000000000000000e+00
0.000000000000000000e+00,2.209330390000001643e+00,2.000000000000000000e+00,-3.500000000000000000e+00
0.000000000000000000e+00,2.209330390000001643e+00,2.000000000000000000e+00,-3.500000000000000000e+00
0.000000000000000000e+00,2.989330390000002335e+00,2.000000000000000000e+00,-3.500000000000000000e+00
0.000000000000000000e+00,2.409330390000001820e+00,2.000000000000000000e+00,-3.500000000000000000e+00
1.000000000000000000e+00,3.969330390000003206e+00,2.000000000000000000e+00,-3.500000000000000000e+00
0.000000000000000000e+00,1.509330390000000799e+00,2.000000000000000000e+00,-3.500000000000000000e+00
0.000000000000000000e+00,7.893303900000002704e-01,2.000000000000000000e+00,-3.500000000000000000e+00
0.000000000000000000e+00,1.049330390000000612e+00,2.000000000000000000e+00,-3.500000000000000000e+00
0.000000000000000000e+00,8.893303900000003592e-01,2.000000000000000000e+00,-3.500000000000000000e+00
0.000000000000000000e+00,7.493303900000002349e-01,2.000000000000000000e+00,-3.500000000000000000e+00
1.000000000000000000e+00,1.289330390000000603e+00,2.000000000000000000e+00,-3.500000000000000000e+00
0.000000000000000000e+00,9.693303900000004303e-01,2.000000000000000000e+00,-3.500000000000000000e+00
1.000000000000000000e+00,1.249330390000000568e+00,2.000000000000000000e+00,-3.500000000000000000e+00
0.000000000000000000e+00,3.089330390000002424e+00,2.000000000000000000e+00,-3.500000000000000000e+00
0.000000000000000000e+00,6.693303900000001638e-01,2.000000000000000000e+00,-3.500000000000000000e+00
0.000000000000000000e+00,3.029330390000002371e+00,2.000000000000000000e+00,-3.500000000000000000e+00
0.000000000000000000e+00,8.093303900000002882e-01,2.000000000000000000e+00,-3.500000000000000000e+00
1.000000000000000000e+00,3.289330390000002602e+00,2.000000000000000000e+00,-3.500000000000000000e+00
0.000000000000000000e+00,1.569330390000000852e+00,2.000000000000000000e+00,-3.500000000000000000e+00
0.000000000000000000e+00,1.589330390000000870e+00,2.000000000000000000e+00,-3.500000000000000000e+00
0.000000000000000000e+00,4.569330389999992192e+00,2.000000000000000000e+00,-3.500000000000000000e+00
0.000000000000000000e+00,1.829330390000001083e+00,2.000000000000000000e+00,-3.500000000000000000e+00
0.000000000000000000e+00,6.893303900000001816e-01,2.000000000000000000e+00,-3.500000000000000000e+00
0.000000000000000000e+00,7.293303900000002171e-01,2.000000000000000000e+00,-3.500000000000000000e+00
0.000000000000000000e+00,6.493303900000001461e-01,2.000000000000000000e+00,-3.000000000000000000e+00
0.000000000000000000e+00,1.629330390000000905e+00,2.000000000000000000e+00,-3.000000000000000000e+00
0.000000000000000000e+00,9.493303900000004125e-01,2.000000000000000000e+00,-3.000000000000000000e+00
0.000000000000000000e+00,9.893303900000004480e-01,2.000000000000000000e+00,-3.000000000000000000e+00
0.000000000000000000e+00,2.409330390000001820e+00,2.000000000000000000e+00,-3.000000000000000000e+00
0.000000000000000000e+00,3.409330390000002708e+00,2.000000000000000000e+00,-3.000000000000000000e+00
0.000000000000000000e+00,1.569330390000000852e+00,2.000000000000000000e+00,-3.000000000000000000e+00
0.000000000000000000e+00,1.049330390000000612e+00,2.000000000000000000e+00,-3.000000000000000000e+00
1.000000000000000000e+00,5.389330389999974713e+00,2.000000000000000000e+00,-3.000000000000000000e+00
0.000000000000000000e+00,1.569330390000000852e+00,2.000000000000000000e+00,-3.000000000000000000e+00
0.000000000000000000e+00,4.493303900000000795e-01,2.000000000000000000e+00,-3.000000000000000000e+00
0.000000000000000000e+00,1.529330390000000817e+00,2.000000000000000000e+00,-3.000000000000000000e+00
0.000000000000000000e+00,9.693303900000004303e-01,2.000000000000000000e+00,-3.000000000000000000e+00
0.000000000000000000e+00,1.389330390000000692e+00,2.000000000000000000e+00,-3.000000000000000000e+00
0.000000000000000000e+00,4.093303900000000439e-01,2.000000000000000000e+00,-3.000000000000000000e+00
0.000000000000000000e+00,1.649330390000000923e+00,2.000000000000000000e+00,-3.000000000000000000e+00
0.000000000000000000e+00,1.389330390000000692e+00,2.000000000000000000e+00,-3.000000000000000000e+00
0.000000000000000000e+00,7.893303900000002704e-01,2.000000000000000000e+00,-3.000000000000000000e+00
0.000000000000000000e+00,1.829330390000001083e+00,2.000000000000000000e+00,-3.000000000000000000e+00
0.000000000000000000e+00,1.569330390000000852e+00,2.000000000000000000e+00,-3.000000000000000000e+00
0.000000000000000000e+00,7.493303900000002349e-01,2.000000000000000000e+00,-3.000000000000000000e+00
1.000000000000000000e+00,2.149330390000001589e+00,2.000000000000000000e+00,-3.000000000000000000e+00
0.000000000000000000e+00,1.729330390000000994e+00,2.000000000000000000e+00,-3.000000000000000000e+00
0.000000000000000000e+00,1.169330390000000497e+00,2.000000000000000000e+00,-3.000000000000000000e+00
0.000000000000000000e+00,2.829330390000002193e+00,2.000000000000000000e+00,-3.000000000000000000e+00
0.000000000000000000e+00,8.529330389999907780e+00,2.000000000000000000e+00,-3.000000000000000000e+00
0.000000000000000000e+00,1.369330390000000675e+00,2.000000000000000000e+00,-3.000000000000000000e+00
0.000000000000000000e+00,2.689330390000002069e+00,2.000000000000000000e+00,-3.000000000000000000e+00
0.000000000000000000e+00,1.189330390000000515e+00,2.000000000000000000e+00,-3.000000000000000000e+00
0.000000000000000000e+00,7.629330389999926965e+00,2.000000000000000000e+00,-3.000000000000000000e+00
0.000000000000000000e+00,2.729330390000002105e+00,2.000000000000000000e+00,-3.000000000000000000e+00
0.000000000000000000e+00,4.109330390000001998e+00,2.000000000000000000e+00,-3.000000000000000000e+00
0.000000000000000000e+00,3.893303900000000262e-01,2.000000000000000000e+00,-3.000000000000000000e+00
1.000000000000000000e+00,2.009330390000001465e+00,2.000000000000000000e+00,-3.000000000000000000e+00
0.000000000000000000e+00,3.229330390000002549e+00,2.000000000000000000e+00,-3.000000000000000000e+00
0.000000000000000000e+00,1.089330390000000426e+00,2.000000000000000000e+00,-3.000000000000000000e+00
0.000000000000000000e+00,1.089330390000000426e+00,2.000000000000000000e+00,-3.000000000000000000e+00
0.000000000000000000e+00,1.489330390000000781e+00,2.000000000000000000e+00,-3.000000000000000000e+00
1.000000000000000000e+00,1.609330390000000888e+00,2.000000000000000000e+00,-3.000000000000000000e+00
0.000000000000000000e+00,1.369330390000000675e+00,2.000000000000000000e+00,-3.000000000000000000e+00
0.000000000000000000e+00,2.009330390000001465e+00,2.000000000000000000e+00,-3.000000000000000000e+00
1.000000000000000000e+00,2.629330390000002016e+00,2.000000000000000000e+00,-3.000000000000000000e+00
0.000000000000000000e+00,8.693303900000003415e-01,2.000000000000000000e+00,-3.000000000000000000e+00
0.000000000000000000e+00,1.109330390000000444e+00,2.000000000000000000e+00,-3.000000000000000000e+00
0.000000000000000000e+00,1.469330390000000763e+00,2.000000000000000000e+00,-3.000000000000000000e+00
0.000000000000000000e+00,1.009330390000000577e+00,2.000000000000000000e+00,-3.000000000000000000e+00
0.000000000000000000e+00,8.093303900000002882e-01,2.000000000000000000e+00,-3.000000000000000000e+00
1.000000000000000000e+00,7.293303900000002171e-01,2.000000000000000000e+00,-3.000000000000000000e+00
1.000000000000000000e+00,2.569330390000001962e+00,2.000000000000000000e+00,-3.000000000000000000e+00
0.000000000000000000e+00,2.229330390000001660e+00,2.000000000000000000e+00,-3.000000000000000000e+00
1.000000000000000000e+00,2.329330390000001749e+00,2.000000000000000000e+00,-3.000000000000000000e+00
1.000000000000000000e+00,1.209330390000000532e+00,2.000000000000000000e+00,-3.000000000000000000e+00
0.000000000000000000e+00,1.329330390000000639e+00,2.000000000000000000e+00,-3.000000000000000000e+00
1.000000000000000000e+00,1.249330390000000568e+00,2.000000000000000000e+00,-3.000000000000000000e+00
1.000000000000000000e+00,1.589330390000000870e+00,2.000000000000000000e+00,-3.000000000000000000e+00
0.000000000000000000e+00,6.493303900000001461e-01,2.000000000000000000e+00,-3.000000000000000000e+00
0.000000000000000000e+00,1.649330390000000923e+00,2.000000000000000000e+00,-3.000000000000000000e+00
0.000000000000000000e+00,9.893303900000004480e-01,2.000000000000000000e+00,-3.000000000000000000e+00
0.000000000000000000e+00,7.693303900000002526e-01,2.000000000000000000e+00,-3.000000000000000000e+00
1.000000000000000000e+00,5.893303900000000928e-01,2.000000000000000000e+00,-3.000000000000000000e+00
0.000000000000000000e+00,9.893303900000004480e-01,2.000000000000000000e+00,-3.000000000000000000e+00
1.000000000000000000e+00,7.493303900000002349e-01,2.000000000000000000e+00,-3.000000000000000000e+00
0.000000000000000000e+00,1.409330390000000710e+00,2.000000000000000000e+00,-3.000000000000000000e+00
0.000000000000000000e+00,1.249330390000000568e+00,2.000000000000000000e+00,-3.000000000000000000e+00
0.000000000000000000e+00,2.449330390000001856e+00,2.000000000000000000e+00,-3.000000000000000000e+00
0.000000000000000000e+00,1.129330390000000461e+00,2.000000000000000000e+00,-3.000000000000000000e+00
0.000000000000000000e+00,8.493303900000003237e-01,2.000000000000000000e+00,-3.000000000000000000e+00
0.000000000000000000e+00,8.493303900000003237e-01,2.000000000000000000e+00,-3.000000000000000000e+00
1.000000000000000000e+00,2.889330390000002247e+00,2.000000000000000000e+00,-3.000000000000000000e+00
1.000000000000000000e+00,1.309330390000000621e+00,2.000000000000000000e+00,-3.000000000000000000e+00
0.000000000000000000e+00,7.809330389999923128e+00,2.000000000000000000e+00,-3.000000000000000000e+00
1.000000000000000000e+00,1.969330390000001207e+00,2.000000000000000000e+00,-3.000000000000000000e+00
0.000000000000000000e+00,1.709330390000000977e+00,2.000000000000000000e+00,-3.000000000000000000e+00
0.000000000000000000e+00,3.849330390000003099e+00,2.000000000000000000e+00,-3.000000000000000000e+00
0.000000000000000000e+00,1.509330390000000799e+00,2.000000000000000000e+00,-3.000000000000000000e+00
0.000000000000000000e+00,8.293303900000003059e-01,2.000000000000000000e+00,-3.000000000000000000e+00
0.000000000000000000e+00,1.929330390000001172e+00,2.000000000000000000e+00,-3.000000000000000000e+00
1.000000000000000000e+00,1.769330390000001030e+00,2.000000000000000000e+00,-3.000000000000000000e+00
0.000000000000000000e+00,5.293303900000001505e-01,2.000000000000000000e+00,-3.000000000000000000e+00
0.000000000000000000e+00,2.209330390000001643e+00,2.000000000000000000e+00,-3.000000000000000000e+00
0.000000000000000000e+00,1.289330390000000603e+00,2.000000000000000000e+00,-3.000000000000000000e+00
1.000000000000000000e+00,7.649330389999926538e+00,2.000000000000000000e+00,-3.000000000000000000e+00
0.000000000000000000e+00,8.093303900000002882e-01,2.000000000000000000e+00,-3.000000000000000000e+00
1.000000000000000000e+00,1.349330390000000657e+00,2.000000000000000000e+00,-3.000000000000000000e+00
1.000000000000000000e+00,2.689330390000002069e+00,2.000000000000000000e+00,-3.000000000000000000e+00
1.000000000000000000e+00,1.049330390000000612e+00,2.000000000000000000e+00,-3.000000000000000000e+00
1.000000000000000000e+00,5.349330389999975566e+00,2.000000000000000000e+00,-3.000000000000000000e+00
0.000000000000000000e+00,1.229330390000000550e+00,2.000000000000000000e+00,-3.000000000000000000e+00
0.000000000000000000e+00,1.829330390000001083e+00,2.000000000000000000e+00,-3.000000000000000000e+00
0.000000000000000000e+00,2.849330390000002211e+00,2.000000000000000000e+00,-3.000000000000000000e+00
0.000000000000000000e+00,8.893303900000003592e-01,2.000000000000000000e+00,-3.000000000000000000e+00
0.000000000000000000e+00,1.289330390000000603e+00,2.000000000000000000e+00,-3.000000000000000000e+00
0.000000000000000000e+00,1.309330390000000621e+00,2.000000000000000000e+00,-3.000000000000000000e+00
0.000000000000000000e+00,2.869330390000002229e+00,2.000000000000000000e+00,-3.000000000000000000e+00
0.000000000000000000e+00,6.493303900000001461e-01,2.000000000000000000e+00,-3.000000000000000000e+00
0.000000000000000000e+00,1.049330390000000612e+00,2.000000000000000000e+00,-3.000000000000000000e+00
0.000000000000000000e+00,2.409330390000001820e+00,2.000000000000000000e+00,-3.000000000000000000e+00
0.000000000000000000e+00,5.293303900000001505e-01,2.000000000000000000e+00,-3.000000000000000000e+00
0.000000000000000000e+00,5.493303900000001683e-01,2.000000000000000000e+00,-3.000000000000000000e+00
1.000000000000000000e+00,1.869330390000001119e+00,2.000000000000000000e+00,-3.000000000000000000e+00
1.000000000000000000e+00,1.729330390000000994e+00,2.000000000000000000e+00,-3.000000000000000000e+00
0.000000000000000000e+00,9.693303900000004303e-01,2.000000000000000000e+00,-3.000000000000000000e+00
0.000000000000000000e+00,2.289330390000001714e+00,2.000000000000000000e+00,-3.000000000000000000e+00
0.000000000000000000e+00,5.893303900000000928e-01,2.000000000000000000e+00,-3.000000000000000000e+00
0.000000000000000000e+00,6.293303900000001283e-01,2.000000000000000000e+00,-3.000000000000000000e+00
1.000000000000000000e+00,2.289330390000001714e+00,2.000000000000000000e+00,-3.000000000000000000e+00
1.000000000000000000e+00,1.649330390000000923e+00,2.000000000000000000e+00,-3.000000000000000000e+00
1.000000000000000000e+00,7.769330389999923980e+00,2.000000000000000000e+00,-3.000000000000000000e+00
1.000000000000000000e+00,2.869330390000002229e+00,2.000000000000000000e+00,-3.000000000000000000e+00
0.000000000000000000e+00,1.809330390000001065e+00,2.000000000000000000e+00,-3.000000000000000000e+00
0.000000000000000000e+00,4.093303900000000439e-01,2.000000000000000000e+00,-3.000000000000000000e+00
1.000000000000000000e+00,2.969330390000002318e+00,2.000000000000000000e+00,-3.000000000000000000e+00
0.000000000000000000e+00,1.389330390000000692e+00,2.000000000000000000e+00,-3.000000000000000000e+00
0.000000000000000000e+00,3.529330390000002815e+00,2.000000000000000000e+00,-3.000000000000000000e+00
0.000000000000000000e+00,8.493303900000003237e-01,2.000000000000000000e+00,-3.000000000000000000e+00
0.000000000000000000e+00,1.269330390000000586e+00,2.000000000000000000e+00,-3.000000000000000000e+00
0.000000000000000000e+00,1.369330390000000675e+00,2.000000000000000000e+00,-3.000000000000000000e+00
1.000000000000000000e+00,1.969330390000001207e+00,2.000000000000000000e+00,-3.000000000000000000e+00
0.000000000000000000e+00,9.093303900000003770e-01,2.000000000000000000e+00,-3.000000000000000000e+00
1.000000000000000000e+00,1.889330390000001136e+00,2.000000000000000000e+00,-3.000000000000000000e+00
1.000000000000000000e+00,8.293303900000003059e-01,2.000000000000000000e+00,-3.000000000000000000e+00
0.000000000000000000e+00,1.069330390000000408e+00,2.000000000000000000e+00,-3.000000000000000000e+00
0.000000000000000000e+00,1.029330390000000595e+00,2.000000000000000000e+00,-3.000000000000000000e+00
0.000000000000000000e+00,5.493303900000001683e-01,2.000000000000000000e+00,-3.000000000000000000e+00
0.000000000000000000e+00,1.209330390000000532e+00,2.000000000000000000e+00,-3.000000000000000000e+00
1.000000000000000000e+00,2.969330390000002318e+00,2.000000000000000000e+00,-3.000000000000000000e+00
1.000000000000000000e+00,4.789330389999987503e+00,2.000000000000000000e+00,-3.000000000000000000e+00
1.000000000000000000e+00,5.049330389999981961e+00,2.000000000000000000e+00,-3.000000000000000000e+00
1.000000000000000000e+00,1.169330390000000497e+00,2.000000000000000000e+00,-3.000000000000000000e+00
1.000000000000000000e+00,2.429330390000001838e+00,2.000000000000000000e+00,-3.000000000000000000e+00
0.000000000000000000e+00,4.293303900000000617e-01,2.000000000000000000e+00,-3.000000000000000000e+00
0.000000000000000000e+00,5.489330389999972581e+00,2.000000000000000000e+00,-3.000000000000000000e+00
0.000000000000000000e+00,1.769330390000001030e+00,2.000000000000000000e+00,-3.000000000000000000e+00
0.000000000000000000e+00,1.609330390000000888e+00,2.000000000000000000e+00,-3.000000000000000000e+00
1.000000000000000000e+00,4.549330389999992619e+00,2.000000000000000000e+00,-3.000000000000000000e+00
0.000000000000000000e+00,6.093303900000001105e-01,2.000000000000000000e+00,-3.000000000000000000e+00
1.000000000000000000e+00,1.109330390000000444e+00,2.000000000000000000e+00,-3.000000000000000000e+00
0.000000000000000000e+00,1.469330390000000763e+00,2.000000000000000000e+00,-3.000000000000000000e+00
0.000000000000000000e+00,1.609330390000000888e+00,2.000000000000000000e+00,-3.000000000000000000e+00
1.000000000000000000e+00,1.589330390000000870e+00,2.000000000000000000e+00,-3.000000000000000000e+00
0.000000000000000000e+00,5.693303900000000750e-01,2.000000000000000000e+00,-3.000000000000000000e+00
0.000000000000000000e+00,2.389330390000001803e+00,2.000000000000000000e+00,-3.000000000000000000e+00
0.000000000000000000e+00,8.693303900000003415e-01,2.000000000000000000e+00,-3.000000000000000000e+00
0.000000000000000000e+00,7.293303900000002171e-01,2.000000000000000000e+00,-3.000000000000000000e+00
0.000000000000000000e+00,8.093303900000002882e-01,2.000000000000000000e+00,-3.000000000000000000e+00
0.000000000000000000e+00,4.893303900000001150e-01,2.000000000000000000e+00,-3.000000000000000000e+00
0.000000000000000000e+00,1.249330390000000568e+00,2.000000000000000000e+00,-3.000000000000000000e+00
1.000000000000000000e+00,7.693303900000002526e-01,2.000000000000000000e+00,-3.000000000000000000e+00
1.000000000000000000e+00,1.509330390000000799e+00,2.000000000000000000e+00,-3.000000000000000000e+00
0.000000000000000000e+00,1.229330390000000550e+00,2.000000000000000000e+00,-3.000000000000000000e+00
0.000000000000000000e+00,1.149330390000000479e+00,2.000000000000000000e+00,-3.000000000000000000e+00
0.000000000000000000e+00,1.009330390000000577e+00,2.000000000000000000e+00,-3.000000000000000000e+00
1.000000000000000000e+00,1.509330390000000799e+00,2.000000000000000000e+00,-3.000000000000000000e+00
0.000000000000000000e+00,1.069330390000000408e+00,2.000000000000000000e+00,-3.000000000000000000e+00
0.000000000000000000e+00,2.909330390000002264e+00,2.000000000000000000e+00,-3.000000000000000000e+00
1.000000000000000000e+00,3.629330390000002904e+00,2.000000000000000000e+00,-3.000000000000000000e+00
1.000000000000000000e+00,2.229330390000001660e+00,2.000000000000000000e+00,-3.000000000000000000e+00
0.000000000000000000e+00,5.493303900000001683e-01,2.000000000000000000e+00,-3.000000000000000000e+00
0.000000000000000000e+00,9.693303900000004303e-01,2.000000000000000000e+00,-3.000000000000000000e+00
0.000000000000000000e+00,3.069330390000002406e+00,2.000000000000000000e+00,-3.000000000000000000e+00
0.000000000000000000e+00,9.893303900000004480e-01,2.000000000000000000e+00,-3.000000000000000000e+00
1.000000000000000000e+00,1.389330390000000692e+00,2.000000000000000000e+00,-3.000000000000000000e+00
0.000000000000000000e+00,7.093303900000001994e-01,2.000000000000000000e+00,-3.000000000000000000e+00
0.000000000000000000e+00,9.893303900000004480e-01,2.000000000000000000e+00,-3.000000000000000000e+00
0.000000000000000000e+00,4.693303900000000972e-01,2.000000000000000000e+00,-3.000000000000000000e+00
0.000000000000000000e+00,1.149330390000000479e+00,2.000000000000000000e+00,-3.000000000000000000e+00
0.000000000000000000e+00,1.129330390000000461e+00,2.000000000000000000e+00,-3.000000000000000000e+00
0.000000000000000000e+00,9.093303900000003770e-01,2.000000000000000000e+00,-3.000000000000000000e+00
0.000000000000000000e+00,1.189330390000000515e+00,2.000000000000000000e+00,-3.000000000000000000e+00
0.000000000000000000e+00,1.369330390000000675e+00,2.000000000000000000e+00,-3.000000000000000000e+00
1.000000000000000000e+00,7.209330389999935917e+00,2.000000000000000000e+00,-3.000000000000000000e+00
0.000000000000000000e+00,1.009330390000000577e+00,2.000000000000000000e+00,-3.000000000000000000e+00
0.000000000000000000e+00,2.089330390000001536e+00,2.000000000000000000e+00,-3.000000000000000000e+00
1.000000000000000000e+00,2.989330390000002335e+00,2.000000000000000000e+00,-3.000000000000000000e+00
1.000000000000000000e+00,2.109330390000001554e+00,2.000000000000000000e+00,-3.000000000000000000e+00
0.000000000000000000e+00,5.893303900000000928e-01,2.000000000000000000e+00,-3.000000000000000000e+00
0.000000000000000000e+00,4.693303900000000972e-01,2.000000000000000000e+00,-3.000000000000000000e+00
0.000000000000000000e+00,4.093303900000000439e-01,2.000000000000000000e+00,-3.000000000000000000e+00
0.000000000000000000e+00,6.093303900000001105e-01,2.000000000000000000e+00,-3.000000000000000000e+00
0.000000000000000000e+00,3.769330390000003028e+00,2.000000000000000000e+00,-3.000000000000000000e+00
0.000000000000000000e+00,1.669330390000000941e+00,2.000000000000000000e+00,-3.000000000000000000e+00
0.000000000000000000e+00,2.769330390000002140e+00,2.000000000000000000e+00,-3.000000000000000000e+00
0.000000000000000000e+00,5.693303900000000750e-01,2.000000000000000000e+00,-3.000000000000000000e+00
1.000000000000000000e+00,1.369330390000000675e+00,2.000000000000000000e+00,-3.000000000000000000e+00
0.000000000000000000e+00,1.209330390000000532e+00,2.000000000000000000e+00,-3.000000000000000000e+00
1.000000000000000000e+00,1.509330390000000799e+00,2.000000000000000000e+00,-3.000000000000000000e+00
0.000000000000000000e+00,1.329330390000000639e+00,2.000000000000000000e+00,-3.000000000000000000e+00
1.000000000000000000e+00,2.989330390000002335e+00,2.000000000000000000e+00,-3.000000000000000000e+00
0.000000000000000000e+00,2.049330390000001501e+00,2.000000000000000000e+00,-3.000000000000000000e+00
0.000000000000000000e+00,4.149330390000001145e+00,2.000000000000000000e+00,-3.000000000000000000e+00
0.000000000000000000e+00,1.549330390000000834e+00,2.000000000000000000e+00,-3.000000000000000000e+00
0.000000000000000000e+00,8.293303900000003059e-01,2.000000000000000000e+00,-3.000000000000000000e+00
0.000000000000000000e+00,5.693303900000000750e-01,2.000000000000000000e+00,-3.000000000000000000e+00
0.000000000000000000e+00,1.489330390000000781e+00,2.000000000000000000e+00,-3.000000000000000000e+00
1.000000000000000000e+00,1.629330390000000905e+00,2.000000000000000000e+00,-3.000000000000000000e+00
0.000000000000000000e+00,6.093303900000001105e-01,2.000000000000000000e+00,-3.000000000000000000e+00
0.000000000000000000e+00,6.693303900000001638e-01,2.000000000000000000e+00,-3.000000000000000000e+00
1.000000000000000000e+00,1.829330390000001083e+00,2.000000000000000000e+00,-3.000000000000000000e+00
0.000000000000000000e+00,2.209330390000001643e+00,2.000000000000000000e+00,-3.000000000000000000e+00
0.000000000000000000e+00,1.509330390000000799e+00,2.000000000000000000e+00,-3.000000000000000000e+00
0.000000000000000000e+00,1.469330390000000763e+00,2.000000000000000000e+00,-2.500000000000000000e+00
1.000000000000000000e+00,1.729330390000000994e+00,2.000000000000000000e+00,-2.500000000000000000e+00
1.000000000000000000e+00,9.293303900000003948e-01,2.000000000000000000e+00,-2.500000000000000000e+00
0.000000000000000000e+00,2.569330390000001962e+00,2.000000000000000000e+00,-2.500000000000000000e+00
0.000000000000000000e+00,1.329330390000000639e+00,2.000000000000000000e+00,-2.500000000000000000e+00
1.000000000000000000e+00,2.129330390000001572e+00,2.000000000000000000e+00,-2.500000000000000000e+00
0.000000000000000000e+00,1.289330390000000603e+00,2.000000000000000000e+00,-2.500000000000000000e+00
1.000000000000000000e+00,8.293303900000003059e-01,2.000000000000000000e+00,-2.500000000000000000e+00
0.000000000000000000e+00,1.029330390000000595e+00,2.000000000000000000e+00,-2.500000000000000000e+00
0.000000000000000000e+00,1.049330390000000612e+00,2.000000000000000000e+00,-2.500000000000000000e+00
1.000000000000000000e+00,3.929330390000003170e+00,2.000000000000000000e+00,-2.500000000000000000e+00
0.000000000000000000e+00,4.649330389999990487e+00,2.000000000000000000e+00,-2.500000000000000000e+00
1.000000000000000000e+00,2.629330390000002016e+00,2.000000000000000000e+00,-2.500000000000000000e+00
1.000000000000000000e+00,1.029330390000000595e+00,2.000000000000000000e+00,-2.500000000000000000e+00
0.000000000000000000e+00,9.493303900000004125e-01,2.000000000000000000e+00,-2.500000000000000000e+00
1.000000000000000000e+00,1.069330390000000408e+00,2.000000000000000000e+00,-2.500000000000000000e+00
0.000000000000000000e+00,4.493303900000000795e-01,2.000000000000000000e+00,-2.500000000000000000e+00
0.000000000000000000e+00,1.529330390000000817e+00,2.000000000000000000e+00,-2.500000000000000000e+00
0.000000000000000000e+00,1.649330390000000923e+00,2.000000000000000000e+00,-2.500000000000000000e+00
0.000000000000000000e+00,1.009330390000000577e+00,2.000000000000000000e+00,-2.500000000000000000e+00
0.000000000000000000e+00,9.293303900000003948e-01,2.000000000000000000e+00,-2.500000000000000000e+00
1.000000000000000000e+00,1.849330390000001101e+00,2.000000000000000000e+00,-2.500000000000000000e+00
0.000000000000000000e+00,6.093303900000001105e-01,2.000000000000000000e+00,-2.500000000000000000e+00
0.000000000000000000e+00,2.089330390000001536e+00,2.000000000000000000e+00,-2.500000000000000000e+00
1.000000000000000000e+00,1.489330390000000781e+00,2.000000000000000000e+00,-2.500000000000000000e+00
1.000000000000000000e+00,1.209330390000000532e+00,2.000000000000000000e+00,-2.500000000000000000e+00
0.000000000000000000e+00,1.249330390000000568e+00,2.000000000000000000e+00,-2.500000000000000000e+00
0.000000000000000000e+00,8.693303900000003415e-01,2.000000000000000000e+00,-2.500000000000000000e+00
0.000000000000000000e+00,7.093303900000001994e-01,2.000000000000000000e+00,-2.500000000000000000e+00
1.000000000000000000e+00,9.093303900000003770e-01,2.000000000000000000e+00,-2.500000000000000000e+00
0.000000000000000000e+00,9.893303900000004480e-01,2.000000000000000000e+00,-2.500000000000000000e+00
0.000000000000000000e+00,4.969330389999983666e+00,2.000000000000000000e+00,-2.500000000000000000e+00
1.000000000000000000e+00,1.449330390000000746e+00,2.000000000000000000e+00,-2.500000000000000000e+00
0.000000000000000000e+00,1.269330390000000586e+00,2.000000000000000000e+00,-2.500000000000000000e+00
0.000000000000000000e+00,2.589330390000001980e+00,2.000000000000000000e+00,-2.500000000000000000e+00
0.000000000000000000e+00,4.693303900000000972e-01,2.000000000000000000e+00,-2.500000000000000000e+00
0.000000000000000000e+00,1.369330390000000675e+00,2.000000000000000000e+00,-2.500000000000000000e+00
1.000000000000000000e+00,1.969330390000001207e+00,2.000000000000000000e+00,-2.500000000000000000e+00
0.000000000000000000e+00,4.493303900000000795e-01,2.000000000000000000e+00,-2.500000000000000000e+00
1.000000000000000000e+00,2.029330390000001483e+00,2.000000000000000000e+00,-2.500000000000000000e+00
1.000000000000000000e+00,6.789330389999944870e+00,2.000000000000000000e+00,-2.500000000000000000e+00
0.000000000000000000e+00,8.693303900000003415e-01,2.000000000000000000e+00,-2.500000000000000000e+00
0.000000000000000000e+00,5.493303900000001683e-01,2.000000000000000000e+00,-2.500000000000000000e+00
1.000000000000000000e+00,2.069330390000001518e+00,2.000000000000000000e+00,-2.500000000000000000e+00
1.000000000000000000e+00,1.429330390000000728e+00,2.000000000000000000e+00,-2.500000000000000000e+00
0.000000000000000000e+00,3.649330390000002922e+00,2.000000000000000000e+00,-2.500000000000000000e+00
0.000000000000000000e+00,1.849330390000001101e+00,2.000000000000000000e+00,-2.500000000000000000e+00
0.000000000000000000e+00,7.893303900000002704e-01,2.000000000000000000e+00,-2.500000000000000000e+00
1.000000000000000000e+00,2.269330390000001696e+00,2.000000000000000000e+00,-2.500000000000000000e+00
0.000000000000000000e+00,9.893303900000004480e-01,2.000000000000000000e+00,-2.500000000000000000e+00
0.000000000000000000e+00,2.029330390000001483e+00,2.000000000000000000e+00,-2.500000000000000000e+00
1.000000000000000000e+00,2.649330390000002033e+00,2.000000000000000000e+00,-2.500000000000000000e+00
1.000000000000000000e+00,8.693303900000003415e-01,2.000000000000000000e+00,-2.500000000000000000e+00
0.000000000000000000e+00,2.949330390000002300e+00,2.000000000000000000e+00,-2.500000000000000000e+00
0.000000000000000000e+00,1.749330390000001012e+00,2.000000000000000000e+00,-2.500000000000000000e+00
0.000000000000000000e+00,1.229330390000000550e+00,2.000000000000000000e+00,-2.500000000000000000e+00
0.000000000000000000e+00,1.029330390000000595e+00,2.000000000000000000e+00,-2.500000000000000000e+00
0.000000000000000000e+00,2.049330390000001501e+00,2.000000000000000000e+00,-2.500000000000000000e+00
1.000000000000000000e+00,2.569330390000001962e+00,2.000000000000000000e+00,-2.500000000000000000e+00
0.000000000000000000e+00,1.469330390000000763e+00,2.000000000000000000e+00,-2.500000000000000000e+00
0.000000000000000000e+00,7.493303900000002349e-01,2.000000000000000000e+00,-2.500000000000000000e+00
1.000000000000000000e+00,8.493303900000003237e-01,2.000000000000000000e+00,-2.500000000000000000e+00
1.000000000000000000e+00,2.889330390000002247e+00,2.000000000000000000e+00,-2.500000000000000000e+00
0.000000000000000000e+00,7.493303900000002349e-01,2.000000000000000000e+00,-2.500000000000000000e+00
1.000000000000000000e+00,2.069330390000001518e+00,2.000000000000000000e+00,-2.500000000000000000e+00
0.000000000000000000e+00,4.529330389999993045e+00,2.000000000000000000e+00,-2.500000000000000000e+00
0.000000000000000000e+00,5.493303900000001683e-01,2.000000000000000000e+00,-2.500000000000000000e+00
0.000000000000000000e+00,5.893303900000000928e-01,2.000000000000000000e+00,-2.500000000000000000e+00
1.000000000000000000e+00,1.489330390000000781e+00,2.000000000000000000e+00,-2.500000000000000000e+00
1.000000000000000000e+00,3.689330390000002957e+00,2.000000000000000000e+00,-2.500000000000000000e+00
0.000000000000000000e+00,9.893303900000004480e-01,2.000000000000000000e+00,-2.500000000000000000e+00
0.000000000000000000e+00,3.693303900000000084e-01,2.000000000000000000e+00,-2.500000000000000000e+00
0.000000000000000000e+00,5.609330389999970023e+00,2.000000000000000000e+00,-2.500000000000000000e+00
1.000000000000000000e+00,4.489330389999993898e+00,2.000000000000000000e+00,-2.500000000000000000e+00
0.000000000000000000e+00,1.669330390000000941e+00,2.000000000000000000e+00,-2.500000000000000000e+00
0.000000000000000000e+00,1.069330390000000408e+00,2.000000000000000000e+00,-2.500000000000000000e+00
0.000000000000000000e+00,6.493303900000001461e-01,2.000000000000000000e+00,-2.500000000000000000e+00
0.000000000000000000e+00,1.389330390000000692e+00,2.000000000000000000e+00,-2.500000000000000000e+00
1.000000000000000000e+00,1.289330390000000603e+00,2.000000000000000000e+00,-2.500000000000000000e+00
1.000000000000000000e+00,1.749330390000001012e+00,2.000000000000000000e+00,-2.500000000000000000e+00
1.000000000000000000e+00,1.849330390000001101e+00,2.000000000000000000e+00,-2.500000000000000000e+00
0.000000000000000000e+00,9.093303900000003770e-01,2.000000000000000000e+00,-2.500000000000000000e+00
0.000000000000000000e+00,1.449330390000000746e+00,2.000000000000000000e+00,-2.500000000000000000e+00
1.000000000000000000e+00,1.889330390000001136e+00,2.000000000000000000e+00,-2.500000000000000000e+00
1.000000000000000000e+00,3.649330390000002922e+00,2.000000000000000000e+00,-2.500000000000000000e+00
0.000000000000000000e+00,1.109330390000000444e+00,2.000000000000000000e+00,-2.500000000000000000e+00
1.000000000000000000e+00,6.893303900000001816e-01,2.000000000000000000e+00,-2.500000000000000000e+00
1.000000000000000000e+00,1.789330390000001048e+00,2.000000000000000000e+00,-2.500000000000000000e+00
1.000000000000000000e+00,9.693303900000004303e-01,2.000000000000000000e+00,-2.500000000000000000e+00
0.000000000000000000e+00,9.293303900000003948e-01,2.000000000000000000e+00,-2.500000000000000000e+00
1.000000000000000000e+00,1.769330390000001030e+00,2.000000000000000000e+00,-2.500000000000000000e+00
0.000000000000000000e+00,1.409330390000000710e+00,2.000000000000000000e+00,-2.500000000000000000e+00
1.000000000000000000e+00,1.209330390000000532e+00,2.000000000000000000e+00,-2.500000000000000000e+00
0.000000000000000000e+00,1.329330390000000639e+00,2.000000000000000000e+00,-2.500000000000000000e+00
0.000000000000000000e+00,1.849330390000001101e+00,2.000000000000000000e+00,-2.500000000000000000e+00
1.000000000000000000e+00,3.109330390000002442e+00,2.000000000000000000e+00,-2.500000000000000000e+00
0.000000000000000000e+00,7.493303900000002349e-01,2.000000000000000000e+00,-2.500000000000000000e+00
0.000000000000000000e+00,1.549330390000000834e+00,2.000000000000000000e+00,-2.500000000000000000e+00
0.000000000000000000e+00,2.969330390000002318e+00,2.000000000000000000e+00,-2.500000000000000000e+00
1.000000000000000000e+00,3.309330390000002620e+00,2.000000000000000000e+00,-2.500000000000000000e+00
1.000000000000000000e+00,6.293303900000001283e-01,2.000000000000000000e+00,-2.500000000000000000e+00
0.000000000000000000e+00,6.893303900000001816e-01,2.000000000000000000e+00,-2.500000000000000000e+00
0.000000000000000000e+00,9.893303900000004480e-01,2.000000000000000000e+00,-2.500000000000000000e+00
0.000000000000000000e+00,1.289330390000000603e+00,2.000000000000000000e+00,-2.500000000000000000e+00
0.000000000000000000e+00,1.029330390000000595e+00,2.000000000000000000e+00,-2.500000000000000000e+00
0.000000000000000000e+00,1.069330390000000408e+00,2.000000000000000000e+00,-2.500000000000000000e+00
0.000000000000000000e+00,2.049330390000001501e+00,2.000000000000000000e+00,-2.500000000000000000e+00
0.000000000000000000e+00,7.693303900000002526e-01,2.000000000000000000e+00,-2.500000000000000000e+00
0.000000000000000000e+00,4.693303900000000972e-01,2.000000000000000000e+00,-2.500000000000000000e+00
0.000000000000000000e+00,2.989330390000002335e+00,2.000000000000000000e+00,-2.500000000000000000e+00
0.000000000000000000e+00,1.209330390000000532e+00,2.000000000000000000e+00,-2.500000000000000000e+00
1.000000000000000000e+00,3.429330390000002726e+00,2.000000000000000000e+00,-2.500000000000000000e+00
0.000000000000000000e+00,6.493303900000001461e-01,2.000000000000000000e+00,-2.500000000000000000e+00
1.000000000000000000e+00,2.509330390000001909e+00,2.000000000000000000e+00,-2.500000000000000000e+00
0.000000000000000000e+00,1.189330390000000515e+00,2.000000000000000000e+00,-2.500000000000000000e+00
1.000000000000000000e+00,2.649330390000002033e+00,2.000000000000000000e+00,-2.500000000000000000e+00
1.000000000000000000e+00,8.493303900000003237e-01,2.000000000000000000e+00,-2.500000000000000000e+00
0.000000000000000000e+00,1.989330390000001225e+00,2.000000000000000000e+00,-2.500000000000000000e+00
1.000000000000000000e+00,2.709330390000002087e+00,2.000000000000000000e+00,-2.500000000000000000e+00
1.000000000000000000e+00,1.149330390000000479e+00,2.000000000000000000e+00,-2.500000000000000000e+00
1.000000000000000000e+00,1.969330390000001207e+00,2.000000000000000000e+00,-2.500000000000000000e+00
0.000000000000000000e+00,2.529330390000001927e+00,2.000000000000000000e+00,-2.500000000000000000e+00
1.000000000000000000e+00,1.069330390000000408e+00,2.000000000000000000e+00,-2.500000000000000000e+00
0.000000000000000000e+00,1.669330390000000941e+00,2.000000000000000000e+00,-2.500000000000000000e+00
0.000000000000000000e+00,7.093303900000001994e-01,2.000000000000000000e+00,-2.500000000000000000e+00
1.000000000000000000e+00,3.909330390000003153e+00,2.000000000000000000e+00,-2.500000000000000000e+00
0.000000000000000000e+00,1.289330390000000603e+00,2.000000000000000000e+00,-2.500000000000000000e+00
0.000000000000000000e+00,5.693303900000000750e-01,2.000000000000000000e+00,-2.500000000000000000e+00
0.000000000000000000e+00,1.929330390000001172e+00,2.000000000000000000e+00,-2.500000000000000000e+00
0.000000000000000000e+00,8.293303900000003059e-01,2.000000000000000000e+00,-2.500000000000000000e+00
0.000000000000000000e+00,2.709330390000002087e+00,2.000000000000000000e+00,-2.500000000000000000e+00
1.000000000000000000e+00,1.069330390000000408e+00,2.000000000000000000e+00,-2.500000000000000000e+00
0.000000000000000000e+00,8.693303900000003415e-01,2.000000000000000000e+00,-2.500000000000000000e+00
0.000000000000000000e+00,8.493303900000003237e-01,2.000000000000000000e+00,-2.500000000000000000e+00
0.000000000000000000e+00,1.929330390000001172e+00,2.000000000000000000e+00,-2.500000000000000000e+00
0.000000000000000000e+00,1.249330390000000568e+00,2.000000000000000000e+00,-2.500000000000000000e+00
0.000000000000000000e+00,8.093303900000002882e-01,2.000000000000000000e+00,-2.500000000000000000e+00
1.000000000000000000e+00,1.229330390000000550e+00,2.000000000000000000e+00,-2.500000000000000000e+00
1.000000000000000000e+00,1.349330390000000657e+00,2.000000000000000000e+00,-2.500000000000000000e+00
0.000000000000000000e+00,7.893303900000002704e-01,2.000000000000000000e+00,-2.500000000000000000e+00
1.000000000000000000e+00,5.293303900000001505e-01,2.000000000000000000e+00,-2.500000000000000000e+00
1.000000000000000000e+00,6.093303900000001105e-01,2.000000000000000000e+00,-2.500000000000000000e+00
1.000000000000000000e+00,2.749330390000002122e+00,2.000000000000000000e+00,-2.500000000000000000e+00
1.000000000000000000e+00,1.389330390000000692e+00,2.000000000000000000e+00,-2.500000000000000000e+00
1.000000000000000000e+00,9.693303900000004303e-01,2.000000000000000000e+00,-2.500000000000000000e+00
0.000000000000000000e+00,4.893303900000001150e-01,2.000000000000000000e+00,-2.500000000000000000e+00
1.000000000000000000e+00,3.929330390000003170e+00,2.000000000000000000e+00,-2.500000000000000000e+00
0.000000000000000000e+00,4.949330389999984092e+00,2.000000000000000000e+00,-2.500000000000000000e+00
0.000000000000000000e+00,1.129330390000000461e+00,2.000000000000000000e+00,-2.500000000000000000e+00
0.000000000000000000e+00,7.493303900000002349e-01,2.000000000000000000e+00,-2.500000000000000000e+00
0.000000000000000000e+00,3.809330390000003064e+00,2.000000000000000000e+00,-2.500000000000000000e+00
0.000000000000000000e+00,6.893303900000001816e-01,2.000000000000000000e+00,-2.500000000000000000e+00
1.000000000000000000e+00,1.669330390000000941e+00,2.000000000000000000e+00,-2.500000000000000000e+00
1.000000000000000000e+00,1.609330390000000888e+00,2.000000000000000000e+00,-2.500000000000000000e+00
0.000000000000000000e+00,6.293303900000001283e-01,2.000000000000000000e+00,-2.500000000000000000e+00
1.000000000000000000e+00,3.109330390000002442e+00,2.000000000000000000e+00,-2.500000000000000000e+00
0.000000000000000000e+00,5.893303900000000928e-01,2.000000000000000000e+00,-2.500000000000000000e+00
0.000000000000000000e+00,7.293303900000002171e-01,2.000000000000000000e+00,-2.500000000000000000e+00
0.000000000000000000e+00,5.893303900000000928e-01,2.000000000000000000e+00,-2.500000000000000000e+00
0.000000000000000000e+00,1.529330390000000817e+00,2.000000000000000000e+00,-2.500000000000000000e+00
0.000000000000000000e+00,6.893303900000001816e-01,2.000000000000000000e+00,-2.500000000000000000e+00
0.000000000000000000e+00,1.049330390000000612e+00,2.000000000000000000e+00,-2.500000000000000000e+00
0.000000000000000000e+00,7.093303900000001994e-01,2.000000000000000000e+00,-2.500000000000000000e+00
1.000000000000000000e+00,2.729330390000002105e+00,2.000000000000000000e+00,-2.500000000000000000e+00
0.000000000000000000e+00,8.893303900000003592e-01,2.000000000000000000e+00,-2.500000000000000000e+00
0.000000000000000000e+00,1.009330390000000577e+00,2.000000000000000000e+00,-2.500000000000000000e+00
1.000000000000000000e+00,8.893303900000003592e-01,2.000000000000000000e+00,-2.500000000000000000e+00
0.000000000000000000e+00,7.093303900000001994e-01,2.000000000000000000e+00,-2.500000000000000000e+00
0.000000000000000000e+00,1.029330390000000595e+00,2.000000000000000000e+00,-2.500000000000000000e+00
1.000000000000000000e+00,2.289330390000001714e+00,2.000000000000000000e+00,-2.500000000000000000e+00
1.000000000000000000e+00,7.893303900000002704e-01,2.000000000000000000e+00,-2.500000000000000000e+00
0.000000000000000000e+00,1.089330390000000426e+00,2.000000000000000000e+00,-2.500000000000000000e+00
0.000000000000000000e+00,1.449330390000000746e+00,2.000000000000000000e+00,-2.500000000000000000e+00
0.000000000000000000e+00,8.293303900000003059e-01,2.000000000000000000e+00,-2.500000000000000000e+00
1.000000000000000000e+00,1.329330390000000639e+00,2.000000000000000000e+00,-2.500000000000000000e+00
1.000000000000000000e+00,9.893303900000004480e-01,2.000000000000000000e+00,-2.500000000000000000e+00
0.000000000000000000e+00,1.129330390000000461e+00,2.000000000000000000e+00,-2.500000000000000000e+00
0.000000000000000000e+00,6.693303900000001638e-01,2.000000000000000000e+00,-2.500000000000000000e+00
0.000000000000000000e+00,1.989330390000001225e+00,2.000000000000000000e+00,-2.500000000000000000e+00
0.000000000000000000e+00,6.693303900000001638e-01,2.000000000000000000e+00,-2.500000000000000000e+00
1.000000000000000000e+00,7.293303900000002171e-01,2.000000000000000000e+00,-2.500000000000000000e+00
0.000000000000000000e+00,6.493303900000001461e-01,2.000000000000000000e+00,-2.500000000000000000e+00
0.000000000000000000e+00,8.693303900000003415e-01,2.000000000000000000e+00,-2.500000000000000000e+00
1.000000000000000000e+00,2.609330390000001998e+00,2.000000000000000000e+00,-2.500000000000000000e+00
0.000000000000000000e+00,4.493303900000000795e-01,2.000000000000000000e+00,-2.500000000000000000e+00
0.000000000000000000e+00,7.893303900000002704e-01,2.000000000000000000e+00,-2.500000000000000000e+00
0.000000000000000000e+00,1.309330390000000621e+00,2.000000000000000000e+00,-2.500000000000000000e+00
1.000000000000000000e+00,1.749330390000001012e+00,2.000000000000000000e+00,-2.500000000000000000e+00
0.000000000000000000e+00,8.693303900000003415e-01,2.000000000000000000e+00,-2.500000000000000000e+00
1.000000000000000000e+00,3.749330390000003010e+00,2.000000000000000000e+00,-2.500000000000000000e+00
0.000000000000000000e+00,1.229330390000000550e+00,2.000000000000000000e+00,-2.500000000000000000e+00
1.000000000000000000e+00,2.489330390000001891e+00,2.000000000000000000e+00,-2.500000000000000000e+00
0.000000000000000000e+00,1.349330390000000657e+00,2.000000000000000000e+00,-2.500000000000000000e+00
0.000000000000000000e+00,1.829330390000001083e+00,2.000000000000000000e+00,-2.500000000000000000e+00
0.000000000000000000e+00,1.789330390000001048e+00,2.000000000000000000e+00,-2.500000000000000000e+00
1.000000000000000000e+00,1.569330390000000852e+00,2.000000000000000000e+00,-2.500000000000000000e+00
0.000000000000000000e+00,7.893303900000002704e-01,2.000000000000000000e+00,-2.500000000000000000e+00
0.000000000000000000e+00,4.493303900000000795e-01,2.000000000000000000e+00,-2.500000000000000000e+00
0.000000000000000000e+00,6.293303900000001283e-01,2.000000000000000000e+00,-2.500000000000000000e+00
0.000000000000000000e+00,1.049330390000000612e+00,2.000000000000000000e+00,-2.500000000000000000e+00
0.000000000000000000e+00,3.129330390000002460e+00,2.000000000000000000e+00,-2.000000000000000000e+00
0.000000000000000000e+00,1.109330390000000444e+00,2.000000000000000000e+00,-2.000000000000000000e+00
0.000000000000000000e+00,1.369330390000000675e+00,2.000000000000000000e+00,-2.000000000000000000e+00
1.000000000000000000e+00,3.649330390000002922e+00,2.000000000000000000e+00,-2.000000000000000000e+00
1.000000000000000000e+00,1.209330390000000532e+00,2.000000000000000000e+00,-2.000000000000000000e+00
1.000000000000000000e+00,8.093303900000002882e-01,2.000000000000000000e+00,-2.000000000000000000e+00
0.000000000000000000e+00,3.349330390000002655e+00,2.000000000000000000e+00,-2.000000000000000000e+00
0.000000000000000000e+00,1.509330390000000799e+00,2.000000000000000000e+00,-2.000000000000000000e+00
1.000000000000000000e+00,2.449330390000001856e+00,2.000000000000000000e+00,-2.000000000000000000e+00
0.000000000000000000e+00,3.769330390000003028e+00,2.000000000000000000e+00,-2.000000000000000000e+00
1.000000000000000000e+00,2.369330390000001785e+00,2.000000000000000000e+00,-2.000000000000000000e+00
0.000000000000000000e+00,1.329330390000000639e+00,2.000000000000000000e+00,-2.000000000000000000e+00
1.000000000000000000e+00,1.649330390000000923e+00,2.000000000000000000e+00,-2.000000000000000000e+00
1.000000000000000000e+00,2.609330390000001998e+00,2.000000000000000000e+00,-2.000000000000000000e+00
0.000000000000000000e+00,9.293303900000003948e-01,2.000000000000000000e+00,-2.000000000000000000e+00
0.000000000000000000e+00,4.089330390000002424e+00,2.000000000000000000e+00,-2.000000000000000000e+00
0.000000000000000000e+00,7.293303900000002171e-01,2.000000000000000000e+00,-2.000000000000000000e+00
0.000000000000000000e+00,5.093303900000001327e-01,2.000000000000000000e+00,-2.000000000000000000e+00
0.000000000000000000e+00,8.293303900000003059e-01,2.000000000000000000e+00,-2.000000000000000000e+00
1.000000000000000000e+00,2.749330390000002122e+00,2.000000000000000000e+00,-2.000000000000000000e+00
0.000000000000000000e+00,5.893303900000000928e-01,2.000000000000000000e+00,-2.000000000000000000e+00
1.000000000000000000e+00,9.093303900000003770e-01,2.000000000000000000e+00,-2.000000000000000000e+00
0.000000000000000000e+00,1.809330390000001065e+00,2.000000000000000000e+00,-2.000000000000000000e+00
1.000000000000000000e+00,7.893303900000002704e-01,2.000000000000000000e+00,-2.000000000000000000e+00
0.000000000000000000e+00,8.893303900000003592e-01,2.000000000000000000e+00,-2.000000000000000000e+00
0.000000000000000000e+00,9.893303900000004480e-01,2.000000000000000000e+00,-2.000000000000000000e+00
0.000000000000000000e+00,1.209330390000000532e+00,2.000000000000000000e+00,-2.000000000000000000e+00
0.000000000000000000e+00,1.089330390000000426e+00,2.000000000000000000e+00,-2.000000000000000000e+00
1.000000000000000000e+00,8.893303900000003592e-01,2.000000000000000000e+00,-2.000000000000000000e+00
1.000000000000000000e+00,2.529330390000001927e+00,2.000000000000000000e+00,-2.000000000000000000e+00
1.000000000000000000e+00,8.493303900000003237e-01,2.000000000000000000e+00,-2.000000000000000000e+00
0.000000000000000000e+00,7.293303900000002171e-01,2.000000000000000000e+00,-2.000000000000000000e+00
1.000000000000000000e+00,1.949330390000001190e+00,2.000000000000000000e+00,-2.000000000000000000e+00
1.000000000000000000e+00,6.693303900000001638e-01,2.000000000000000000e+00,-2.000000000000000000e+00
1.000000000000000000e+00,1.969330390000001207e+00,2.000000000000000000e+00,-2.000000000000000000e+00
1.000000000000000000e+00,1.449330390000000746e+00,2.000000000000000000e+00,-2.000000000000000000e+00
0.000000000000000000e+00,2.589330390000001980e+00,2.000000000000000000e+00,-2.000000000000000000e+00
1.000000000000000000e+00,2.149330390000001589e+00,2.000000000000000000e+00,-2.000000000000000000e+00
1.000000000000000000e+00,1.749330390000001012e+00,2.000000000000000000e+00,-2.000000000000000000e+00
1.000000000000000000e+00,3.709330390000002975e+00,2.000000000000000000e+00,-2.000000000000000000e+00
1.000000000000000000e+00,9.693303900000004303e-01,2.000000000000000000e+00,-2.000000000000000000e+00
1.000000000000000000e+00,2.909330390000002264e+00,2.000000000000000000e+00,-2.000000000000000000e+00
1.000000000000000000e+00,8.093303900000002882e-01,2.000000000000000000e+00,-2.000000000000000000e+00
1.000000000000000000e+00,1.549330390000000834e+00,2.000000000000000000e+00,-2.000000000000000000e+00
1.000000000000000000e+00,5.493303900000001683e-01,2.000000000000000000e+00,-2.000000000000000000e+00
0.000000000000000000e+00,4.493303900000000795e-01,2.000000000000000000e+00,-2.000000000000000000e+00
0.000000000000000000e+00,2.249330390000001678e+00,2.000000000000000000e+00,-2.000000000000000000e+00
0.000000000000000000e+00,1.429330390000000728e+00,2.000000000000000000e+00,-2.000000000000000000e+00
1.000000000000000000e+00,1.209330390000000532e+00,2.000000000000000000e+00,-2.000000000000000000e+00
1.000000000000000000e+00,1.729330390000000994e+00,2.000000000000000000e+00,-2.000000000000000000e+00
0.000000000000000000e+00,1.429330390000000728e+00,2.000000000000000000e+00,-2.000000000000000000e+00
0.000000000000000000e+00,1.089330390000000426e+00,2.000000000000000000e+00,-2.000000000000000000e+00
1.000000000000000000e+00,1.989330390000001225e+00,2.000000000000000000e+00,-2.000000000000000000e+00
0.000000000000000000e+00,1.529330390000000817e+00,2.000000000000000000e+00,-2.000000000000000000e+00
0.000000000000000000e+00,1.289330390000000603e+00,2.000000000000000000e+00,-2.000000000000000000e+00
0.000000000000000000e+00,6.093303900000001105e-01,2.000000000000000000e+00,-2.000000000000000000e+00
0.000000000000000000e+00,1.909330390000001154e+00,2.000000000000000000e+00,-2.000000000000000000e+00
1.000000000000000000e+00,1.309330390000000621e+00,2.000000000000000000e+00,-2.000000000000000000e+00
1.000000000000000000e+00,1.929330390000001172e+00,2.000000000000000000e+00,-2.000000000000000000e+00
1.000000000000000000e+00,9.493303900000004125e-01,2.000000000000000000e+00,-2.000000000000000000e+00
0.000000000000000000e+00,1.089330390000000426e+00,2.000000000000000000e+00,-2.000000000000000000e+00
0.000000000000000000e+00,9.493303900000004125e-01,2.000000000000000000e+00,-2.000000000000000000e+00
1.000000000000000000e+00,2.469330390000001874e+00,2.000000000000000000e+00,-2.000000000000000000e+00
0.000000000000000000e+00,8.093303900000002882e-01,2.000000000000000000e+00,-2.000000000000000000e+00
0.000000000000000000e+00,1.169330390000000497e+00,2.000000000000000000e+00,-2.000000000000000000e+00
1.000000000000000000e+00,2.589330390000001980e+00,2.000000000000000000e+00,-2.000000000000000000e+00
0.000000000000000000e+00,1.389330390000000692e+00,2.000000000000000000e+00,-2.000000000000000000e+00
1.000000000000000000e+00,7.293303900000002171e-01,2.000000000000000000e+00,-2.000000000000000000e+00
0.000000000000000000e+00,2.609330390000001998e+00,2.000000000000000000e+00,-2.000000000000000000e+00
1.000000000000000000e+00,1.329330390000000639e+00,2.000000000000000000e+00,-2.000000000000000000e+00
1.000000000000000000e+00,1.969330390000001207e+00,2.000000000000000000e+00,-2.000000000000000000e+00
1.000000000000000000e+00,1.329330390000000639e+00,2.000000000000000000e+00,-2.000000000000000000e+00
0.000000000000000000e+00,3.849330390000003099e+00,2.000000000000000000e+00,-2.000000000000000000e+00
1.000000000000000000e+00,9.693303900000004303e-01,2.000000000000000000e+00,-2.000000000000000000e+00
0.000000000000000000e+00,1.169330390000000497e+00,2.000000000000000000e+00,-2.000000000000000000e+00
0.000000000000000000e+00,1.849330390000001101e+00,2.000000000000000000e+00,-2.000000000000000000e+00
0.000000000000000000e+00,1.889330390000001136e+00,2.000000000000000000e+00,-2.000000000000000000e+00
0.000000000000000000e+00,7.693303900000002526e-01,2.000000000000000000e+00,-2.000000000000000000e+00
0.000000000000000000e+00,1.469330390000000763e+00,2.000000000000000000e+00,-2.000000000000000000e+00
1.000000000000000000e+00,1.329330390000000639e+00,2.000000000000000000e+00,-2.000000000000000000e+00
0.000000000000000000e+00,1.049330390000000612e+00,2.000000000000000000e+00,-2.000000000000000000e+00
0.000000000000000000e+00,8.093303900000002882e-01,2.000000000000000000e+00,-2.000000000000000000e+00
0.000000000000000000e+00,2.109330390000001554e+00,2.000000000000000000e+00,-2.000000000000000000e+00
0.000000000000000000e+00,9.693303900000004303e-01,2.000000000000000000e+00,-2.000000000000000000e+00
0.000000000000000000e+00,3.129330390000002460e+00,2.000000000000000000e+00,-2.000000000000000000e+00
1.000000000000000000e+00,2.749330390000002122e+00,2.000000000000000000e+00,-2.000000000000000000e+00
0.000000000000000000e+00,2.889330390000002247e+00,2.000000000000000000e+00,-2.000000000000000000e+00
1.000000000000000000e+00,5.093303900000001327e-01,2.000000000000000000e+00,-2.000000000000000000e+00
0.000000000000000000e+00,3.309330390000002620e+00,2.000000000000000000e+00,-2.000000000000000000e+00
0.000000000000000000e+00,7.693303900000002526e-01,2.000000000000000000e+00,-2.000000000000000000e+00
1.000000000000000000e+00,1.609330390000000888e+00,2.000000000000000000e+00,-2.000000000000000000e+00
1.000000000000000000e+00,1.549330390000000834e+00,2.000000000000000000e+00,-2.000000000000000000e+00
0.000000000000000000e+00,4.893303900000001150e-01,2.000000000000000000e+00,-2.000000000000000000e+00
0.000000000000000000e+00,8.293303900000003059e-01,2.000000000000000000e+00,-2.000000000000000000e+00
0.000000000000000000e+00,1.369330390000000675e+00,2.000000000000000000e+00,-2.000000000000000000e+00
1.000000000000000000e+00,5.969330389999962350e+00,2.000000000000000000e+00,-2.000000000000000000e+00
1.000000000000000000e+00,7.493303900000002349e-01,2.000000000000000000e+00,-2.000000000000000000e+00
0.000000000000000000e+00,2.309330390000001731e+00,2.000000000000000000e+00,-2.000000000000000000e+00
0.000000000000000000e+00,2.629330390000002016e+00,2.000000000000000000e+00,-2.000000000000000000e+00
0.000000000000000000e+00,1.229330390000000550e+00,2.000000000000000000e+00,-2.000000000000000000e+00
0.000000000000000000e+00,9.493303900000004125e-01,2.000000000000000000e+00,-2.000000000000000000e+00
1.000000000000000000e+00,1.309330390000000621e+00,2.000000000000000000e+00,-2.000000000000000000e+00
1.000000000000000000e+00,3.549330390000002833e+00,2.000000000000000000e+00,-2.000000000000000000e+00
1.000000000000000000e+00,1.129330390000000461e+00,2.000000000000000000e+00,-2.000000000000000000e+00
1.000000000000000000e+00,7.293303900000002171e-01,2.000000000000000000e+00,-2.000000000000000000e+00
0.000000000000000000e+00,1.489330390000000781e+00,2.000000000000000000e+00,-2.000000000000000000e+00
0.000000000000000000e+00,8.093303900000002882e-01,2.000000000000000000e+00,-2.000000000000000000e+00
0.000000000000000000e+00,1.449330390000000746e+00,2.000000000000000000e+00,-2.000000000000000000e+00
1.000000000000000000e+00,2.969330390000002318e+00,2.000000000000000000e+00,-2.000000000000000000e+00
1.000000000000000000e+00,5.893303900000000928e-01,2.000000000000000000e+00,-2.000000000000000000e+00
1.000000000000000000e+00,9.893303900000004480e-01,2.000000000000000000e+00,-2.000000000000000000e+00
0.000000000000000000e+00,2.889330390000002247e+00,2.000000000000000000e+00,-2.000000000000000000e+00
0.000000000000000000e+00,1.029330390000000595e+00,2.000000000000000000e+00,-2.000000000000000000e+00
0.000000000000000000e+00,6.893303900000001816e-01,2.000000000000000000e+00,-2.000000000000000000e+00
1.000000000000000000e+00,1.089330390000000426e+00,2.000000000000000000e+00,-2.000000000000000000e+00
0.000000000000000000e+00,8.693303900000003415e-01,2.000000000000000000e+00,-2.000000000000000000e+00
1.000000000000000000e+00,1.749330390000001012e+00,2.000000000000000000e+00,-2.000000000000000000e+00
0.000000000000000000e+00,2.449330390000001856e+00,2.000000000000000000e+00,-2.000000000000000000e+00
0.000000000000000000e+00,4.489330389999993898e+00,2.000000000000000000e+00,-2.000000000000000000e+00
0.000000000000000000e+00,1.009330390000000577e+00,2.000000000000000000e+00,-2.000000000000000000e+00
1.000000000000000000e+00,1.149330390000000479e+00,2.000000000000000000e+00,-2.000000000000000000e+00
1.000000000000000000e+00,8.309330389999912470e+00,2.000000000000000000e+00,-2.000000000000000000e+00
0.000000000000000000e+00,1.269330390000000586e+00,2.000000000000000000e+00,-2.000000000000000000e+00
1.000000000000000000e+00,1.549330390000000834e+00,2.000000000000000000e+00,-2.000000000000000000e+00
1.000000000000000000e+00,6.093303900000001105e-01,2.000000000000000000e+00,-2.000000000000000000e+00
0.000000000000000000e+00,1.649330390000000923e+00,2.000000000000000000e+00,-2.000000000000000000e+00
0.000000000000000000e+00,8.093303900000002882e-01,2.000000000000000000e+00,-2.000000000000000000e+00
0.000000000000000000e+00,1.449330390000000746e+00,2.000000000000000000e+00,-2.000000000000000000e+00
1.000000000000000000e+00,1.109330390000000444e+00,2.000000000000000000e+00,-2.000000000000000000e+00
1.000000000000000000e+00,4.489330389999993898e+00,2.000000000000000000e+00,-2.000000000000000000e+00
1.000000000000000000e+00,6.693303900000001638e-01,2.000000000000000000e+00,-2.000000000000000000e+00
1.000000000000000000e+00,8.893303900000003592e-01,2.000000000000000000e+00,-2.000000000000000000e+00
0.000000000000000000e+00,7.493303900000002349e-01,2.000000000000000000e+00,-2.000000000000000000e+00
0.000000000000000000e+00,5.293303900000001505e-01,2.000000000000000000e+00,-2.000000000000000000e+00
0.000000000000000000e+00,1.029330390000000595e+00,2.000000000000000000e+00,-2.000000000000000000e+00
1.000000000000000000e+00,5.893303900000000928e-01,2.000000000000000000e+00,-2.000000000000000000e+00
0.000000000000000000e+00,1.389330390000000692e+00,2.000000000000000000e+00,-2.000000000000000000e+00
1.000000000000000000e+00,1.149330390000000479e+00,2.000000000000000000e+00,-2.000000000000000000e+00
0.000000000000000000e+00,3.493303899999999906e-01,2.000000000000000000e+00,-2.000000000000000000e+00
0.000000000000000000e+00,3.249330390000002566e+00,2.000000000000000000e+00,-2.000000000000000000e+00
0.000000000000000000e+00,1.509330390000000799e+00,2.000000000000000000e+00,-2.000000000000000000e+00
0.000000000000000000e+00,1.689330390000000959e+00,2.000000000000000000e+00,-2.000000000000000000e+00
1.000000000000000000e+00,1.549330390000000834e+00,2.000000000000000000e+00,-2.000000000000000000e+00
0.000000000000000000e+00,2.609330390000001998e+00,2.000000000000000000e+00,-2.000000000000000000e+00
1.000000000000000000e+00,3.529330390000002815e+00,2.000000000000000000e+00,-2.000000000000000000e+00
1.000000000000000000e+00,1.229330390000000550e+00,2.000000000000000000e+00,-2.000000000000000000e+00
1.000000000000000000e+00,1.489330390000000781e+00,2.000000000000000000e+00,-2.000000000000000000e+00
1.000000000000000000e+00,1.969330390000001207e+00,2.000000000000000000e+00,-2.000000000000000000e+00
1.000000000000000000e+00,1.929330390000001172e+00,2.000000000000000000e+00,-2.000000000000000000e+00
0.000000000000000000e+00,1.609330390000000888e+00,2.000000000000000000e+00,-2.000000000000000000e+00
1.000000000000000000e+00,3.269330390000002584e+00,2.000000000000000000e+00,-2.000000000000000000e+00
0.000000000000000000e+00,7.293303900000002171e-01,2.000000000000000000e+00,-2.000000000000000000e+00
0.000000000000000000e+00,1.429330390000000728e+00,2.000000000000000000e+00,-2.000000000000000000e+00
0.000000000000000000e+00,7.693303900000002526e-01,2.000000000000000000e+00,-2.000000000000000000e+00
0.000000000000000000e+00,1.429330390000000728e+00,2.000000000000000000e+00,-2.000000000000000000e+00
1.000000000000000000e+00,2.049330390000001501e+00,2.000000000000000000e+00,-2.000000000000000000e+00
1.000000000000000000e+00,1.849330390000001101e+00,2.000000000000000000e+00,-2.000000000000000000e+00
1.000000000000000000e+00,1.409330390000000710e+00,2.000000000000000000e+00,-2.000000000000000000e+00
1.000000000000000000e+00,1.769330390000001030e+00,2.000000000000000000e+00,-2.000000000000000000e+00
0.000000000000000000e+00,1.389330390000000692e+00,2.000000000000000000e+00,-2.000000000000000000e+00
0.000000000000000000e+00,1.569330390000000852e+00,2.000000000000000000e+00,-2.000000000000000000e+00
1.000000000000000000e+00,2.089330390000001536e+00,2.000000000000000000e+00,-2.000000000000000000e+00
1.000000000000000000e+00,1.129330390000000461e+00,2.000000000000000000e+00,-2.000000000000000000e+00
1.000000000000000000e+00,1.449330390000000746e+00,2.000000000000000000e+00,-2.000000000000000000e+00
0.000000000000000000e+00,1.169330390000000497e+00,2.000000000000000000e+00,-2.000000000000000000e+00
0.000000000000000000e+00,9.093303900000003770e-01,2.000000000000000000e+00,-2.000000000000000000e+00
1.000000000000000000e+00,1.129330390000000461e+00,2.000000000000000000e+00,-2.000000000000000000e+00
0.000000000000000000e+00,1.309330390000000621e+00,2.000000000000000000e+00,-2.000000000000000000e+00
1.000000000000000000e+00,2.549330390000001945e+00,2.000000000000000000e+00,-2.000000000000000000e+00
1.000000000000000000e+00,1.229330390000000550e+00,2.000000000000000000e+00,-2.000000000000000000e+00
0.000000000000000000e+00,3.693303900000000084e-01,2.000000000000000000e+00,-2.000000000000000000e+00
1.000000000000000000e+00,1.549330390000000834e+00,2.000000000000000000e+00,-2.000000000000000000e+00
0.000000000000000000e+00,1.869330390000001119e+00,2.000000000000000000e+00,-2.000000000000000000e+00
0.000000000000000000e+00,9.693303900000004303e-01,2.000000000000000000e+00,-2.000000000000000000e+00
1.000000000000000000e+00,1.709330390000000977e+00,2.000000000000000000e+00,-2.000000000000000000e+00
0.000000000000000000e+00,4.093303900000000439e-01,2.000000000000000000e+00,-2.000000000000000000e+00
0.000000000000000000e+00,4.093303900000000439e-01,2.000000000000000000e+00,-2.000000000000000000e+00
1.000000000000000000e+00,1.309330390000000621e+00,2.000000000000000000e+00,-2.000000000000000000e+00
0.000000000000000000e+00,1.489330390000000781e+00,2.000000000000000000e+00,-2.000000000000000000e+00
1.000000000000000000e+00,9.293303900000003948e-01,2.000000000000000000e+00,-2.000000000000000000e+00
0.000000000000000000e+00,8.893303900000003592e-01,2.000000000000000000e+00,-2.000000000000000000e+00
0.000000000000000000e+00,1.789330390000001048e+00,2.000000000000000000e+00,-2.000000000000000000e+00
1.000000000000000000e+00,2.829330390000002193e+00,2.000000000000000000e+00,-2.000000000000000000e+00
1.000000000000000000e+00,5.493303900000001683e-01,2.000000000000000000e+00,-2.000000000000000000e+00
0.000000000000000000e+00,1.229330390000000550e+00,2.000000000000000000e+00,-2.000000000000000000e+00
0.000000000000000000e+00,8.493303900000003237e-01,2.000000000000000000e+00,-2.000000000000000000e+00
1.000000000000000000e+00,1.449330390000000746e+00,2.000000000000000000e+00,-2.000000000000000000e+00
1.000000000000000000e+00,2.029330390000001483e+00,2.000000000000000000e+00,-2.000000000000000000e+00
0.000000000000000000e+00,1.269330390000000586e+00,2.000000000000000000e+00,-2.000000000000000000e+00
1.000000000000000000e+00,2.849330390000002211e+00,2.000000000000000000e+00,-2.000000000000000000e+00
